filename,0,1,2,3,4,5,6,7,8,9,10,11,12,13,14,15,16,17,18,19,20,21,22,23,24,25,26,27,28,29,30,31,32,33,34,35,36,37,38,39,40,41,42,43,44,45,46,47,48,49,50,51,52,53,54,55,56,57,58,59,60,61,62,63,64,65,66,67,68,69,70,71,72,73,74,75,76,77,78,79,80,81,82,83,84,85,86,87,88,89,90,91,92,93,94,95,96,97,98,99,100,101,102,103,104,105,106,107,108,109,110,111,112,113,114,115,116,117,118,119,120,121,122,123,124,125,126,127,128,129,130,131,132,133,134,135,136,137,138,139,140,141,142,143,144,145,146,147,148,149,150,151,152,153,154,155,156,157,158,159
A05_LA_T_7763777.flac,0.012322671711444855,0.03048376366496086,0.09267081320285797,0.008767623454332352,0.04544596001505852,0.07138261198997498,0.04811234027147293,0.04744580015540123,0.0726475939154625,0.047587208449840546,0.015641987323760986,0.03766056150197983,1.9115009307861328,0.03283947706222534,0.006210716441273689,0.004418577998876572,2.4096176624298096,0.04135439172387123,0.005130094941705465,1.9615957736968994,0.07301992923021317,1.7373586893081665,0.08060809224843979,0.18013659119606018,0.12492922693490982,1.8976092338562012,0.021526774391531944,0.03109833598136902,0.0563170425593853,0.01982204057276249,0.03760846331715584,0.032994113862514496,-0.01229633204638958,-0.03045925498008728,-0.0925992950797081,-0.008750714361667633,0.045375823974609375,-0.07133946567773819,0.047990262508392334,-0.04730503633618355,-0.0726003497838974,-0.0475669801235199,-0.015590895898640156,-0.03761082887649536,1.9008123874664307,0.03278153017163277,0.006151767447590828,0.004289505071938038,2.384713649749756,-0.04133867472410202,0.005065089091658592,1.9531806707382202,0.0729733258485794,1.72509765625,-0.08047308772802353,-0.1800178587436676,-0.12489117681980133,1.8802951574325562,0.02148425206542015,-0.031059622764587402,-0.056200552731752396,-0.01977159082889557,-0.03753868490457535,-0.03294339030981064,0.010023821145296097,0.014736278913915157,0.8648769855499268,0.08083897829055786,1.0950984954833984,1.0864015817642212,0.022557921707630157,0.0021206485107541084,1.0833587646484375,0.509637713432312,0.015771472826600075,0.6692947745323181,1.088759183883667,0.4959588646888733,0.09017807245254517,0.0038672524970024824,0.10045811533927917,0.6415907144546509,0.08982102572917938,0.18719010055065155,0.01621001958847046,0.6038248538970947,1.6208909749984741,0.010929780080914497,0.011812673881649971,0.00025980209466069937,0.3838461637496948,0.0074828872457146645,0.6356475353240967,0.03964961692690849,0.8797954320907593,0.06759669631719589,0.010009272955358028,0.014722893014550209,-0.8608888983726501,-0.0808335542678833,-1.0913583040237427,-1.0789673328399658,-0.02253083698451519,0.0021107904613018036,1.083351492881775,0.5096248984336853,-0.015753397718071938,-0.6692603230476379,1.0812692642211914,-0.4959505498409271,-0.09014128893613815,0.0038452656008303165,0.0905689001083374,-0.6415452361106873,-0.08981161564588547,-0.18716423213481903,-0.01620035246014595,-0.6037972569465637,1.610525369644165,-0.010902708396315575,0.011794927529990673,-0.00023591842909809202,0.37943488359451294,0.007467956747859716,-0.6356215476989746,0.039641108363866806,-0.8797724843025208,-0.06759121268987656,-0.7977534532546997,-1.3941545486450195,-0.9108608961105347,-1.0007669925689697,-1.1905953884124756,-1.2704458236694336,-1.2938411235809326,0.9149523973464966,1.5931105613708496,1.6682016849517822,1.3324030637741089,1.260329008102417,0.7531824707984924,-0.9364072680473328,-0.7953892946243286,-0.9206659197807312,-0.6998041868209839,1.0377986431121826,-1.1554961204528809,-0.867912769317627,-1.0525721311569214,1.024300456047058,-0.7148939371109009,-0.5566924810409546,1.2412824630737305,1.693352460861206,-0.8721928000450134,1.1342408657073975,1.4167523384094238,1.6001672744750977,-1.0863795280456543,-0.45963549613952637
A05_LA_T_5955199.flac,0.010390553623437881,0.03075527772307396,0.09476019442081451,0.005916690453886986,0.04381626471877098,0.06835103780031204,0.049588706344366074,0.04712061211466789,0.07027575373649597,0.044483285397291183,0.018613820895552635,0.03931024670600891,1.820995807647705,0.0322030708193779,0.010298056527972221,0.005362026859074831,2.3241701126098633,0.04391270503401756,0.006100560072809458,1.9112621545791626,0.07475652545690536,1.6585794687271118,0.07887492328882217,0.17517289519309998,0.12420478463172913,1.8449087142944336,0.021270709112286568,0.031039182096719742,0.05738922953605652,0.02573828212916851,0.03696366399526596,0.03384114056825638,-0.010349181480705738,-0.030707357451319695,-0.09471574425697327,-0.005880536511540413,0.04374396800994873,-0.06826373189687729,0.0495193786919117,-0.04695940762758255,-0.07024886459112167,-0.04445130005478859,-0.018564410507678986,-0.03924643248319626,1.8120046854019165,0.03208019956946373,0.010256517678499222,0.005290294531732798,2.309990167617798,-0.043873131275177,0.006077856291085482,1.9028111696243286,0.0747176855802536,1.6522562503814697,-0.07878483831882477,-0.17500793933868408,-0.12415921688079834,1.8337167501449585,0.021216657012701035,-0.031006354838609695,-0.05728117376565933,-0.025696776807308197,-0.036925822496414185,-0.033782847225666046,0.00966790970414877,0.014058438129723072,0.8604254722595215,0.07886400073766708,1.0751328468322754,1.071630597114563,0.028223909437656403,0.0034696683287620544,1.0387029647827148,0.485842764377594,0.016427958384156227,0.6508470773696899,1.0921612977981567,0.482197642326355,0.08485444635152817,0.00024720915826037526,0.07518108189105988,0.6255742907524109,0.08556260168552399,0.1808800846338272,0.015569985844194889,0.5862034559249878,1.548789381980896,0.010803421027958393,0.011203798465430737,0.0001955419429577887,0.38851404190063477,0.007049438077956438,0.6224966645240784,0.040731776505708694,0.8565198183059692,0.06877253204584122,0.009653973393142223,0.014046969823539257,-0.8602275848388672,-0.07885763794183731,-1.0717213153839111,-1.0716265439987183,-0.028193706646561623,0.0034597504418343306,1.0386964082717896,0.48582980036735535,-0.016410935670137405,-0.6508166193962097,1.084450602531433,-0.4821862280368805,-0.08481408655643463,-0.00019947260443586856,0.06464161723852158,-0.6255292296409607,-0.08555316179990768,-0.1808539777994156,-0.015560981817543507,-0.5861743092536926,1.5392273664474487,-0.01077811885625124,0.011187874712049961,0.00014830054715275764,0.38413622975349426,0.007034315261989832,-0.6224636435508728,0.040723767131567,-0.8564998507499695,-0.0687665268778801,-0.7220209836959839,-1.3468338251113892,-0.8086388111114502,-0.9329313039779663,-1.173348307609558,-1.2624834775924683,-1.2526904344558716,0.9313024878501892,1.5359432697296143,1.6016087532043457,1.2831010818481445,1.1956932544708252,0.754886269569397,-0.9288821220397949,-0.7556201219558716,-0.9121776819229126,-0.670760989189148,1.0447821617126465,-1.1135631799697876,-0.8627645969390869,-1.0335912704467773,1.0376192331314087,-0.724851131439209,-0.5467107892036438,1.1807199716567993,1.640516996383667,-0.8680803775787354,1.0994129180908203,1.3997297286987305,1.551030158996582,-1.0261117219924927,-0.3995518386363983
A05_LA_T_8804689.flac,0.006165650673210621,0.028117254376411438,0.07997269183397293,0.009094474837183952,0.04095251113176346,0.06631529331207275,0.05138663202524185,0.05111630633473396,0.0666622519493103,0.04234720766544342,0.021027324721217155,0.021156730130314827,1.8894116878509521,0.028023293241858482,0.008674396201968193,0.010825634002685547,2.3082311153411865,0.03535155579447746,0.009154021739959717,1.9136205911636353,0.06767261773347855,1.6326431035995483,0.07405833154916763,0.17435124516487122,0.10522601008415222,1.8080832958221436,0.022603332996368408,0.03322753682732582,0.059556130319833755,0.00943545252084732,0.037696484476327896,0.03002527542412281,-0.006108380388468504,-0.02808789163827896,-0.07995825260877609,-0.009080949239432812,0.04087064787745476,-0.06627686321735382,0.05132345110177994,-0.05100876837968826,-0.06664260476827621,-0.04231756553053856,-0.02098890207707882,-0.021059278398752213,1.8860905170440674,0.027981458231806755,-0.008607281371951103,0.010757631622254848,2.3005566596984863,-0.03530734032392502,-0.009129328653216362,1.9103596210479736,0.06762490421533585,1.6193283796310425,-0.07394073158502579,-0.17426587641239166,-0.10520339757204056,1.8044289350509644,0.022575536742806435,-0.033169858157634735,-0.059493549168109894,-0.009341059252619743,-0.03764423355460167,-0.03000745363533497,0.008344214409589767,0.010762739926576614,0.8300204277038574,0.07238676398992538,1.128933072090149,1.0727386474609375,0.03407323360443115,0.034645356237888336,1.0837947130203247,0.508674681186676,0.0178773645311594,0.6812043190002441,1.0572547912597656,0.4967629313468933,0.09064195305109024,0.002013468649238348,0.06709183752536774,0.6340371966362,0.08793726563453674,0.1785053312778473,0.02244819700717926,0.6026768088340759,1.6006361246109009,0.0004090599832125008,0.015867868438363075,0.0014249191153794527,0.3552071452140808,0.0016662366688251495,0.6306933164596558,0.02587895654141903,0.8873621821403503,0.061839908361434937,0.008336889557540417,0.010753925889730453,-0.826269805431366,-0.07238266617059708,-1.1252316236495972,-1.065028190612793,-0.03406037762761116,0.03463948890566826,1.08379065990448,0.5086663365364075,-0.017870424315333366,-0.6811882853507996,1.0504179000854492,-0.4967573285102844,-0.09062512964010239,0.0020024047698825598,0.05813170224428177,-0.6340150237083435,-0.08793085068464279,-0.17848946154117584,-0.02244146354496479,-0.6026608943939209,1.589547872543335,-0.0003916163113899529,0.015858251601457596,0.0014057522639632225,0.35049372911453247,0.0016583697870373726,-0.6306813359260559,0.025873932987451553,-0.8873505592346191,-0.061837416142225266,-0.6816645264625549,-1.2044320106506348,-0.9619100093841553,-1.0068830251693726,-0.9913554191589355,-1.2473140954971313,-1.123816728591919,1.0480399131774902,1.3968729972839355,1.5978472232818604,1.309441328048706,1.1477760076522827,0.8938407301902771,-1.0215542316436768,-0.627655029296875,-1.0296876430511475,-0.5845595598220825,1.0791969299316406,-0.987796425819397,-0.9711036086082458,-1.1484378576278687,1.1599626541137695,-0.5688509941101074,-0.6591793894767761,1.3351854085922241,1.794256567955017,-0.7307832837104797,1.0057649612426758,1.5627295970916748,1.4978666305541992,-1.117963433265686,-0.5615724921226501
A05_LA_T_8064890.flac,0.01010633073747158,0.030708258971571922,0.09423623234033585,0.005178606137633324,0.0445711575448513,0.06757789105176926,0.05061104893684387,0.04838225990533829,0.07082589715719223,0.045960139483213425,0.018459850922226906,0.03988228738307953,1.8497570753097534,0.03246505185961723,0.010734887793660164,0.005836479365825653,2.327220916748047,0.04474382847547531,0.005802255589514971,1.9160957336425781,0.07568826526403427,1.67411470413208,0.07909045368432999,0.17717376351356506,0.12422449886798859,1.842207908630371,0.021396374329924583,0.031118493527173996,0.055599115788936615,0.023455219343304634,0.036634672433137894,0.03404252231121063,-0.010068674571812153,-0.030633941292762756,-0.09411801397800446,-0.005140346474945545,0.04450049251317978,-0.06745520979166031,0.050451770424842834,-0.04815303161740303,-0.07076214253902435,-0.04589715227484703,-0.01837795041501522,-0.0398164764046669,1.8331878185272217,0.03223780542612076,0.010641762986779213,0.005690359510481358,2.311509370803833,-0.04471665620803833,0.005771350581198931,1.9095669984817505,0.0755888968706131,1.6667156219482422,-0.07892915606498718,-0.17694580554962158,-0.12417570501565933,1.8328068256378174,0.021348413079977036,-0.031051063910126686,-0.05539904907345772,-0.023394303396344185,-0.03652413934469223,-0.0339634008705616,0.009934188798069954,0.014503182843327522,0.8587921857833862,0.07757537066936493,1.0755763053894043,1.074105143547058,0.02562153898179531,0.0006408988847397268,1.0454832315444946,0.4892517328262329,0.015613916330039501,0.6553086638450623,1.0944315195083618,0.4834848642349243,0.0832732543349266,0.0005037501105107367,0.09255287051200867,0.627673864364624,0.0864264965057373,0.1817631870508194,0.015627551823854446,0.5904755592346191,1.572955846786499,0.011248547583818436,0.010958872735500336,0.0007433381979353726,0.3939613103866577,0.008633779361844063,0.6241135597229004,0.039720211178064346,0.8622008562088013,0.06832116842269897,0.009919345378875732,0.014482805505394936,-0.8544225096702576,-0.07757055759429932,-1.0718941688537598,-1.073126196861267,-0.025588810443878174,0.0006295391358435154,1.0454754829406738,0.4892362058162689,-0.01559346355497837,-0.6552688479423523,1.0859490633010864,-0.4834725558757782,-0.08322849124670029,0.00047713072854094207,0.08094686269760132,-0.6276191473007202,-0.08641364425420761,-0.18173326551914215,-0.015616485849022865,-0.5904434323310852,1.5621124505996704,-0.011216717772185802,0.01093954499810934,-0.0007173925987444818,0.388898104429245,0.008615771308541298,-0.624076783657074,0.039711665362119675,-0.8621746301651001,-0.06831491738557816,-0.7382879257202148,-1.351658582687378,-0.833251953125,-0.9534368515014648,-1.1756203174591064,-1.2626627683639526,-1.2583472728729248,0.9257841110229492,1.5423153638839722,1.616006851196289,1.3099921941757202,1.218164324760437,0.7425110340118408,-0.929497241973877,-0.7730008959770203,-0.9141755104064941,-0.6797487735748291,1.0332629680633545,-1.123154640197754,-0.859370231628418,-1.0268555879592896,1.034494161605835,-0.7166420221328735,-0.5516787767410278,1.189007043838501,1.6420621871948242,-0.8792052268981934,1.0992405414581299,1.3945956230163574,1.5625717639923096,-1.0336235761642456,-0.40395909547805786
A05_LA_T_3041702.flac,0.011877330020070076,0.029918184503912926,0.09192327409982681,0.008363795466721058,0.041332874447107315,0.06020863354206085,0.04845082387328148,0.04027077928185463,0.07113958150148392,0.04375391826033592,0.01562800258398056,0.036914948374032974,1.8711469173431396,0.03114866279065609,0.008166280575096607,0.008780666626989841,2.3846633434295654,0.04108009487390518,0.004488104023039341,1.9398889541625977,0.06618215143680573,1.7151120901107788,0.0793660581111908,0.1796894520521164,0.1206664964556694,1.8762438297271729,0.020620279014110565,0.030914511531591415,0.05761135742068291,0.018157675862312317,0.038322851061820984,0.0333547405898571,-0.011831367388367653,-0.029846210032701492,-0.09188690781593323,-0.00834033451974392,0.041258037090301514,-0.060082972049713135,0.04840400069952011,-0.04020161181688309,-0.07111905515193939,-0.04372622072696686,-0.015565209090709686,-0.03681216388940811,1.8576747179031372,0.031089691445231438,0.008148270659148693,0.008744092658162117,2.3603997230529785,-0.041040387004613876,0.004445872735232115,1.9280543327331543,0.06615497916936874,1.7018458843231201,-0.07930578291416168,-0.17960713803768158,-0.12059803307056427,1.8592395782470703,0.02054654434323311,-0.030865829437971115,-0.057516973465681076,-0.01810922846198082,-0.03829200565814972,-0.03329378366470337,0.009350867010653019,0.014546014368534088,0.8770396709442139,0.07969143241643906,1.131934642791748,1.0922547578811646,0.02576708234846592,0.0024950657971203327,1.074360728263855,0.505348265171051,0.017199130728840828,0.6634053587913513,1.0880608558654785,0.4933224618434906,0.08914082497358322,0.0019810001831501722,0.051379330456256866,0.6373565196990967,0.08830394595861435,0.18512389063835144,0.013512552715837955,0.5985733270645142,1.612703800201416,0.010059140622615814,0.012097102589905262,0.001051086699590087,0.3970111608505249,0.006454842165112495,0.6304059028625488,0.03553016111254692,0.8726273775100708,0.05950137972831726,0.009336890652775764,0.01452963799238205,-0.8733956217765808,-0.07968699187040329,-1.1277726888656616,-1.0922504663467407,-0.025741202756762505,0.0024859898258000612,1.0743541717529297,0.5053350925445557,-0.0171810295432806,-0.6633738875389099,1.079922080039978,-0.4933128356933594,-0.08910589665174484,0.0019584426190704107,0.04072875529527664,-0.6373128890991211,-0.08829385042190552,-0.18509650230407715,-0.013503368012607098,-0.5985441207885742,1.601984977722168,-0.010033815167844296,0.012080661021173,0.0010136415949091315,0.39228948950767517,0.006437879987061024,-0.6303767561912537,0.03552284464240074,-0.872606098651886,-0.059496618807315826,-0.754285454750061,-1.3486515283584595,-0.8892004489898682,-0.9397651553153992,-1.128929853439331,-1.2082879543304443,-1.246793270111084,0.9196065664291382,1.5424327850341797,1.6239845752716064,1.2967511415481567,1.2674899101257324,0.6892420649528503,-0.9156589508056641,-0.8040942549705505,-0.856285035610199,-0.6816692352294922,1.0614690780639648,-1.178162693977356,-0.8025235533714294,-0.9981124401092529,1.0286872386932373,-0.6752239465713501,-0.5962368845939636,1.2406227588653564,1.6312005519866943,-0.8963973522186279,1.1003942489624023,1.408305287361145,1.575255274772644,-1.0676829814910889,-0.4524865448474884
A05_LA_T_7039692.flac,0.0063238563016057014,0.028415318578481674,0.0936133936047554,0.001390364719554782,0.04506392776966095,0.06424600630998611,0.0499517060816288,0.052289824932813644,0.06943356990814209,0.04411740601062775,0.019231554120779037,0.03896510228514671,1.8462512493133545,0.030895717442035675,0.01140278484672308,0.0021505109034478664,2.3186120986938477,0.04374783858656883,0.00518676545470953,1.9193036556243896,0.08198228478431702,1.6545933485031128,0.0765085220336914,0.1771393120288849,0.12165425717830658,1.850879430770874,0.02247987687587738,0.0316239595413208,0.06071821600198746,0.027392510324716568,0.03519286960363388,0.033762019127607346,-0.006271663121879101,-0.02836701087653637,-0.0935836136341095,-0.0013329386711120605,0.04501333087682724,-0.06417810916900635,0.04989255219697952,-0.05223005637526512,-0.06938294321298599,-0.04407822713255882,-0.019155345857143402,-0.03889846429228783,1.8379619121551514,0.030842529609799385,0.011371960863471031,0.00208654603920877,2.3082337379455566,-0.04370544105768204,0.005138287786394358,1.911010503768921,0.0819566547870636,1.6418732404708862,-0.07642664015293121,-0.1770477294921875,-0.12160453200340271,1.8389661312103271,0.0224516149610281,-0.03158022463321686,-0.060607656836509705,-0.027325579896569252,-0.03517094999551773,-0.03370386362075806,0.009993176907300949,0.015005743131041527,0.8617531657218933,0.07674619555473328,1.0691585540771484,1.0718508958816528,0.030112169682979584,0.003938339650630951,1.0439848899841309,0.48552730679512024,0.01627344638109207,0.6545485258102417,1.120145559310913,0.48367416858673096,0.08069715648889542,0.002290054690092802,0.11391090601682663,0.6270314455032349,0.08429180085659027,0.18137973546981812,0.015378745272755623,0.5877572894096375,1.587266206741333,0.010792488232254982,0.010735989548265934,0.0014131841016933322,0.40303903818130493,0.007477696985006332,0.6260468363761902,0.03315246105194092,0.8594497442245483,0.061206407845020294,0.009980774484574795,0.014994950965046883,-0.8617380261421204,-0.07674116641283035,-1.0658267736434937,-1.068062663078308,-0.03008297085762024,0.003928800579160452,1.0439780950546265,0.48551449179649353,-0.016257284209132195,-0.6545161604881287,1.1121504306793213,-0.48366233706474304,-0.080657958984375,-0.0022305024322122335,0.10422807931900024,-0.6269844174385071,-0.08428219705820084,-0.18135422468185425,-0.015370105393230915,-0.5877317190170288,1.5772624015808105,-0.01076584029942751,0.010718939825892448,-0.0013922684593126178,0.39831119775772095,0.007464708294719458,-0.6260142922401428,0.03314478322863579,-0.8594285249710083,-0.06120004132390022,-0.7360867857933044,-1.330911636352539,-0.7902829051017761,-0.9737652540206909,-1.1898069381713867,-1.2610982656478882,-1.2669875621795654,0.9319040775299072,1.5390326976776123,1.6026458740234375,1.3533655405044556,1.2137682437896729,0.7675716876983643,-0.9532375931739807,-0.7661752700805664,-0.9399665594100952,-0.7136492729187012,1.0064200162887573,-1.108738899230957,-0.8768003582954407,-1.0368843078613281,1.0406349897384644,-0.7352641820907593,-0.5687541365623474,1.1767468452453613,1.6400794982910156,-0.8992107510566711,1.0917835235595703,1.4066400527954102,1.5474724769592285,-1.0306488275527954,-0.38676339387893677
A05_LA_T_5896697.flac,0.012469498440623283,0.03180597722530365,0.09636953473091125,0.007970486767590046,0.044525131583213806,0.0694052204489708,0.049294937402009964,0.043601684272289276,0.07257017493247986,0.04615025594830513,0.0161123163998127,0.04115604981780052,1.8600211143493652,0.03321337327361107,0.009858786128461361,0.007170228753238916,2.389888286590576,0.04320830851793289,0.0058836620301008224,1.9397735595703125,0.07314591109752655,1.7162141799926758,0.08113917708396912,0.17955462634563446,0.12622077763080597,1.8728219270706177,0.020868536084890366,0.030461518093943596,0.05551961809396744,0.02479526959359646,0.03809454292058945,0.03373358026146889,-0.012411203235387802,-0.03175126761198044,-0.09631308168172836,-0.007912364788353443,0.04443630576133728,-0.06931747496128082,0.049187202006578445,-0.043536484241485596,-0.0725119411945343,-0.0461280532181263,-0.016051985323429108,-0.04106951504945755,1.8314889669418335,0.03305734694004059,0.009810618124902248,0.006996439769864082,2.341207981109619,-0.0431525819003582,0.005824313033372164,1.9160089492797852,0.07308295369148254,1.6950523853302002,-0.08104434609413147,-0.17947250604629517,-0.12616229057312012,1.8457551002502441,0.02082924172282219,-0.030397050082683563,-0.05539090558886528,-0.024730602279305458,-0.03800763189792633,-0.03367573022842407,0.009738635271787643,0.014699806459248066,0.8642908334732056,0.08018551021814346,1.0788867473602295,1.0800199508666992,0.0236293263733387,0.0018340595997869968,1.0528568029403687,0.4953601360321045,0.016972387209534645,0.654391348361969,1.0874141454696655,0.48589396476745605,0.08781586587429047,0.0019190660677850246,0.07169413566589355,0.6306895613670349,0.0878448486328125,0.18318353593349457,0.014723173342645168,0.5925092697143555,1.5654253959655762,0.011816953308880329,0.010893816128373146,0.00020401005167514086,0.39586442708969116,0.00823846273124218,0.6249510049819946,0.04273531958460808,0.8628585338592529,0.06719370186328888,0.009723174385726452,0.014686161652207375,-0.8602685332298279,-0.08017919212579727,-1.075184941291809,-1.0800151824951172,-0.023597856983542442,-0.0018260361393913627,1.0528490543365479,0.49534550309181213,-0.016951534897089005,-0.6543541550636292,1.0797796249389648,-0.48588019609451294,-0.08777383714914322,0.0018954015104100108,0.06152350828051567,-0.6306395530700684,-0.0878344476222992,-0.1831495314836502,-0.014712474308907986,-0.5924772620201111,1.5552695989608765,-0.011787895113229752,0.01087236125022173,0.0001509732537670061,0.39138901233673096,0.00822114385664463,-0.6249180436134338,0.04272610694169998,-0.8628341555595398,-0.06718759983778,-0.7348501682281494,-1.3928122520446777,-0.8612804412841797,-0.9358454346656799,-1.1880742311477661,-1.2608039379119873,-1.2837432622909546,0.8932613134384155,1.5723007917404175,1.6296606063842773,1.291883111000061,1.2503015995025635,0.7076055407524109,-0.903244137763977,-0.8023662567138672,-0.8832773566246033,-0.6615931391716003,1.044283390045166,-1.143267035484314,-0.8263314366340637,-1.012026309967041,1.0021474361419678,-0.7001885771751404,-0.5384126901626587,1.2079832553863525,1.6269214153289795,-0.894108772277832,1.0964019298553467,1.3854930400848389,1.5925549268722534,-1.0623960494995117,-0.39951592683792114
A05_LA_T_4760598.flac,0.012284503318369389,0.03505008667707443,0.08989284932613373,0.014725235290825367,0.03671509772539139,0.06871850788593292,0.04833116754889488,0.029217541217803955,0.07476206123828888,0.04237543046474457,0.015376445837318897,0.044525302946567535,1.9605376720428467,0.03539464250206947,0.002552242949604988,0.013276295736432076,2.5322823524475098,0.03715982288122177,0.0018796538934111595,2.0392019748687744,0.04827611520886421,1.8877073526382446,0.08609016239643097,0.18623849749565125,0.12561465799808502,1.9636437892913818,0.019322728738188744,0.031607355922460556,0.05840456858277321,0.01568184420466423,0.04201345890760422,0.03581201657652855,-0.012263458222150803,-0.0350322499871254,-0.08983226120471954,-0.014705367386341095,0.03667433559894562,-0.06868143379688263,0.04825448989868164,-0.029103750362992287,-0.07472346723079681,-0.04236462712287903,-0.015351119451224804,-0.04450711980462074,1.9531512260437012,0.035348400473594666,0.002440075855702162,0.013219878077507019,2.523620843887329,-0.03714762255549431,0.0018557640723884106,2.0335638523101807,0.048238616436719894,1.8835647106170654,-0.08600633591413498,-0.18613764643669128,-0.12560021877288818,1.9557342529296875,0.01931365579366684,-0.0315869115293026,-0.05834941565990448,-0.015656210482120514,-0.04198460653424263,-0.03580759838223457,0.009816113859415054,0.011388406157493591,0.8752831220626831,0.07366679608821869,1.158318281173706,1.1416493654251099,0.010005457326769829,0.010527076199650764,1.1498830318450928,0.5448092818260193,0.013237450271844864,0.7049635648727417,1.0938692092895508,0.523695170879364,0.0907595306634903,0.008016366511583328,0.04256347566843033,0.6654171347618103,0.08355944603681564,0.19227008521556854,0.012559984810650349,0.638150155544281,1.6550909280776978,0.008762783370912075,0.011555912904441357,0.0003880444564856589,0.4395672082901001,0.0082156453281641,0.6504055857658386,0.0502428375184536,0.9168635606765747,0.07765332609415054,0.009805778041481972,0.011379243806004524,-0.8711960911750793,-0.07366108894348145,-1.1539400815963745,-1.1416454315185547,-0.009988569654524326,-0.010519231669604778,1.1498785018920898,0.544800877571106,-0.013225669041275978,-0.7049328684806824,1.0866519212722778,-0.5236914753913879,-0.09073861688375473,0.008001286536455154,-0.03708888217806816,-0.6653837561607361,-0.08355042338371277,-0.19225142896175385,-0.01254989206790924,-0.6381294131278992,1.6427392959594727,-0.008742024190723896,0.011543969623744488,0.0003485368506517261,0.4347864091396332,0.008204741403460503,-0.6503913998603821,0.050237227231264114,-0.9168428778648376,-0.0776444673538208,-0.740192711353302,-1.4342625141143799,-0.9433506727218628,-0.9291974902153015,-1.2214617729187012,-1.2790513038635254,-1.3119114637374878,0.9539197683334351,1.6734123229980469,1.69575834274292,1.3184925317764282,1.3536378145217896,0.7083390355110168,-0.8754242658615112,-0.8422855138778687,-0.8920953869819641,-0.6536911725997925,1.1484527587890625,-1.2385023832321167,-0.8328099250793457,-1.0295315980911255,1.0680452585220337,-0.6555467844009399,-0.5920647978782654,1.3352899551391602,1.709376335144043,-0.9179777503013611,1.1651114225387573,1.4854176044464111,1.6497528553009033,-1.1101194620132446,-0.46703505516052246
A05_LA_T_5506990.flac,0.01165794301778078,0.027148142457008362,0.08478805422782898,0.012958797626197338,0.038407206535339355,0.06151566281914711,0.04581650346517563,0.042900245636701584,0.06974088400602341,0.04383014887571335,0.01873258873820305,0.030894508585333824,1.9033949375152588,0.03163359314203262,0.001439986051991582,0.006890690885484219,2.430206775665283,0.03757784888148308,0.005071565974503756,1.98114013671875,0.05608115717768669,1.74333918094635,0.07914380729198456,0.1717202216386795,0.12012609839439392,1.9109611511230469,0.02025575004518032,0.03290913626551628,0.05746917426586151,0.011048533022403717,0.03840501978993416,0.03275548294186592,-0.011625876650214195,-0.027127940207719803,-0.08475510030984879,-0.012934273108839989,0.038361601531505585,-0.061480820178985596,0.04576423764228821,-0.04285726696252823,-0.06973100453615189,-0.04381534084677696,-0.01868462935090065,-0.03085780143737793,1.898645281791687,0.03157653659582138,-0.0013957297196611762,0.006838342174887657,2.4198670387268066,-0.037568725645542145,0.005044691730290651,1.9753096103668213,0.056059617549180984,1.7372331619262695,-0.07907820492982864,-0.17165610194206238,-0.12010093033313751,1.9025547504425049,0.020239332690835,-0.03288858383893967,-0.0574413537979126,-0.010995220392942429,-0.03838488459587097,-0.03274073079228401,0.008554557338356972,0.011886323802173138,0.8870025277137756,0.07718255370855331,1.160080909729004,1.120152473449707,0.02356746979057789,0.015609110705554485,1.114753246307373,0.5258731842041016,0.019000014290213585,0.6862523555755615,1.0875532627105713,0.5100588798522949,0.0929337814450264,0.0037035481072962284,0.056852374225854874,0.6508892178535461,0.08462035655975342,0.1872824728488922,0.01718355156481266,0.6147913932800293,1.6596486568450928,0.005540649872273207,0.013681820593774319,0.0016804625047370791,0.386985719203949,0.0021468449849635363,0.6403404474258423,0.03700483590364456,0.8957068920135498,0.06591834127902985,0.0085500692948699,0.011877037584781647,-0.8826876878738403,-0.07717864960432053,-1.1560852527618408,-1.1186401844024658,-0.02355268970131874,0.015603176318109035,1.114749789237976,0.525867760181427,-0.018989048898220062,-0.686233401298523,1.0793670415878296,-0.5100536346435547,-0.09291347116231918,0.003690367331728339,0.0464266762137413,-0.6508639454841614,-0.08461368829011917,-0.18726599216461182,-0.017177481204271317,-0.614781379699707,1.6489791870117188,-0.005525946617126465,0.01367229875177145,0.0016579624498263001,0.38209453225135803,0.002138302428647876,-0.6403228640556335,0.0369999073445797,-0.8956936001777649,-0.06591427326202393,-0.7311413288116455,-1.2914066314697266,-0.8615303039550781,-0.9294552206993103,-1.0992176532745361,-1.2418044805526733,-1.2154085636138916,1.0354163646697998,1.5100045204162598,1.64806067943573,1.3152291774749756,1.2530341148376465,0.7773624658584595,-0.9346663951873779,-0.7525306940078735,-0.9207023978233337,-0.6564199924468994,1.14336097240448,-1.1325299739837646,-0.8798137307167053,-1.0541315078735352,1.1322002410888672,-0.6466168165206909,-0.635154128074646,1.3021667003631592,1.708078384399414,-0.8612982630729675,1.1315855979919434,1.501915693283081,1.568832278251648,-1.0925853252410889,-0.4885140657424927
A05_LA_T_1150787.flac,0.009288128465414047,0.03161746263504028,0.09689027070999146,0.001459682360291481,0.04808635637164116,0.07177066802978516,0.05160259082913399,0.05262989550828934,0.07149763405323029,0.04648737609386444,0.016890643164515495,0.039382293820381165,1.8310517072677612,0.031195728108286858,0.01253914088010788,0.004127103369683027,2.2676796913146973,0.04572964087128639,0.002658938057720661,1.8804577589035034,0.08694637566804886,1.6175484657287598,0.07688196748495102,0.18184073269367218,0.12318406254053116,1.8030692338943481,0.022545794025063515,0.030285203829407692,0.05745274946093559,0.02871331200003624,0.036314480006694794,0.03338205814361572,-0.009220495820045471,-0.0315178819000721,-0.09673753380775452,-0.0013469057157635689,0.04799731448292732,-0.07157857716083527,0.051400139927864075,-0.05218551307916641,-0.07144588232040405,-0.04644371196627617,-0.016770415008068085,-0.039264924824237823,1.8173940181732178,0.0309290774166584,0.012449326924979687,0.003972075413912535,2.2511098384857178,-0.045650552958250046,0.002585523994639516,1.8696545362472534,0.08689076453447342,1.6083879470825195,-0.0767836719751358,-0.1813092827796936,-0.1231427788734436,1.790639877319336,0.022508956491947174,-0.030154142528772354,-0.057175710797309875,-0.028586309403181076,-0.03627392649650574,-0.03323506936430931,0.010381304658949375,0.014638208784162998,0.8440133929252625,0.07868443429470062,1.046186089515686,1.0530809164047241,0.02872767113149166,0.0010720029240474105,1.0175559520721436,0.4740867018699646,0.014301210641860962,0.643154501914978,1.0835821628570557,0.46983930468559265,0.08206824213266373,0.0001340978778898716,0.1112547516822815,0.615380048751831,0.08895351737737656,0.177688330411911,0.015952441841363907,0.5776312351226807,1.541329026222229,0.011581476777791977,0.011518116109073162,0.0009854172822088003,0.3738667964935303,0.009678700007498264,0.6153489947319031,0.03536438196897507,0.8475582599639893,0.06599760800600052,0.010366302914917469,0.014621630311012268,-0.8402667045593262,-0.07867877185344696,-1.0429846048355103,-1.0450170040130615,-0.028694186359643936,0.001060453592799604,1.01754629611969,0.47406837344169617,-0.014279578812420368,-0.6431163549423218,1.07640540599823,-0.469820499420166,-0.08202213793992996,0.0001074800020433031,0.10329022258520126,-0.6153256297111511,-0.08894244581460953,-0.17765076458454132,-0.015941331163048744,-0.5776000022888184,1.5319608449935913,-0.011549820192158222,0.011493622325360775,-0.000961083103902638,0.3692653179168701,0.009662135504186153,-0.6153149008750916,0.03535367175936699,-0.8475343585014343,-0.06598866730928421,-0.7732195854187012,-1.3599187135696411,-0.8609720468521118,-1.0139589309692383,-1.1687453985214233,-1.246341586112976,-1.2570323944091797,0.8737804293632507,1.5331759452819824,1.6039191484451294,1.3142015933990479,1.1847047805786133,0.7614847421646118,-0.9609709978103638,-0.7579320669174194,-0.9267728328704834,-0.7000231742858887,0.9609032273292542,-1.1081215143203735,-0.8628534078598022,-1.0432783365249634,0.9900686144828796,-0.7387634515762329,-0.5385617017745972,1.1614576578140259,1.6490356922149658,-0.8589263558387756,1.0651147365570068,1.3608086109161377,1.5452021360397339,-1.0102474689483643,-0.4232654571533203
A05_LA_T_4384840.flac,0.013895737938582897,0.032178349792957306,0.09373736381530762,0.011807364411652088,0.047627318650484085,0.07141099125146866,0.04820941016077995,0.05062207952141762,0.06962165981531143,0.048747092485427856,0.018528036773204803,0.03111889958381653,1.8304431438446045,0.03035561740398407,0.004018053412437439,0.006906896363943815,2.2985453605651855,0.045194316655397415,0.00045700324699282646,1.8909730911254883,0.08273018151521683,1.630975604057312,0.07661303132772446,0.1788329780101776,0.12012410163879395,1.818109154701233,0.02171887271106243,0.032107122242450714,0.058195050805807114,0.02184705063700676,0.03813208267092705,0.03137406334280968,-0.01382451131939888,-0.032136473804712296,-0.0936933383345604,-0.011779970489442348,0.04756132513284683,-0.07132188230752945,0.04817092418670654,-0.050476089119911194,-0.06958632916212082,-0.04871969670057297,-0.018486060202121735,-0.03104848973453045,1.8196152448654175,0.03023332729935646,0.003938932903110981,0.006795031949877739,2.2807161808013916,-0.04515807330608368,0.00040327507304027677,1.8829834461212158,0.08270222693681717,1.6194400787353516,-0.07652442157268524,-0.17872032523155212,-0.12008875608444214,1.8087263107299805,0.021705839782953262,-0.03206031769514084,-0.05814684182405472,-0.02179606631398201,-0.03808211162686348,-0.031348541378974915,0.009252911433577538,0.01384070236235857,0.8579321503639221,0.08106264472007751,1.083717942237854,1.0437558889389038,0.028366152197122574,0.004932186100631952,1.033980369567871,0.48450809717178345,0.01616213656961918,0.6471686959266663,1.0649683475494385,0.4758304953575134,0.0881064310669899,0.0009255410404875875,0.12052987515926361,0.6211445331573486,0.08902773261070251,0.1799744963645935,0.01565917208790779,0.5807755589485168,1.5686811208724976,0.009878451004624367,0.012731957249343395,0.000991346314549446,0.34141039848327637,0.006206104997545481,0.6175056099891663,0.03430766984820366,0.8537450432777405,0.06471326947212219,0.009244761429727077,0.01382668036967516,-0.8565312623977661,-0.08105816692113876,-1.0803126096725464,-1.034515380859375,-0.028340041637420654,0.0049211266450583935,1.0339736938476562,0.4844941794872284,-0.016143223270773888,-0.6471379399299622,1.0569323301315308,-0.4758204519748688,-0.0880703330039978,0.0009033223614096642,0.10894054174423218,-0.6211020350456238,-0.08901684731245041,-0.1799527406692505,-0.01564885675907135,-0.5807544589042664,1.558852195739746,-0.009853779338300228,0.012718371115624905,0.0009553491254337132,0.33670684695243835,0.006193024106323719,-0.6174755096435547,0.03429869934916496,-0.8537243008613586,-0.06470800936222076,-0.7642956376075745,-1.3377207517623901,-0.870895266532898,-0.9704931974411011,-1.0992385149002075,-1.1942970752716064,-1.2271718978881836,0.9040786027908325,1.4788527488708496,1.6293010711669922,1.3099688291549683,1.2019932270050049,0.7258986234664917,-0.9431978464126587,-0.7719610929489136,-0.8795570135116577,-0.693885087966919,1.0021395683288574,-1.1150896549224854,-0.8271983861923218,-1.0208061933517456,1.0100088119506836,-0.696241021156311,-0.5734175443649292,1.1828762292861938,1.6306557655334473,-0.8773232698440552,1.058986783027649,1.3772704601287842,1.56668221950531,-1.0464298725128174,-0.43995678424835205
A05_LA_T_2388711.flac,0.008045242168009281,0.02924475446343422,0.08014201372861862,0.00709943100810051,0.04696381837129593,0.06327424198389053,0.04990921914577484,0.05967064946889877,0.06870891153812408,0.04807308316230774,0.015486255288124084,0.022300055250525475,2.015517234802246,0.027277901768684387,0.004583894740790129,0.0044131288304924965,2.3732776641845703,0.038863666355609894,0.0057375142350792885,1.9509233236312866,0.07964425534009933,1.6902586221694946,0.07203241437673569,0.18296100199222565,0.11246112734079361,1.869992971420288,0.023491060361266136,0.03323066234588623,0.05995462089776993,0.006327803246676922,0.03567361459136009,0.029028020799160004,-0.008006337098777294,-0.02921741083264351,-0.0801050141453743,-0.007076446432620287,0.04692555218935013,-0.0632256269454956,0.049866508692502975,-0.05958380550146103,-0.06868922710418701,-0.04805340617895126,-0.015431240200996399,-0.022251766175031662,2.0107803344726562,0.02719842828810215,-0.004526952281594276,0.004343231674283743,2.364487409591675,-0.03882656991481781,-0.005692759063094854,1.9458131790161133,0.07963014394044876,1.6845531463623047,-0.07195119559764862,-0.182885080575943,-0.1124364584684372,1.8590247631072998,0.023468680679798126,-0.03318358212709427,-0.059878475964069366,-0.00626754853874445,-0.03564568608999252,-0.029003512114286423,0.010400529950857162,0.013895097188651562,0.8431639075279236,0.07759302854537964,1.1507529020309448,1.0484778881072998,0.024236077442765236,0.011737926863133907,1.1206061840057373,0.5231014490127563,0.012634886428713799,0.6898660659790039,1.0632487535476685,0.5021024942398071,0.08915644139051437,0.005865191575139761,0.17748574912548065,0.647541880607605,0.09462619572877884,0.18823905289173126,0.01879778690636158,0.6118185520172119,1.736861228942871,0.0065770396031439304,0.01524620596319437,0.0006798804388381541,0.3308808207511902,0.005885174032300711,0.6428562998771667,0.013046454638242722,0.899469792842865,0.05022507533431053,0.010388766415417194,0.013885827735066414,-0.8395624160766602,-0.07758849114179611,-1.1467856168746948,-1.0388950109481812,-0.024216696619987488,0.011728762648999691,1.1205991506576538,0.523087739944458,-0.012618878856301308,-0.6898401975631714,1.0564959049224854,-0.5020922422409058,-0.08913063257932663,0.005847057793289423,0.16827459633350372,-0.6475076079368591,-0.09461629390716553,-0.18821921944618225,-0.018789267167448997,-0.6117973923683167,1.7264407873153687,-0.006555148866027594,0.01523528154939413,-0.0006609425763599575,0.3265044093132019,0.005872141104191542,-0.6428365111351013,0.013038776814937592,-0.899450957775116,-0.05022234469652176,-0.9125028252601624,-1.264872670173645,-0.9918212890625,-1.1783924102783203,-1.0656638145446777,-1.1773399114608765,-1.2166827917099,0.9288392663002014,1.5157444477081299,1.6541123390197754,1.4315325021743774,1.2307946681976318,0.8244383335113525,-1.0464222431182861,-0.7400028705596924,-0.9801849722862244,-0.8233169913291931,0.9270673990249634,-1.1734826564788818,-0.917946457862854,-1.1046528816223145,1.0485172271728516,-0.6836066246032715,-0.6562755703926086,1.2869811058044434,1.7825785875320435,-0.7744107246398926,1.1262747049331665,1.435483455657959,1.505378007888794,-1.0902361869812012,-0.6462075710296631
A05_LA_T_1137942.flac,0.004733667243272066,0.03070060908794403,0.09353531897068024,0.0015107395593076944,0.04060613736510277,0.06272398680448532,0.05229497328400612,0.044220104813575745,0.06838866323232651,0.03976401686668396,0.021389475092291832,0.04305779188871384,1.870222568511963,0.030701518058776855,0.012584801763296127,0.009666754864156246,2.349888801574707,0.0442226342856884,0.0018611929845064878,1.9483717679977417,0.07259958237409592,1.6956827640533447,0.07777354121208191,0.18089526891708374,0.11814996600151062,1.8634010553359985,0.022449858486652374,0.03241509199142456,0.06346767395734787,0.02532585710287094,0.03648439049720764,0.036866966634988785,-0.004662208259105682,-0.030656982213258743,-0.09343533962965012,-0.0014762254431843758,0.04053384065628052,-0.06266339868307114,0.05224257707595825,-0.044075772166252136,-0.06836395710706711,-0.03972447291016579,-0.021264400333166122,-0.04298102855682373,1.8607470989227295,0.03057456575334072,0.012571092694997787,0.00962181854993105,2.333580493927002,-0.04420701786875725,0.00182963942643255,1.9386537075042725,0.07258430123329163,1.6890954971313477,-0.0776943489909172,-0.18064600229263306,-0.11806696653366089,1.848879098892212,0.02235390618443489,-0.032279327511787415,-0.06322966516017914,-0.025274980813264847,-0.03645185008645058,-0.036716751754283905,0.010055221617221832,0.015132657252252102,0.8682311177253723,0.07348717004060745,1.0990588665008545,1.078829050064087,0.03176720067858696,0.0025037797167897224,1.05058753490448,0.4884343445301056,0.01309423428028822,0.6619948744773865,1.1299165487289429,0.49021899700164795,0.07849813997745514,0.004134639631956816,0.029101036489009857,0.6329213380813599,0.08356855064630508,0.18294301629066467,0.012268995866179466,0.5948328375816345,1.5646928548812866,0.011496086604893208,0.010058222338557243,0.0016785853076726198,0.4285927414894104,0.009393000043928623,0.6326937079429626,0.0380031056702137,0.8688481450080872,0.06912008672952652,0.01004202850162983,0.015119713731110096,-0.8650898337364197,-0.073480524122715,-1.0956535339355469,-1.0788248777389526,-0.03173597529530525,-0.002496507251635194,1.0505802631378174,0.4884198307991028,-0.013075423426926136,-0.6619593501091003,1.1223666667938232,-0.49020615220069885,-0.0784575566649437,-0.004071685951203108,0.01970645785331726,-0.6328737735748291,-0.08355821669101715,-0.18291591107845306,-0.012259299866855145,-0.594803512096405,1.5550670623779297,-0.01146887056529522,0.01004104781895876,-0.0016535351751372218,0.424264520406723,0.009378177113831043,-0.6326594948768616,0.037995077669620514,-0.8688241243362427,-0.06911292672157288,-0.6942481994628906,-1.334045171737671,-0.8009198904037476,-0.9284435510635376,-1.1812008619308472,-1.2553362846374512,-1.233284592628479,0.9780522584915161,1.5464147329330444,1.6119258403778076,1.321784257888794,1.2176746129989624,0.7382906675338745,-0.9345555305480957,-0.7720776796340942,-0.9200913906097412,-0.6731010675430298,1.069340467453003,-1.1240966320037842,-0.8598746061325073,-1.0280342102050781,1.0898072719573975,-0.7287670373916626,-0.5941179394721985,1.1901695728302002,1.641945719718933,-0.9091845750808716,1.0941035747528076,1.4549193382263184,1.5691335201263428,-1.0065099000930786,-0.3820892870426178
A05_LA_T_6286401.flac,0.010546678677201271,0.029048938304185867,0.09010332077741623,0.005939559079706669,0.04318056255578995,0.06105515733361244,0.049111753702163696,0.04518581181764603,0.07214594632387161,0.0453963465988636,0.014059599488973618,0.03638133779168129,1.926080346107483,0.0311101246625185,0.007925477810204029,0.006232462823390961,2.402318000793457,0.03999070078134537,0.004172261338680983,1.9502922296524048,0.06957486271858215,1.7325434684753418,0.07875144481658936,0.1812296062707901,0.12115783989429474,1.886327862739563,0.021281134337186813,0.0307556614279747,0.05618991330265999,0.016286874189972878,0.03732788562774658,0.03264794498682022,-0.010508731007575989,-0.029019758105278015,-0.09000501781702042,-0.00591248320415616,0.04308834671974182,-0.061001069843769073,0.048966363072395325,-0.04501263052225113,-0.07211917638778687,-0.045381832867860794,-0.014011030085384846,-0.03633061796426773,1.915348768234253,0.031029287725687027,0.007822556421160698,0.006110291462391615,2.3850464820861816,-0.03996948152780533,0.004117938224226236,1.944204568862915,0.06947692483663559,1.7231262922286987,-0.0786372646689415,-0.18110138177871704,-0.12113101780414581,1.8741977214813232,0.021252967417240143,-0.030717849731445312,-0.056050531566143036,-0.016230817884206772,-0.0372278206050396,-0.03260321170091629,0.00990821048617363,0.015214217826724052,0.8656991720199585,0.07883956283330917,1.126991868019104,1.1017720699310303,0.02329329028725624,0.0014870911836624146,1.0954086780548096,0.5145557522773743,0.015517622232437134,0.6733279824256897,1.0897459983825684,0.49985775351524353,0.08818832039833069,0.003396682906895876,0.09066133201122284,0.6440669894218445,0.09034974128007889,0.18772552907466888,0.014483526349067688,0.6067283749580383,1.6524158716201782,0.01050631981343031,0.011957455426454544,0.00033977115526795387,0.3949759006500244,0.007656084839254618,0.637491762638092,0.030903244391083717,0.8835597634315491,0.05568842217326164,0.009893770329654217,0.015196082182228565,-0.8614951968193054,-0.07883524149656296,-1.122795581817627,-1.1017669439315796,-0.023266205564141273,0.0014771255664527416,1.0954011678695679,0.5145420432090759,-0.01549733616411686,-0.6732909083366394,1.0815500020980835,-0.4998457133769989,-0.08815165609121323,0.0033721798099577427,0.07978851348161697,-0.6440180540084839,-0.09033836424350739,-0.18769405782222748,-0.014473157934844494,-0.6066991686820984,1.6412709951400757,-0.010477014817297459,0.011937851086258888,-0.0003155946615152061,0.39023905992507935,0.007638537324965,-0.637462317943573,0.03089497983455658,-0.8835347294807434,-0.055683668702840805,-0.8129881620407104,-1.355122685432434,-0.9387022256851196,-1.0157787799835205,-1.1518950462341309,-1.228451132774353,-1.2690215110778809,0.9053630232810974,1.5764563083648682,1.640230417251587,1.3391425609588623,1.2772657871246338,0.7216709852218628,-0.9456899166107178,-0.801817774772644,-0.8975273370742798,-0.7208476066589355,1.0218439102172852,-1.1870949268341064,-0.8376425504684448,-1.0286941528320312,1.019569993019104,-0.687951922416687,-0.593285083770752,1.2583286762237549,1.6767590045928955,-0.8760522603988647,1.121903896331787,1.4091919660568237,1.5696866512298584,-1.081499457359314,-0.49398714303970337
A05_LA_T_9307706.flac,0.00288934214040637,0.0308045856654644,0.096976637840271,0.0017730267718434334,0.045011382550001144,0.07214183360338211,0.0520169697701931,0.05197330564260483,0.06938853114843369,0.04348902404308319,0.023394843563437462,0.04596388339996338,1.8249799013137817,0.033030688762664795,0.011688284575939178,0.005522425752133131,2.3137941360473633,0.044999413192272186,0.0026101635303348303,1.9265103340148926,0.08460798114538193,1.672515869140625,0.07838095724582672,0.17914529144763947,0.12363240122795105,1.838257074356079,0.02296682633459568,0.03294094279408455,0.06234827637672424,0.03538280725479126,0.035631220787763596,0.03628208488225937,-0.002828065073117614,-0.030763207003474236,-0.09693533182144165,-0.0017549938056617975,0.04497259855270386,-0.07209338992834091,0.05199176445603371,-0.05183891952037811,-0.06936177611351013,-0.04346761852502823,-0.023325154557824135,-0.045875661075115204,1.8168357610702515,0.032988741993904114,0.011677528731524944,0.005412932485342026,2.3038976192474365,-0.04495619609951973,0.002583711640909314,1.9221749305725098,0.08458741009235382,1.6697832345962524,-0.0783027708530426,-0.1790074110031128,-0.1236005648970604,1.8298425674438477,0.02290884405374527,-0.03286771476268768,-0.06225784495472908,-0.0353117361664772,-0.035594139248132706,-0.03622519597411156,0.01046641357243061,0.013826664537191391,0.8561903238296509,0.07040663808584213,1.0237939357757568,1.0677775144577026,0.02886657603085041,0.004623424727469683,1.034652829170227,0.4797033965587616,0.013101370073854923,0.6575491428375244,1.1401026248931885,0.485262006521225,0.0733971819281578,0.005461561027914286,0.08813266456127167,0.6266301870346069,0.07936703413724899,0.1799549013376236,0.014916647225618362,0.5910221934318542,1.5336604118347168,0.0118448780849576,0.008569195866584778,0.003664244432002306,0.439225971698761,0.010360250249505043,0.6268746256828308,0.04123922437429428,0.8617830276489258,0.07390210777521133,0.010454547591507435,0.013811874203383923,-0.8529784083366394,-0.07039972394704819,-1.0210670232772827,-1.0670791864395142,-0.02883671596646309,-0.004616742953658104,1.034645438194275,0.4796872138977051,-0.01308385469019413,-0.6575190424919128,1.1336613893508911,-0.48525434732437134,-0.07335859537124634,-0.00539963785558939,0.08126066625118256,-0.626585066318512,-0.0793568566441536,-0.17993083596229553,-0.01490763295441866,-0.5909971594810486,1.5260052680969238,-0.011820656247437,0.008552140556275845,-0.0036429085303097963,0.43545934557914734,0.01034862082451582,-0.6268434524536133,0.04123114049434662,-0.8617631196975708,-0.07389800995588303,-0.6261072754859924,-1.3619616031646729,-0.7154458165168762,-0.9238555431365967,-1.2722947597503662,-1.338084101676941,-1.2999606132507324,0.9585788249969482,1.5723402500152588,1.6058120727539062,1.369876503944397,1.2135703563690186,0.790084958076477,-0.922812819480896,-0.7604881525039673,-0.9911601543426514,-0.6524805426597595,1.037545084953308,-1.0481882095336914,-0.9146506786346436,-1.0502852201461792,1.0679718255996704,-0.7306801080703735,-0.5273107290267944,1.15976083278656,1.6304311752319336,-0.9251145124435425,1.0686531066894531,1.4446752071380615,1.5798677206039429,-1.0317190885543823,-0.2780125141143799
A05_LA_T_5301809.flac,0.012744218111038208,0.028495825827121735,0.09441881626844406,0.0031298757530748844,0.04471425712108612,0.061648644506931305,0.04954550787806511,0.04513537511229515,0.07261538505554199,0.04616421461105347,0.013522841036319733,0.03779790550470352,1.8775222301483154,0.030855614691972733,0.012459859251976013,0.005378205794841051,2.3515686988830566,0.04338964447379112,0.00620736088603735,1.916711688041687,0.07454537600278854,1.6836620569229126,0.0785415768623352,0.18073850870132446,0.12222865223884583,1.8476651906967163,0.021371737122535706,0.02916799485683441,0.053917527198791504,0.01968543231487274,0.03702384978532791,0.033015355467796326,-0.012681299820542336,-0.028450701385736465,-0.09433834254741669,-0.0030881837010383606,0.04467306286096573,-0.06156804412603378,0.04944388195872307,-0.04488656297326088,-0.07259639352560043,-0.046136192977428436,-0.013467973098158836,-0.03774917870759964,1.8597378730773926,0.030741143971681595,0.012394238263368607,0.005272648762911558,2.321500778198242,-0.043364256620407104,0.006171152926981449,1.9023287296295166,0.0744716078042984,1.6660797595977783,-0.07848121970891953,-0.18044881522655487,-0.12217262387275696,1.8322486877441406,0.021323639899492264,-0.029126737266778946,-0.053789906203746796,-0.019638968631625175,-0.036965467035770416,-0.032977476716041565,0.009987764060497284,0.015533464960753918,0.8620119690895081,0.0821586325764656,1.1032171249389648,1.0758041143417358,0.02717377059161663,0.0010685124434530735,1.049970030784607,0.4925480782985687,0.016476167365908623,0.6518012285232544,1.0824718475341797,0.4821568429470062,0.0888223871588707,0.002195646520704031,0.0883079543709755,0.6284427642822266,0.09194697439670563,0.18291445076465607,0.014604713767766953,0.5881601572036743,1.5946820974349976,0.01166456751525402,0.0120299207046628,0.00038704549660906196,0.38463613390922546,0.00829404965043068,0.6251721978187561,0.035000886768102646,0.8603176474571228,0.060718175023794174,0.00997848343104124,0.015515187755227089,-0.8575687408447266,-0.08215370774269104,-1.0989692211151123,-1.0757979154586792,-0.027140116319060326,0.0010533834574744105,1.0499612092971802,0.492530882358551,-0.016450902447104454,-0.6517555713653564,1.073796272277832,-0.48214149475097656,-0.08877569437026978,0.0021636721212416887,0.07619986683130264,-0.6283818483352661,-0.09193387627601624,-0.1828819364309311,-0.01459098793566227,-0.5881348848342896,1.5831807851791382,-0.011629543267190456,0.012008992955088615,0.0003248341381549835,0.37964433431625366,0.008274601772427559,-0.6251339912414551,0.03498942777514458,-0.8602882623672485,-0.06071187183260918,-0.8085089921951294,-1.3614915609359741,-0.9080442190170288,-0.9938769340515137,-1.128415584564209,-1.2121448516845703,-1.2436732053756714,0.8830807209014893,1.5425524711608887,1.6234021186828613,1.2946375608444214,1.2373013496398926,0.7019981145858765,-0.9410890936851501,-0.7933406829833984,-0.868205726146698,-0.6991556286811829,1.0078647136688232,-1.1684092283248901,-0.8130861520767212,-1.012009859085083,0.9970837831497192,-0.7126238942146301,-0.5761573314666748,1.2117478847503662,1.6434638500213623,-0.8730440139770508,1.0899770259857178,1.366830825805664,1.5652048587799072,-1.035906434059143,-0.46934881806373596
A05_LA_T_7126487.flac,0.012754734605550766,0.024356592446565628,0.08588031679391861,0.004865414462983608,0.04068342223763466,0.05122969299554825,0.0478065200150013,0.04402824491262436,0.07079650461673737,0.04450716823339462,0.01312941312789917,0.029849324375391006,1.9237120151519775,0.028198828920722008,0.008573930710554123,0.007021930534392595,2.3757858276367188,0.040689267218112946,0.005840683355927467,1.9387502670288086,0.06349000334739685,1.6969490051269531,0.0766187459230423,0.17829039692878723,0.11534620821475983,1.8687920570373535,0.02125442586839199,0.03011428937315941,0.054912056773900986,0.006506774108856916,0.036902185529470444,0.03233523294329643,-0.012716991826891899,-0.024330351501703262,-0.08585486561059952,-0.0048362757079303265,0.04063304141163826,-0.051184073090553284,0.04774998873472214,-0.043962396681308746,-0.07077918946743011,-0.04449205845594406,-0.013069557026028633,-0.029767613857984543,1.9181125164031982,0.02817399986088276,0.00854332186281681,0.006968889385461807,2.361567974090576,-0.040664561092853546,0.005798478610813618,1.9308018684387207,0.06345027685165405,1.6885827779769897,-0.07658182084560394,-0.17820435762405396,-0.11528655141592026,1.8570587635040283,0.02122018299996853,-0.030045386403799057,-0.05484232306480408,-0.006429214496165514,-0.036869995296001434,-0.03229771926999092,0.009380507282912731,0.015142815187573433,0.8785686492919922,0.08353991061449051,1.176053524017334,1.0987694263458252,0.028439458459615707,0.011811341159045696,1.0874627828598022,0.5119167566299438,0.018718531355261803,0.6678451895713806,1.0793620347976685,0.4938964247703552,0.09541123360395432,0.00407371623441577,0.08314184844493866,0.6407181024551392,0.09502546489238739,0.18643775582313538,0.01596209406852722,0.5993435978889465,1.6783339977264404,0.008117356337606907,0.014695053920149803,0.001689487136900425,0.3786908686161041,0.004966256208717823,0.6351538896560669,0.027639979496598244,0.8794347047805786,0.055266186594963074,0.009370335377752781,0.015126190148293972,-0.8736544847488403,-0.08353694528341293,-1.1708009243011475,-1.0987638235092163,-0.028415946289896965,0.011800259351730347,1.087456464767456,0.5119037628173828,-0.018699927255511284,-0.6678119897842407,1.0702407360076904,-0.49388542771339417,-0.09537830203771591,0.0040471977554261684,0.07074791193008423,-0.6406723856925964,-0.0950138121843338,-0.18640626966953278,-0.01595143973827362,-0.5993202924728394,1.664066195487976,-0.008091124705970287,0.014677871949970722,0.0016511373687535524,0.37252089381217957,0.00494901929050684,-0.6351248621940613,0.027631519362330437,-0.8794122934341431,-0.05526237562298775,-0.8572040796279907,-1.2833853960037231,-0.9551149010658264,-1.0141944885253906,-1.0304501056671143,-1.1618934869766235,-1.1816872358322144,0.9543766975402832,1.488801121711731,1.6320737600326538,1.3066027164459229,1.2487668991088867,0.7132331132888794,-0.9719487428665161,-0.775052011013031,-0.8613428473472595,-0.722836971282959,1.0494556427001953,-1.1985458135604858,-0.8179620504379272,-1.019169569015503,1.0624873638153076,-0.6797913312911987,-0.6583698391914368,1.2739474773406982,1.686567783355713,-0.8454142808914185,1.1190743446350098,1.4170085191726685,1.5388565063476562,-1.0574252605438232,-0.5702146887779236
A05_LA_T_5336178.flac,0.00788427796214819,0.03212882578372955,0.09221670776605606,0.005780739709734917,0.04398255795240402,0.06859024614095688,0.052085019648075104,0.0484551265835762,0.06977584213018417,0.04444880783557892,0.01988408714532852,0.03848008066415787,1.8600742816925049,0.0315498486161232,0.008337250910699368,0.009262241423130035,2.3300352096557617,0.043952133506536484,0.0002948022447526455,1.924394130706787,0.07649640738964081,1.681203842163086,0.0782715380191803,0.18002086877822876,0.11924944818019867,1.8343621492385864,0.022103669121861458,0.0320342481136322,0.05901937186717987,0.0226865466684103,0.03706793114542961,0.034025922417640686,-0.007831512950360775,-0.03209488093852997,-0.09212744981050491,-0.005725940689444542,0.04392816126346588,-0.06853021681308746,0.05199442803859711,-0.048313722014427185,-0.06974330544471741,-0.044383302330970764,-0.01979862153530121,-0.03844934329390526,1.8499857187271118,0.031427063047885895,0.008298316970467567,0.00920282956212759,2.310748815536499,-0.0439172089099884,0.00024741943343542516,1.9138708114624023,0.0764605700969696,1.6684564352035522,-0.07821424305438995,-0.17990024387836456,-0.11921486258506775,1.825229287147522,0.022028328850865364,-0.03198018670082092,-0.05893193557858467,-0.022623233497142792,-0.03702313452959061,-0.03399658203125,0.010048311203718185,0.014160209335386753,0.8514829277992249,0.07618675380945206,1.0812187194824219,1.0758941173553467,0.02774384245276451,0.0018060181755572557,1.0486130714416504,0.4902162253856659,0.014645922929048538,0.658366322517395,1.094920039176941,0.48507457971572876,0.08334551751613617,0.0003234666073694825,0.07719695568084717,0.6289618015289307,0.08764423429965973,0.18149881064891815,0.015504734590649605,0.591752827167511,1.5674359798431396,0.010616238228976727,0.011284071952104568,0.0009258721838705242,0.39581742882728577,0.00884190946817398,0.6265163421630859,0.0366482138633728,0.8660166263580322,0.06801142543554306,0.010034370236098766,0.014146215282380581,-0.8474604487419128,-0.07618062943220139,-1.0777028799057007,-1.0758891105651855,-0.02771342173218727,0.0017947591841220856,1.048604965209961,0.4902019202709198,-0.014627160504460335,-0.6583300828933716,1.087197184562683,-0.4850655496120453,-0.08330466598272324,0.0003000019059982151,0.06697570532560349,-0.6289135813713074,-0.0876333937048912,-0.18147340416908264,-0.01549434196203947,-0.591725766658783,1.5571446418762207,-0.010587484575808048,0.011266558431088924,-0.0009039465221576393,0.39103102684020996,0.008828418329358101,-0.6264858245849609,0.0366394929587841,-0.8659921884536743,-0.0680076852440834,-0.714962363243103,-1.3398451805114746,-0.8572542667388916,-0.9677104949951172,-1.1595078706741333,-1.259885311126709,-1.2484190464019775,0.9313479065895081,1.5298421382904053,1.6123318672180176,1.3177706003189087,1.2141757011413574,0.7507940530776978,-0.9380825757980347,-0.7636244297027588,-0.931454598903656,-0.6662272810935974,1.0280654430389404,-1.106670618057251,-0.8700315952301025,-1.0414402484893799,1.044130563735962,-0.6880959272384644,-0.56281578540802,1.2019767761230469,1.6528732776641846,-0.8633522391319275,1.0813655853271484,1.4227876663208008,1.558107852935791,-1.0491310358047485,-0.41623783111572266
A05_LA_T_7711252.flac,0.008717009797692299,0.025192685425281525,0.08208626508712769,0.0017849804135039449,0.039132215082645416,0.05193113535642624,0.04954425245523453,0.04467417672276497,0.0707850232720375,0.04181203618645668,0.013932427391409874,0.03206929564476013,2.0359907150268555,0.028307216241955757,0.00791257992386818,0.008371718227863312,2.4497032165527344,0.039194148033857346,0.002234739949926734,1.9984911680221558,0.06101807951927185,1.7633423805236816,0.07619175314903259,0.18308715522289276,0.11281123757362366,1.917877197265625,0.022216837853193283,0.03097411058843136,0.05904937908053398,0.0048031858168542385,0.03661755099892616,0.03391203656792641,-0.00865161418914795,-0.025122888386249542,-0.08202575147151947,-0.0017444188706576824,0.03910236060619354,-0.05183342844247818,0.0494663380086422,-0.04460342600941658,-0.07073778659105301,-0.041803378611803055,-0.013870876282453537,-0.031969424337148666,2.0218749046325684,0.028230153024196625,0.007855142466723919,0.008313876576721668,2.4342756271362305,-0.03916695713996887,0.002198997884988785,1.98976469039917,0.060964420437812805,1.7554221153259277,-0.07608244568109512,-0.18300622701644897,-0.11277854442596436,1.905630350112915,0.022173769772052765,-0.030897017568349838,-0.05887202173471451,-0.00469594169408083,-0.036561980843544006,-0.03385666012763977,0.010202042758464813,0.015464697033166885,0.872572660446167,0.0786394253373146,1.1950749158859253,1.1213576793670654,0.026422010734677315,0.0070268502458930016,1.1284987926483154,0.5286158919334412,0.014063931070268154,0.6919999122619629,1.0993002653121948,0.5111169815063477,0.09078670293092728,0.004617601633071899,0.06923197209835052,0.6569578647613525,0.09450265765190125,0.19141530990600586,0.014834892936050892,0.6188281178474426,1.7257481813430786,0.00835407990962267,0.014123069122433662,0.0001838337047956884,0.3952704071998596,0.007155386731028557,0.6522887349128723,0.0234976876527071,0.9050188660621643,0.05666488781571388,0.010194464586675167,0.01545579731464386,-0.867719829082489,-0.07863583415746689,-1.1898852586746216,-1.1213518381118774,-0.026398885995149612,0.007015841547399759,1.1284925937652588,0.5286015868186951,-0.01404505968093872,-0.6919615268707275,1.0905286073684692,-0.5111063122749329,-0.09075498580932617,0.004590712953358889,0.05797531083226204,-0.6569111347198486,-0.09449132531881332,-0.19139134883880615,-0.014824039302766323,-0.6188069581985474,1.7121978998184204,-0.008325636386871338,0.01410761009901762,-0.00016390798555221409,0.38979193568229675,0.007137904409319162,-0.6522620320320129,0.023489175364375114,-0.9049927592277527,-0.056660424917936325,-0.8947920799255371,-1.2910023927688599,-0.9914875030517578,-1.0876069068908691,-1.065868854522705,-1.1806432008743286,-1.1978740692138672,0.9725055694580078,1.5460257530212402,1.6550920009613037,1.3547418117523193,1.257824182510376,0.7556253671646118,-1.0061242580413818,-0.7760674953460693,-0.9159886837005615,-0.7752619981765747,1.0323169231414795,-1.2348471879959106,-0.8688363432884216,-1.0647015571594238,1.091874361038208,-0.7104533910751343,-0.6800485253334045,1.2989723682403564,1.7584278583526611,-0.829589307308197,1.167184591293335,1.4616421461105347,1.533928632736206,-1.0494581460952759,-0.6277525424957275
A05_LA_T_5171730.flac,0.011240856721997261,0.030187200754880905,0.09700260311365128,0.006009083241224289,0.042056065052747726,0.06567972153425217,0.04853937402367592,0.039456095546483994,0.07242725044488907,0.04397449642419815,0.016375064849853516,0.04449165612459183,1.8544154167175293,0.03266480565071106,0.012269347906112671,0.007738378364592791,2.3917102813720703,0.04327404871582985,0.007227557711303234,1.9534471035003662,0.0688202753663063,1.7383884191513062,0.08214513957500458,0.18151451647281647,0.12504538893699646,1.8833149671554565,0.021045217290520668,0.030542772263288498,0.05852918699383736,0.02491244301199913,0.03799866512417793,0.03589346259832382,-0.011194358579814434,-0.030175402760505676,-0.09697282314300537,-0.005983777344226837,0.041989170014858246,-0.06565867364406586,0.048487693071365356,-0.03942730277776718,-0.07240846008062363,-0.04395464435219765,-0.016311271116137505,-0.0444660522043705,1.8499138355255127,0.032633546739816666,0.012240732088685036,0.007695730775594711,2.3785948753356934,-0.043250828981399536,0.007198834791779518,1.9450953006744385,0.0688021332025528,1.727703332901001,-0.08208176493644714,-0.1814640313386917,-0.12501996755599976,1.87514328956604,0.021030981093645096,-0.030505239963531494,-0.05847249925136566,-0.02487267181277275,-0.03797211870551109,-0.03587743267416954,0.009684758260846138,0.015645096078515053,0.8710401058197021,0.08108662068843842,1.0993963479995728,1.085922360420227,0.025772402063012123,0.005376522894948721,1.0584945678710938,0.49753427505493164,0.017350969836115837,0.6557764410972595,1.1128919124603271,0.49039778113365173,0.08834871649742126,0.0009963782504200935,0.03951546549797058,0.6359923481941223,0.08709201961755753,0.18558229506015778,0.012807424180209637,0.5952279567718506,1.5759817361831665,0.012696733698248863,0.010352244600653648,0.00019710807828232646,0.4252316355705261,0.00807441957294941,0.6313111186027527,0.04503466188907623,0.8657441735267639,0.06871775537729263,0.009670227766036987,0.015620357356965542,-0.8710219264030457,-0.08108232915401459,-1.0955688953399658,-1.0859178304672241,-0.025739645585417747,-0.005369177553802729,1.0584877729415894,0.4975186884403229,-0.01733047515153885,-0.6557404398918152,1.105022668838501,-0.4903852641582489,-0.0883045494556427,0.0009708517463877797,0.029144374653697014,-0.6359414458274841,-0.08708124607801437,-0.18554644286632538,-0.012797260656952858,-0.5951949954032898,1.5658873319625854,-0.01266875583678484,0.010329985991120338,0.00014346042007673532,0.4207479655742645,0.008056179620325565,-0.6312738656997681,0.04502682015299797,-0.8657203912734985,-0.06871207803487778,-0.7257282733917236,-1.4071098566055298,-0.8420314788818359,-0.9050159454345703,-1.1996634006500244,-1.2603645324707031,-1.2898807525634766,0.9198386669158936,1.5917387008666992,1.6474183797836304,1.2967209815979004,1.2812756299972534,0.6801306009292603,-0.8902361392974854,-0.8257773518562317,-0.8617472052574158,-0.657179594039917,1.08571457862854,-1.1687301397323608,-0.8039203882217407,-0.9934718012809753,1.0264252424240112,-0.7156118154525757,-0.5587072372436523,1.215503454208374,1.6138479709625244,-0.9338464736938477,1.113743543624878,1.406001091003418,1.623076319694519,-1.0548679828643799,-0.3762953281402588
A05_LA_T_1649834.flac,0.012245921418070793,0.027501290664076805,0.09554197639226913,0.0046826619654893875,0.0437353178858757,0.06143808364868164,0.04880717769265175,0.04538456350564957,0.07186798006296158,0.04637530446052551,0.016623787581920624,0.04032456502318382,1.8223836421966553,0.03273119032382965,0.012724116444587708,0.002967512235045433,2.3294334411621094,0.04396650940179825,0.008633125573396683,1.91316819190979,0.07208224385976791,1.6724666357040405,0.0800357311964035,0.17401722073554993,0.12590666115283966,1.850171446800232,0.02062235400080681,0.029832281172275543,0.05251941457390785,0.022746115922927856,0.03656332194805145,0.033789653331041336,-0.012205423787236214,-0.02746279537677765,-0.09539618343114853,-0.004645823501050472,0.043647103011608124,-0.06138366460800171,0.04862494021654129,-0.04520275816321373,-0.0717959925532341,-0.04633999615907669,-0.01655656471848488,-0.04024264216423035,1.8095206022262573,0.03258098289370537,0.012628723867237568,0.00277453800663352,2.318932294845581,-0.043937355279922485,0.008615340106189251,1.903773546218872,0.07197629660367966,1.6665875911712646,-0.07986224442720413,-0.1738942265510559,-0.1258431375026703,1.8398768901824951,0.020546099171042442,-0.029770657420158386,-0.05223673954606056,-0.02267862856388092,-0.036428891122341156,-0.03365035355091095,0.009517904371023178,0.014784525148570538,0.8621975779533386,0.07976455241441727,1.0844908952713013,1.0744398832321167,0.02595501020550728,0.0018549137748777866,1.043233036994934,0.4895080626010895,0.018108870834112167,0.6503406763076782,1.099643588066101,0.483101487159729,0.0859617367386818,0.0005356502369977534,0.09104451537132263,0.6268144249916077,0.08569418638944626,0.18174850940704346,0.01501999981701374,0.5880566835403442,1.5797019004821777,0.01128782331943512,0.010818392969667912,0.00024081370793282986,0.40447285771369934,0.007205028552561998,0.6220492720603943,0.041732292622327805,0.8568845391273499,0.06534171849489212,0.009510676376521587,0.014768100343644619,-0.8621767163276672,-0.07975956052541733,-1.0804904699325562,-1.0744341611862183,-0.025921523571014404,0.0018407071474939585,1.0432261228561401,0.48949113488197327,-0.018086586147546768,-0.6502987742424011,1.0904154777526855,-0.48309001326560974,-0.0859159454703331,0.0005038091912865639,0.07817374914884567,-0.6267579197883606,-0.08568080514669418,-0.1817150115966797,-0.015007262118160725,-0.5880295634269714,1.568020224571228,-0.01125587709248066,0.010798702947795391,0.00018274234025739133,0.3989303410053253,0.007186593022197485,-0.6220094561576843,0.041722383350133896,-0.8568572402000427,-0.06533638387918472,-0.7283010482788086,-1.3556897640228271,-0.8171131610870361,-0.9168468117713928,-1.1720013618469238,-1.2564083337783813,-1.2575565576553345,0.9248219728469849,1.542026162147522,1.6126885414123535,1.292253851890564,1.2355101108551025,0.713402509689331,-0.9094139337539673,-0.7865211367607117,-0.8822768330574036,-0.666871190071106,1.0582735538482666,-1.1337794065475464,-0.8314622044563293,-1.0021984577178955,1.0294378995895386,-0.7104920148849487,-0.5560392141342163,1.1945838928222656,1.6149444580078125,-0.900367021560669,1.0967406034469604,1.381630539894104,1.571462869644165,-1.0400201082229614,-0.38553011417388916
A05_LA_T_9626212.flac,0.015966756269335747,0.03015427477657795,0.09567730873823166,0.009335614740848541,0.04092980548739433,0.06173670291900635,0.047904133796691895,0.03328261896967888,0.07340247929096222,0.045272018760442734,0.013439025729894638,0.03841041028499603,1.8609371185302734,0.03157036751508713,0.010375702753663063,0.011398018337786198,2.3753511905670166,0.04238231107592583,0.005424531176686287,1.9254076480865479,0.06239580363035202,1.7249987125396729,0.0812048390507698,0.1833110749721527,0.12232102453708649,1.8525800704956055,0.019774360582232475,0.02937861904501915,0.05319450423121452,0.017467956990003586,0.03980550915002823,0.03424458205699921,-0.015907175838947296,-0.03009670600295067,-0.09562977403402328,-0.009263988584280014,0.04085676372051239,-0.0616585910320282,0.047851525247097015,-0.0331430658698082,-0.07333389669656754,-0.04523121193051338,-0.01334843598306179,-0.038358330726623535,1.838700771331787,0.03141263872385025,0.010343332774937153,0.011318141594529152,2.3470373153686523,-0.04231776297092438,0.005342541262507439,1.9132308959960938,0.06236637756228447,1.713153600692749,-0.08105738461017609,-0.18315339088439941,-0.12228189408779144,1.8400120735168457,0.01973685435950756,-0.02930596098303795,-0.05313264578580856,-0.017402511090040207,-0.039774179458618164,-0.03421158343553543,0.009207416325807571,0.013892335817217827,0.8738295435905457,0.08182746171951294,1.134908676147461,1.086249589920044,0.02214907296001911,0.0018802429549396038,1.0592246055603027,0.5018317103385925,0.018759651109576225,0.6575061082839966,1.0648211240768433,0.4845479726791382,0.09378287941217422,0.004649425391107798,0.014656312763690948,0.6309691071510315,0.09103983640670776,0.1824541538953781,0.014011711813509464,0.5955657362937927,1.5781269073486328,0.009394333697855473,0.013182833790779114,0.002023502252995968,0.3922138214111328,0.007548318710178137,0.6221343278884888,0.04435677081346512,0.8678923845291138,0.0689009428024292,0.009193497709929943,0.013872875832021236,-0.8701372146606445,-0.08182200789451599,-1.1305872201919556,-1.0862454175949097,-0.022125598043203354,0.0018704247195273638,1.0592173337936401,0.5018183588981628,-0.018740925937891006,-0.6574727296829224,1.0569101572036743,-0.4845389425754547,-0.09374960511922836,0.004629162605851889,0.0043203928507864475,-0.6309260725975037,-0.09102994948625565,-0.18242500722408295,-0.014002056792378426,-0.5955380797386169,1.5673763751983643,-0.009369111619889736,0.013165314681828022,0.0019861110486090183,0.3875960409641266,0.0075324117206037045,-0.6221100091934204,0.04434940963983536,-0.8678705096244812,-0.06889526546001434,-0.7377806305885315,-1.369831919670105,-0.9310484528541565,-0.9031185507774353,-1.0861557722091675,-1.1755882501602173,-1.2059776782989502,0.9186044335365295,1.519864797592163,1.6508560180664062,1.2599613666534424,1.2889065742492676,0.6403309106826782,-0.8853322267532349,-0.8231253027915955,-0.7998966574668884,-0.6151096820831299,1.1032594442367554,-1.1778674125671387,-0.7421346306800842,-0.9625420570373535,1.0243300199508667,-0.6449081897735596,-0.6129248142242432,1.2623248100280762,1.6056495904922485,-0.9240400791168213,1.0470588207244873,1.3990368843078613,1.623911738395691,-1.0691794157028198,-0.4431041181087494
A05_LA_T_1081004.flac,0.008352513425052166,0.02908124029636383,0.09421242773532867,0.0014574829256162047,0.04540185257792473,0.061479680240154266,0.05051460117101669,0.04778881371021271,0.07187925279140472,0.04569267854094505,0.014932967722415924,0.038996338844299316,1.8868341445922852,0.030577952042222023,0.011830905452370644,0.004676142707467079,2.3424031734466553,0.0424225889146328,0.003248360473662615,1.9189653396606445,0.07946597784757614,1.6756876707077026,0.07737084478139877,0.18328800797462463,0.1211785301566124,1.8461275100708008,0.02200852893292904,0.030323565006256104,0.057181768119335175,0.02358241379261017,0.036356229335069656,0.0331573560833931,-0.008265243843197823,-0.02903154119849205,-0.09411130845546722,-0.0014087436720728874,0.045339398086071014,-0.06138797104358673,0.05029579997062683,-0.04760739579796791,-0.07181140035390854,-0.045665521174669266,-0.014841427095234394,-0.038928475230932236,1.8710657358169556,0.03041301667690277,0.011697730980813503,0.004476381931453943,2.3218092918395996,-0.04236246645450592,0.003138671163469553,1.9094921350479126,0.07932868599891663,1.6705577373504639,-0.07723455131053925,-0.18309548497200012,-0.12114979326725006,1.8333187103271484,0.021987605839967728,-0.03026852197945118,-0.05700455978512764,-0.023486562073230743,-0.036222077906131744,-0.03309356048703194,0.010165372863411903,0.015428404323756695,0.8583733439445496,0.0771140605211258,1.0921170711517334,1.0795873403549194,0.026423875242471695,0.0024078269489109516,1.0608657598495483,0.4954903721809387,0.014750713482499123,0.6604687571525574,1.0995163917541504,0.48643815517425537,0.08277877420186996,0.0010594080667942762,0.10505247861146927,0.6309251189231873,0.08819668740034103,0.1831222027540207,0.013416200876235962,0.5943238735198975,1.6135820150375366,0.011162498965859413,0.011235826648771763,0.0012111214455217123,0.4011646807193756,0.009192067198455334,0.6276093125343323,0.029877204447984695,0.8674636483192444,0.05548597127199173,0.010151495225727558,0.015405058860778809,-0.8546085357666016,-0.07710760086774826,-1.0885218381881714,-1.0795822143554688,-0.026394877582788467,-0.0024000394623726606,1.0608562231063843,0.49547311663627625,-0.014730761758983135,-0.6604334712028503,1.0920625925064087,-0.4864253103733063,-0.08273877948522568,0.0010374115081503987,0.09468384087085724,-0.6308755278587341,-0.08818575739860535,-0.18308737874031067,-0.013405675068497658,-0.5942950248718262,1.603710412979126,-0.011133617721498013,0.011214330792427063,-0.0011854013428092003,0.39702099561691284,0.009176388382911682,-0.627579927444458,0.029867811128497124,-0.8674403429031372,-0.05548073723912239,-0.7842772603034973,-1.3546370267868042,-0.8929318189620972,-1.0111852884292603,-1.1638739109039307,-1.2219831943511963,-1.2628270387649536,0.886102020740509,1.5583157539367676,1.6241872310638428,1.3558214902877808,1.2663123607635498,0.7125438451766968,-0.9477297067642212,-0.8022966384887695,-0.8950611352920532,-0.7126479148864746,0.9898574948310852,-1.155822515487671,-0.8203550577163696,-1.0072145462036133,1.000890851020813,-0.7021359205245972,-0.587562084197998,1.218400001525879,1.6371432542800903,-0.9122589230537415,1.069380283355713,1.3830721378326416,1.5732661485671997,-1.051619291305542,-0.43212345242500305
A05_LA_T_3797486.flac,0.009084939025342464,0.02786988392472267,0.09280247986316681,0.004740559030324221,0.042182039469480515,0.06312143057584763,0.048172809183597565,0.04390816017985344,0.07228510826826096,0.04457131773233414,0.01656881347298622,0.04218750074505806,1.9246912002563477,0.03288605436682701,0.009695535525679588,0.0037445768248289824,2.4465160369873047,0.040429018437862396,0.006833309773355722,1.9859355688095093,0.0680258572101593,1.770155906677246,0.08108159154653549,0.1789419949054718,0.12474039196968079,1.919579267501831,0.021330544725060463,0.0312010757625103,0.05750579386949539,0.021493077278137207,0.036770958453416824,0.034794554114341736,-0.00905749574303627,-0.027845125645399094,-0.0927664190530777,-0.004714515060186386,0.04212019965052605,-0.0630812719464302,0.04812826216220856,-0.04383418336510658,-0.07226301729679108,-0.04455869272351265,-0.016510188579559326,-0.04213933274149895,1.908598780632019,0.032852448523044586,0.00966700166463852,0.0036572839599102736,2.422837257385254,-0.0404057577252388,0.006801809184253216,1.9771559238433838,0.0680023729801178,1.7592447996139526,-0.08101137727499008,-0.1788719892501831,-0.12470759451389313,1.9074561595916748,0.02129345014691353,-0.03113642893731594,-0.05744505301117897,-0.021452397108078003,-0.03674592822790146,-0.03475720062851906,0.010004043579101562,0.015465114265680313,0.8793010711669922,0.07706544548273087,1.1087428331375122,1.1059256792068481,0.02323475293815136,0.001502492232248187,1.0954173803329468,0.5138093829154968,0.016278686001896858,0.6756969094276428,1.125208854675293,0.5046979188919067,0.08536805212497711,0.0017218203283846378,0.07532753795385361,0.6480532884597778,0.084821417927742,0.188971608877182,0.013875038363039494,0.6106513142585754,1.6375412940979004,0.011330523528158665,0.010070336051285267,0.001596330665051937,0.42932215332984924,0.007794296834617853,0.6421189308166504,0.039637625217437744,0.8858238458633423,0.06454326957464218,0.009990690276026726,0.015445197001099586,-0.8751549124717712,-0.07706090807914734,-1.1049846410751343,-1.1059213876724243,-0.023207370191812515,-0.0014956946251913905,1.0954113006591797,0.513795793056488,-0.016260111704468727,-0.6756622791290283,1.1170482635498047,-0.5046879053115845,-0.08533193171024323,0.0016997040947899222,0.06447771936655045,-0.6480079293251038,-0.08481081575155258,-0.18893973529338837,-0.013865607790648937,-0.6106228828430176,1.626991629600525,-0.011303967796266079,0.01005097758024931,-0.0015721338568255305,0.42466336488723755,0.007777804974466562,-0.6420880556106567,0.039630454033613205,-0.8858005404472351,-0.06453783810138702,-0.7522637248039246,-1.3852697610855103,-0.8488020896911621,-0.9560226798057556,-1.222886562347412,-1.283961534500122,-1.298117995262146,0.951328456401825,1.6148197650909424,1.6607340574264526,1.353795051574707,1.2939326763153076,0.7328319549560547,-0.9189918637275696,-0.8129452466964722,-0.9163659811019897,-0.6910943984985352,1.0795509815216064,-1.1630914211273193,-0.8559425473213196,-1.028084397315979,1.059490442276001,-0.7193140983581543,-0.5807857513427734,1.2491919994354248,1.6678001880645752,-0.9272434711456299,1.1337974071502686,1.4428362846374512,1.613477349281311,-1.0793137550354004,-0.4029276967048645
A05_LA_T_2500570.flac,0.006796448491513729,0.025573791936039925,0.0899578332901001,0.00012992683332413435,0.04238510504364967,0.05839523673057556,0.04922537878155708,0.04690203443169594,0.07160042226314545,0.04323741793632507,0.015164739452302456,0.03909686952829361,1.9683177471160889,0.03039313293993473,0.010919146239757538,0.0033713856246322393,2.427197217941284,0.03978476673364639,0.00511605478823185,1.9831066131591797,0.07123016566038132,1.749184489250183,0.07788045704364777,0.18211312592029572,0.11911875009536743,1.9084551334381104,0.022623535245656967,0.030745424330234528,0.05948951840400696,0.017935844138264656,0.03556521609425545,0.03455249220132828,-0.006766994949430227,-0.025543902069330215,-0.08991417288780212,-0.00011143396841362119,0.04235655069351196,-0.0583614706993103,0.049182094633579254,-0.0468180812895298,-0.07155051827430725,-0.04321690648794174,-0.015130274929106236,-0.03905148059129715,1.95768141746521,0.030331309884786606,0.0108902957290411,0.0032731688115745783,2.4098873138427734,-0.03977221995592117,0.005101507063955069,1.974231481552124,0.07120766490697861,1.7383323907852173,-0.07777959108352661,-0.18205437064170837,-0.11907987296581268,1.8983027935028076,0.022573664784431458,-0.030718311667442322,-0.05938752740621567,-0.017897337675094604,-0.03553001582622528,-0.03450297564268112,0.009968244470655918,0.01658499240875244,0.8728801608085632,0.07627858966588974,1.1279407739639282,1.1058954000473022,0.027864865958690643,0.0008599249995313585,1.1019835472106934,0.5146198868751526,0.013364816084504128,0.6799570322036743,1.1269659996032715,0.5056415796279907,0.0838017538189888,0.000853060104418546,0.08723898977041245,0.649428129196167,0.08898847550153732,0.18960273265838623,0.012780878692865372,0.6116449236869812,1.6661860942840576,0.010901625268161297,0.011196771636605263,0.0018451721407473087,0.421100914478302,0.008646129630506039,0.6465974450111389,0.029468199238181114,0.8906479477882385,0.05650561302900314,0.009954570792615414,0.016565494239330292,-0.8688451647758484,-0.07627302408218384,-1.124010682106018,-1.1058908700942993,-0.02783750370144844,0.0008505659061484039,1.1019761562347412,0.5146059393882751,-0.013346540741622448,-0.6799207329750061,1.1189510822296143,-0.5056306719779968,-0.08376429229974747,0.0008312342106364667,0.0765613242983818,-0.6493796706199646,-0.08897861838340759,-0.1895732283592224,-0.012771238572895527,-0.6116166114807129,1.6552752256393433,-0.01087313611060381,0.011178506538271904,-0.001821263344027102,0.4165467321872711,0.00863020122051239,-0.646568775177002,0.02946036122739315,-0.8906235098838806,-0.05650169402360916,-0.8161348104476929,-1.350553274154663,-0.9153218269348145,-1.0327504873275757,-1.178239107131958,-1.2491015195846558,-1.2612985372543335,0.9524853825569153,1.5949647426605225,1.659255862236023,1.376595377922058,1.2776594161987305,0.7470897436141968,-0.9690777063369751,-0.7973847389221191,-0.932030200958252,-0.7311222553253174,1.0383872985839844,-1.1740984916687012,-0.8672885894775391,-1.0490559339523315,1.065818428993225,-0.7267783880233765,-0.6221306920051575,1.2607969045639038,1.7024433612823486,-0.8995328545570374,1.1278002262115479,1.4536685943603516,1.586320161819458,-1.0647263526916504,-0.47696515917778015
A05_LA_T_6592736.flac,0.01000441238284111,0.02783912420272827,0.09519334882497787,0.002441324759274721,0.04178166016936302,0.06286608427762985,0.04920294135808945,0.045476749539375305,0.07074950635433197,0.04335751384496689,0.01910282112658024,0.04275398701429367,1.7956146001815796,0.0325564444065094,0.014227373525500298,0.0024777790531516075,2.3236846923828125,0.04440584406256676,0.009674330241978168,1.9129433631896973,0.0711454227566719,1.6496137380599976,0.08036068826913834,0.17084439098834991,0.1252838522195816,1.854663610458374,0.021091541275382042,0.030099188908934593,0.05666552856564522,0.026880474761128426,0.036393411457538605,0.03485628962516785,-0.009960798546671867,-0.027805080637335777,-0.09515783935785294,-0.002414642134681344,0.041731465607881546,-0.06279104202985764,0.049118638038635254,-0.04543917998671532,-0.07070048153400421,-0.04333482310175896,-0.019019583240151405,-0.042673464864492416,1.789278507232666,0.03246495500206947,0.014187343418598175,0.0023935427889227867,2.3155064582824707,-0.04437895119190216,0.009660391137003899,1.9076628684997559,0.07112349569797516,1.6444640159606934,-0.08028443157672882,-0.17077867686748505,-0.12522882223129272,1.8450336456298828,0.021023830398917198,-0.030048619955778122,-0.056570179760456085,-0.02683311142027378,-0.03637028485536575,-0.03481445834040642,0.009531297720968723,0.014253771863877773,0.8557050824165344,0.0784670040011406,1.0735406875610352,1.0695323944091797,0.031194796785712242,0.004564592149108648,1.0327725410461426,0.4815678596496582,0.017375227063894272,0.6476751565933228,1.1162033081054688,0.48353487253189087,0.08282981812953949,0.0036856357473880053,0.061612941324710846,0.6252897381782532,0.08225012570619583,0.18063423037528992,0.015290714800357819,0.5839128494262695,1.5428577661514282,0.011205120012164116,0.010266738943755627,0.00026338454335927963,0.42114490270614624,0.006201652809977531,0.6238393187522888,0.042910318821668625,0.8517342209815979,0.06894368678331375,0.009524880908429623,0.01423710584640503,-0.8556889891624451,-0.0784623771905899,-1.0695899724960327,-1.0695284605026245,-0.031161103397607803,0.004553196486085653,1.0327668190002441,0.4815540909767151,-0.017356140539050102,-0.647641658782959,1.1072428226470947,-0.4835225045681,-0.08278433233499527,-0.003626395482569933,0.049529943615198135,-0.6252397894859314,-0.08223938196897507,-0.18060488998889923,-0.015280172228813171,-0.5838896036148071,1.5307706594467163,-0.011177891865372658,0.010250668041408062,-0.0002391330199316144,0.41504979133605957,0.00618787482380867,-0.6237989068031311,0.04290209338068962,-0.8517124056816101,-0.0689389705657959,-0.6975858807563782,-1.3471788167953491,-0.7455123066902161,-0.901663601398468,-1.203933835029602,-1.2948620319366455,-1.264420986175537,0.9545201063156128,1.5470699071884155,1.5844993591308594,1.265019416809082,1.1862664222717285,0.7673665285110474,-0.9244359731674194,-0.7459531426429749,-0.9236699938774109,-0.6611112952232361,1.0753127336502075,-1.1113507747650146,-0.8806835412979126,-1.0371415615081787,1.057551383972168,-0.7532629370689392,-0.5357773900032043,1.1660759449005127,1.633487343788147,-0.8672273755073547,1.1234502792358398,1.4039735794067383,1.5398433208465576,-1.008833646774292,-0.36700955033302307
A05_LA_T_1526584.flac,0.009776931256055832,0.03405546024441719,0.09560783952474594,0.007638415787369013,0.04714387655258179,0.07292258739471436,0.05091773346066475,0.049919795244932175,0.07085787504911423,0.0465579479932785,0.01844092644751072,0.03864608332514763,1.8453679084777832,0.032189127057790756,0.007883480750024319,0.007262780796736479,2.331528663635254,0.044091690331697464,0.0002990881912410259,1.9116276502609253,0.08325491845607758,1.6636172533035278,0.07843443751335144,0.18095600605010986,0.12322519719600677,1.8388421535491943,0.02189686894416809,0.0316968709230423,0.05886683613061905,0.02807108499109745,0.03762198984622955,0.03258759528398514,-0.009713727049529552,-0.03397519886493683,-0.0955449566245079,-0.007587999105453491,0.04707954078912735,-0.0728025957942009,0.05079471692442894,-0.04976730793714523,-0.07082105427980423,-0.046534039080142975,-0.018358640372753143,-0.03852125257253647,1.823003888130188,0.03205772489309311,0.007814960554242134,0.007184414658695459,2.2988314628601074,-0.04404592886567116,0.00023283305927179754,1.894397258758545,0.08319929242134094,1.6501199007034302,-0.07834520936012268,-0.1808125078678131,-0.12316426634788513,1.819263219833374,0.02185063064098358,-0.031604014337062836,-0.058749131858348846,-0.02797570824623108,-0.0375584214925766,-0.03252569958567619,0.00996607169508934,0.014424705877900124,0.8498327732086182,0.07680778205394745,1.055969476699829,1.0592236518859863,0.025702886283397675,0.003775677178055048,1.041243314743042,0.48653149604797363,0.014347457326948643,0.65231853723526,1.0852786302566528,0.48126259446144104,0.08190795034170151,5.5052340030670166e-05,0.10319559276103973,0.6246054768562317,0.08596083521842957,0.18084996938705444,0.014646139927208424,0.5874245166778564,1.5533668994903564,0.011719387024641037,0.010508166626095772,0.0011842618696391582,0.3790091574192047,0.008887416683137417,0.6212415099143982,0.03586113452911377,0.8579700589179993,0.06333833187818527,0.009951351210474968,0.014407298527657986,-0.8462528586387634,-0.07680163532495499,-1.0529879331588745,-1.0513681173324585,-0.025672931224107742,-0.0037682093679904938,1.0412342548370361,0.4865141808986664,-0.014329100959002972,-0.6522874236106873,1.0783872604370117,-0.48125433921813965,-0.08186780661344528,3.372860010131262e-05,0.09365789592266083,-0.6245610117912292,-0.08595117926597595,-0.18082360923290253,-0.014636389911174774,-0.5873948931694031,1.5449132919311523,-0.01169316004961729,0.010489453561604023,-0.0011597264092415571,0.37495356798171997,0.008872385136783123,-0.6212124228477478,0.03585131838917732,-0.8579497337341309,-0.06333309412002563,-0.7311397790908813,-1.3746449947357178,-0.8495303392410278,-0.9763460755348206,-1.1917905807495117,-1.2559188604354858,-1.2845476865768433,0.8752706050872803,1.5543458461761475,1.6111531257629395,1.3223127126693726,1.218565821647644,0.7384105920791626,-0.9308929443359375,-0.7804696559906006,-0.9179123044013977,-0.6903294324874878,0.9857892990112305,-1.1145808696746826,-0.852626621723175,-1.032146692276001,0.9892512559890747,-0.7056863307952881,-0.5314433574676514,1.1785764694213867,1.6312255859375,-0.8813673257827759,1.0726597309112549,1.3783080577850342,1.564998745918274,-1.0488755702972412,-0.39615562558174133
A05_LA_T_3209106.flac,0.01222778856754303,0.031157318502664566,0.09811033308506012,0.008701330982148647,0.04312007129192352,0.07004757970571518,0.048157766461372375,0.042878247797489166,0.07108312845230103,0.0445098951458931,0.019176332280039787,0.04148028418421745,1.7659085988998413,0.03315169736742973,0.01073287520557642,0.006685671396553516,2.3157968521118164,0.044472236186265945,0.007325770333409309,1.9026806354522705,0.07262206077575684,1.658656358718872,0.08116575330495834,0.17481401562690735,0.12681327760219574,1.840837001800537,0.02061108686029911,0.030718248337507248,0.05755450576543808,0.02941802516579628,0.038148198276758194,0.03452463820576668,-0.012193539179861546,-0.03113308548927307,-0.09806553274393082,-0.008661460131406784,0.04307405650615692,-0.06999105960130692,0.04809979721903801,-0.042817071080207825,-0.0710413008928299,-0.04443751275539398,-0.01912575773894787,-0.04144788160920143,1.760679006576538,0.03296755999326706,0.010698738507926464,0.006620855536311865,2.309314727783203,-0.04444419592618942,0.007314358837902546,1.8997093439102173,0.07259360700845718,1.650630235671997,-0.08107148855924606,-0.17473863065242767,-0.1267886459827423,1.8361687660217285,0.020576629787683487,-0.030680930241942406,-0.05746477469801903,-0.029347170144319534,-0.038118235766887665,-0.03448852151632309,0.008830046281218529,0.01372502651065588,0.8533996939659119,0.08002321422100067,1.0649237632751465,1.0666625499725342,0.02815316990017891,0.0031834712717682123,1.0258880853652954,0.4814889430999756,0.018101366236805916,0.6428202390670776,1.0941035747528076,0.4793860614299774,0.0863000825047493,0.0018077914137393236,0.04952723905444145,0.6220395565032959,0.08313263952732086,0.17979373037815094,0.014838810078799725,0.5816815495491028,1.5123249292373657,0.011008000932633877,0.010799648240208626,0.001172808464616537,0.3987530767917633,0.00582265667617321,0.6176570653915405,0.047943513840436935,0.848057210445404,0.07265756279230118,0.00882325042039156,0.013713580556213856,-0.8533853888511658,-0.08001773804426193,-1.0611785650253296,-1.0666593313217163,-0.028124069795012474,0.00317370961420238,1.0258824825286865,0.4814784526824951,-0.01808515004813671,-0.6427928805351257,1.0867878198623657,-0.47937607765197754,-0.08626066148281097,-0.0017533540958538651,0.03987451270222664,-0.6219956278800964,-0.08312543481588364,-0.17976826429367065,-0.014830097556114197,-0.5816643834114075,1.503698706626892,-0.01098556350916624,0.010784103535115719,0.001135337515734136,0.3946075141429901,0.005812525283545256,-0.6176245212554932,0.04793541133403778,-0.8480401039123535,-0.07265131920576096,-0.6619822978973389,-1.3734025955200195,-0.7627360224723816,-0.8621641397476196,-1.190220594406128,-1.274440050125122,-1.265217661857605,0.9332125186920166,1.5373873710632324,1.6028640270233154,1.2509500980377197,1.2017303705215454,0.7285525798797607,-0.8907620906829834,-0.7698710560798645,-0.8886194229125977,-0.6247857213020325,1.08533775806427,-1.0997339487075806,-0.8416539430618286,-1.0159002542495728,1.0329980850219727,-0.7137595415115356,-0.5266241431236267,1.1728568077087402,1.6036665439605713,-0.8898622989654541,1.088133454322815,1.401479959487915,1.5761635303497314,-1.032029390335083,-0.34648144245147705
A05_LA_T_6189162.flac,0.011047013103961945,0.02483038790524006,0.09298451989889145,0.00209703017026186,0.04039018228650093,0.05464201420545578,0.04769344627857208,0.04145029932260513,0.07196696102619171,0.04313424602150917,0.015403727069497108,0.04067149758338928,1.8855812549591064,0.03154045715928078,0.013616051524877548,0.0030436618253588676,2.4124982357025146,0.04174347221851349,0.00930811371654272,1.9613895416259766,0.06481073051691055,1.7283217906951904,0.07992823421955109,0.17528711259365082,0.12356629967689514,1.9068772792816162,0.020823806524276733,0.029683904722332954,0.055264607071876526,0.019359027966856956,0.03649351745843887,0.03471459820866585,-0.011014798656105995,-0.0247915368527174,-0.09291264414787292,-0.002059707883745432,0.04033195972442627,-0.05457080155611038,0.047593239694833755,-0.04132082313299179,-0.07190756499767303,-0.04311319440603256,-0.01535264402627945,-0.040613554418087006,1.8737945556640625,0.03148036450147629,0.013584978878498077,0.0029552248306572437,2.393524646759033,-0.0416998416185379,0.0092674745246768,1.951492428779602,0.06477642059326172,1.716442346572876,-0.079833984375,-0.17513972520828247,-0.12351804971694946,1.8943288326263428,0.02074851095676422,-0.029637407511472702,-0.05515863746404648,-0.019324811175465584,-0.03644547611474991,-0.0346624031662941,0.0095200901851058,0.015764914453029633,0.8784099817276001,0.07942527532577515,1.1262147426605225,1.0958561897277832,0.027440860867500305,0.0025372046511620283,1.0768896341323853,0.5046370625495911,0.017804991453886032,0.6651787161827087,1.1216611862182617,0.4979996681213379,0.08657374978065491,0.00043138451292179525,0.060485754162073135,0.6411752700805664,0.08536691218614578,0.1868179738521576,0.013444243930280209,0.6011056303977966,1.62235689163208,0.010995094664394855,0.010770333930850029,0.00013916700845584273,0.4237082898616791,0.006465485319495201,0.6365103721618652,0.03905537724494934,0.8737095594406128,0.061884455382823944,0.009513604454696178,0.015750452876091003,-0.878392219543457,-0.07942096143960953,-1.1218340396881104,-1.095851182937622,-0.02741183154284954,0.002524757292121649,1.0768839120864868,0.504624605178833,-0.017786340788006783,-0.6651423573493958,1.1120933294296265,-0.4979899823665619,-0.08653467893600464,0.00040575393359176815,0.04722242429852486,-0.6411253213882446,-0.08535598963499069,-0.18679170310497284,-0.013433627784252167,-0.6010847091674805,1.6101562976837158,-0.010967324487864971,0.010755782015621662,-0.0001175947836600244,0.41819843649864197,0.006449675653129816,-0.636475682258606,0.039047013968229294,-0.8736855387687683,-0.06187937781214714,-0.7696894407272339,-1.3506983518600464,-0.8365250825881958,-0.9332820177078247,-1.1666511297225952,-1.2453994750976562,-1.2487393617630005,0.9573209881782532,1.5687470436096191,1.6270816326141357,1.2999688386917114,1.2516611814498901,0.7177932858467102,-0.9276968836784363,-0.7935119867324829,-0.8824018836021423,-0.6960413455963135,1.0848556756973267,-1.1757822036743164,-0.8363499641418457,-1.0156927108764648,1.063355565071106,-0.7368459701538086,-0.5980849862098694,1.2258131504058838,1.6494693756103516,-0.9046266674995422,1.1332420110702515,1.4202736616134644,1.5733768939971924,-1.032841682434082,-0.43170058727264404
A05_LA_T_1439852.flac,0.014391843229532242,0.031548067927360535,0.09299618750810623,0.013957401737570763,0.042455319315195084,0.06803009659051895,0.04703497886657715,0.04164984077215195,0.07108545303344727,0.046371012926101685,0.01732189953327179,0.03583405539393425,1.8324706554412842,0.033019959926605225,0.0046399361453950405,0.007667295169085264,2.3736953735351562,0.041378188878297806,0.005553700495511293,1.9320158958435059,0.06577668339014053,1.7195254564285278,0.08045589178800583,0.1750115007162094,0.12508901953697205,1.8650121688842773,0.01981143280863762,0.03165425732731819,0.054841358214616776,0.019722651690244675,0.039053961634635925,0.03266773000359535,-0.01433307584375143,-0.0314897745847702,-0.09294886142015457,-0.013933619484305382,0.0424024723470211,-0.06792831420898438,0.046974871307611465,-0.04159728065133095,-0.07105676829814911,-0.04634637013077736,-0.017274275422096252,-0.035751499235630035,1.8263282775878906,0.032948609441518784,0.004601367749273777,0.007584554608911276,2.359372854232788,-0.04134669899940491,0.005533597432076931,1.9253346920013428,0.06574137508869171,1.7061288356781006,-0.08041861653327942,-0.17495055496692657,-0.12505267560482025,1.8587679862976074,0.01976119726896286,-0.03159944713115692,-0.05478446185588837,-0.019675470888614655,-0.03901895880699158,-0.0326397605240345,0.008960242383182049,0.013094526715576649,0.8753322958946228,0.0797448679804802,1.1091713905334473,1.092740535736084,0.021675385534763336,0.005225667729973793,1.0711746215820312,0.5061323642730713,0.018616918474435806,0.6631710529327393,1.0706782341003418,0.49240297079086304,0.09095866978168488,0.0030033504590392113,0.06454899907112122,0.6358386874198914,0.08652420341968536,0.18406535685062408,0.015922358259558678,0.5990280508995056,1.5879853963851929,0.009086154401302338,0.012204529717564583,0.0014543820871040225,0.3775748014450073,0.005451766774058342,0.6261012554168701,0.04312128946185112,0.8720673322677612,0.06805285811424255,0.00895316619426012,0.013078756630420685,-0.8711332678794861,-0.07973967492580414,-1.1054404973983765,-1.0920031070709229,-0.021653350442647934,0.005216903053224087,1.071169137954712,0.5061219930648804,-0.018600156530737877,-0.6631430983543396,1.062728762626648,-0.4923952519893646,-0.09092824906110764,0.0029855985194444656,0.053846001625061035,-0.6358017921447754,-0.08651548624038696,-0.18404309451580048,-0.0159134604036808,-0.5990132689476013,1.5777825117111206,-0.009064811281859875,0.012190701439976692,0.0014222031459212303,0.37284618616104126,0.005440849345177412,-0.6260760426521301,0.04311401769518852,-0.8720486760139465,-0.06804708391427994,-0.7083969712257385,-1.353082537651062,-0.8468056917190552,-0.896253228187561,-1.144147276878357,-1.235137939453125,-1.2509236335754395,0.9404398798942566,1.5316672325134277,1.6329681873321533,1.2840051651000977,1.2556068897247314,0.7100310325622559,-0.8917500376701355,-0.7907505035400391,-0.8663302063941956,-0.6440941095352173,1.0938763618469238,-1.1384754180908203,-0.8185305595397949,-1.0022046566009521,1.0410653352737427,-0.659741997718811,-0.5699572563171387,1.236131191253662,1.6281888484954834,-0.896458625793457,1.0940146446228027,1.4155222177505493,1.5899674892425537,-1.0720006227493286,-0.41245564818382263
