filename,0,1,2,3,4,5,6,7,8,9,10,11,12,13,14,15,16,17,18,19,20,21,22,23,24,25,26,27,28,29,30,31,32,33,34,35,36,37,38,39,40,41,42,43,44,45,46,47,48,49,50,51,52,53,54,55,56,57,58,59,60,61,62,63,64,65,66,67,68,69,70,71,72,73,74,75,76,77,78,79,80,81,82,83,84,85,86,87,88,89,90,91,92,93,94,95,96,97,98,99,100,101,102,103,104,105,106,107,108,109,110,111,112,113,114,115,116,117,118,119,120,121,122,123,124,125,126,127,128,129,130,131,132,133,134,135,136,137,138,139,140,141,142,143,144,145,146,147,148,149,150,151,152,153,154,155,156,157,158,159
A05_LA_T_3790682.flac,0.03376162052154541,0.01573711633682251,0.023079819977283478,0.6889853477478027,0.006710399873554707,0.3116876780986786,0.7211824655532837,0.4545709788799286,1.1916069984436035,0.5124491453170776,0.6059638857841492,0.7505789995193481,0.174305260181427,0.040986958891153336,0.828184962272644,0.6007305979728699,0.051128730177879333,0.12102475017309189,0.1974610984325409,0.5674763321876526,0.23972393572330475,0.16019012033939362,0.13542112708091736,0.9058008790016174,0.06220397353172302,0.8023887276649475,0.08229874074459076,1.037867784500122,0.3558419346809387,1.1972813606262207,0.08277017623186111,0.013815474696457386,-0.03317786008119583,0.014039982110261917,-0.02307955175638199,0.6820355653762817,-0.006710306741297245,0.31168749928474426,-0.7211824655532837,0.4545709192752838,1.191606879234314,-0.5119717121124268,0.6059638857841492,0.7440056204795837,-0.17387032508850098,0.04098692536354065,-0.8281848430633545,0.6007304191589355,0.05112847313284874,0.12102466821670532,-0.19746100902557373,0.5674761533737183,0.23972384631633759,0.16019010543823242,0.13542106747627258,0.9005668759346008,-0.062203921377658844,0.8004670143127441,0.08229869604110718,1.033896565437317,-0.3558417856693268,-1.1972812414169312,0.08277013897895813,-0.013815377838909626,0.09968644380569458,0.743277370929718,1.1974492073059082,1.065730333328247,0.6419621706008911,0.34303826093673706,0.20955872535705566,0.03762146830558777,0.5913240909576416,0.09250835329294205,0.1600503921508789,0.1820099949836731,0.6156876683235168,0.42329367995262146,0.08041130006313324,0.14738863706588745,0.18260732293128967,0.0923302173614502,0.09179747104644775,0.06963909417390823,0.05320984125137329,0.0335162878036499,0.30191248655319214,0.1438133865594864,0.2058102935552597,0.508109450340271,0.021576642990112305,0.8120108842849731,1.4030312299728394,1.1882826089859009,1.3287442922592163,1.1319756507873535,0.09935608506202698,-0.7432052493095398,-1.1972362995147705,-1.0654247999191284,0.6418139338493347,0.34283801913261414,-0.20939309895038605,-0.03744785115122795,-0.5911397337913513,0.09212863445281982,0.1597793847322464,0.18167424201965332,-0.6154137849807739,-0.42309093475341797,-0.08007336407899857,0.14729444682598114,0.18222244083881378,0.09213677048683167,-0.09168290346860886,0.06957018375396729,-0.05267155170440674,0.03289204090833664,-0.3012716770172119,0.14360453188419342,-0.20557843148708344,0.5074979066848755,0.021259456872940063,-0.811860978603363,-1.4029691219329834,-1.1881227493286133,1.3285754919052124,1.1317903995513916,0.1465219259262085,0.8227810859680176,1.133808970451355,-2.008251905441284,-1.9149527549743652,0.4275612235069275,1.2129900455474854,0.6554014086723328,0.7944372892379761,-1.179803729057312,-0.20767903327941895,-0.6474210023880005,-1.8866909742355347,-1.466253399848938,-1.0365041494369507,1.7060773372650146,-0.19110146164894104,-2.144918918609619,0.7034718990325928,0.6070343255996704,0.8776520490646362,1.4190280437469482,-1.5439581871032715,-1.5973076820373535,-1.8542523384094238,-0.4301571547985077,-1.819296956062317,-0.6497070789337158,-1.1457363367080688,0.632516086101532,0.808176577091217,-1.036101222038269
A05_LA_T_8669873.flac,0.037222445011138916,0.006949126720428467,0.025145992636680603,0.7233006358146667,0.0025911685079336166,0.3164878785610199,0.7472695708274841,0.44517436623573303,1.2288947105407715,0.5013521909713745,0.6166457533836365,0.8411877155303955,0.17215073108673096,0.05851319059729576,0.8391550779342651,0.605187714099884,0.05933820828795433,0.1421547532081604,0.234482079744339,0.5698557496070862,0.252075731754303,0.1514163613319397,0.10982701182365417,0.9270169734954834,0.07641282677650452,0.7888377904891968,0.08074163645505905,1.0775192975997925,0.37667855620384216,1.2081751823425293,0.0930987074971199,0.0015199632616713643,-0.03593524545431137,0.004722066223621368,-0.025145627558231354,0.7157029509544373,0.002590907970443368,0.31648755073547363,-0.7472695112228394,0.44517433643341064,1.2288947105407715,-0.49844151735305786,0.6166457533836365,0.8387293815612793,-0.16616469621658325,0.05851312726736069,-0.8391549587249756,0.6051876544952393,0.05933772772550583,0.14215467870235443,-0.2344820499420166,0.5698555111885071,0.252075731754303,0.1514163315296173,0.10982698947191238,0.922519862651825,-0.07641281187534332,0.7808855772018433,0.08074159920215607,1.0738844871520996,-0.3766782581806183,-1.2081751823425293,0.0930987000465393,-0.0015199310146272182,0.07997649908065796,0.7584580779075623,1.2050623893737793,1.0927865505218506,0.6512237191200256,0.3649170994758606,0.2180280089378357,0.032822757959365845,0.5924837589263916,0.08731169998645782,0.16636067628860474,0.16862112283706665,0.6246693134307861,0.42215025424957275,0.047903239727020264,0.16141772270202637,0.18288874626159668,0.11854752898216248,0.1076093316078186,0.024743586778640747,0.04412776231765747,0.011485487222671509,0.30951184034347534,0.13881772756576538,0.2038847953081131,0.4908542335033417,0.026698440313339233,0.8525776863098145,1.4083209037780762,1.1871730089187622,1.3393080234527588,1.1533089876174927,0.0796017274260521,-0.7583920955657959,-1.2048168182373047,-1.0924731492996216,0.6510714888572693,0.36466023325920105,-0.2178564816713333,-0.03263175114989281,-0.59227055311203,0.08696310967206955,0.16604313254356384,0.16818681359291077,-0.6243219375610352,-0.42190080881118774,-0.047480374574661255,0.16132715344429016,0.18248751759529114,0.1183481365442276,-0.10749202221632004,0.02466893009841442,-0.04355369880795479,0.010821965523064137,-0.3088175356388092,0.13860519230365753,-0.20365600287914276,0.49006175994873047,0.02639349177479744,-0.8524202704429626,-1.408257007598877,-1.1870330572128296,1.3391045331954956,1.153084635734558,0.15016746520996094,0.8417911529541016,1.1571674346923828,-2.0775794982910156,-1.9772372245788574,0.4107986390590668,1.2324459552764893,0.6423393487930298,0.8071743249893188,-1.235952615737915,-0.23555731773376465,-0.6314774751663208,-1.8680083751678467,-1.4945961236953735,-1.0258288383483887,1.6938161849975586,-0.18769043684005737,-2.150095224380493,0.6461134552955627,0.5834419131278992,0.8333081007003784,1.4341228008270264,-1.559063196182251,-1.5659534931182861,-1.91048002243042,-0.43816590309143066,-1.8439191579818726,-0.6319372653961182,-1.1747832298278809,0.6874314546585083,0.7928460240364075,-1.0706745386123657
A05_LA_T_8985991.flac,0.03721439838409424,0.007082164287567139,0.010585612617433071,0.7191529273986816,0.0004140753881074488,0.3172183334827423,0.7443138957023621,0.44357722997665405,1.2269734144210815,0.501020073890686,0.6167237758636475,0.8257737159729004,0.1782475709915161,0.06744986027479172,0.8365678191184998,0.6154285669326782,0.05222219601273537,0.140115424990654,0.21123671531677246,0.5757900476455688,0.2498812973499298,0.14657823741436005,0.11906073987483978,0.9231597185134888,0.08397933095693588,0.7900200486183167,0.08268760144710541,1.0796353816986084,0.3724558651447296,1.20731782913208,0.09227153658866882,0.00224840035662055,-0.036100275814533234,0.004020117223262787,-0.010585357435047626,0.7083238959312439,0.00041392719140276313,0.317218154668808,-0.7443138360977173,0.4435771703720093,1.226973295211792,-0.49921101331710815,0.6167237162590027,0.8227161169052124,-0.17606480419635773,0.06744983792304993,-0.836567759513855,0.6154284477233887,0.05222196877002716,0.14011536538600922,-0.21123665571212769,0.5757899284362793,0.24988119304180145,0.14657814800739288,0.11906066536903381,0.9184321761131287,-0.0839792862534523,0.7775545120239258,0.08268757909536362,1.07573401927948,-0.3724557161331177,-1.20731782913208,0.09227148443460464,-0.002248296979814768,0.0802001953125,0.753970205783844,1.215846061706543,1.088782787322998,0.6540851593017578,0.3582088351249695,0.21684706211090088,0.028115302324295044,0.6002551913261414,0.0926465392112732,0.1618098020553589,0.16744963824748993,0.6257190704345703,0.42705708742141724,0.05360053479671478,0.15750741958618164,0.17851552367210388,0.1140337586402893,0.10753041505813599,0.036202382296323776,0.050653815269470215,0.015168845653533936,0.31340306997299194,0.13647840917110443,0.2141208052635193,0.49849697947502136,0.029050201177597046,0.8488187789916992,1.405761957168579,1.1941581964492798,1.3305870294570923,1.1495460271835327,0.07984212785959244,-0.753908097743988,-1.2156027555465698,-1.0884628295898438,0.6539399027824402,0.35796380043029785,-0.21667948365211487,-0.027933580800890923,-0.6000633239746094,0.09226752072572708,0.16151438653469086,0.16711024940013885,-0.6253863573074341,-0.4268049895763397,-0.05319485813379288,0.1574125587940216,0.17813542485237122,0.1138327345252037,-0.10741907358169556,0.0361182801425457,-0.05009256675839424,0.014527007937431335,-0.3127090632915497,0.13627293705940247,-0.21390461921691895,0.49775487184524536,0.028737982735037804,-0.8486661911010742,-1.4057024717330933,-1.19400954246521,1.3303890228271484,1.1493462324142456,0.15196943283081055,0.8520343899726868,1.1378493309020996,-2.061866283416748,-1.955946922302246,0.43300992250442505,1.2355029582977295,0.6352824568748474,0.8067919611930847,-1.231987714767456,-0.2104923129081726,-0.6414926648139954,-1.8835700750350952,-1.472724437713623,-1.0375640392303467,1.709827184677124,-0.19755223393440247,-2.1648025512695312,0.6620647311210632,0.5886179804801941,0.8474687337875366,1.4120113849639893,-1.5687108039855957,-1.5747429132461548,-1.923860788345337,-0.4090794324874878,-1.8398103713989258,-0.6410123109817505,-1.1496508121490479,0.6732284426689148,0.806357204914093,-1.0548945665359497
A05_LA_T_3434954.flac,0.044088661670684814,0.0036585330963134766,0.014231895096600056,0.7269818782806396,0.0031885073985904455,0.3134746849536896,0.7496683597564697,0.4419116675853729,1.2330454587936401,0.5008069276809692,0.6173986196517944,0.8531899452209473,0.1738346815109253,0.06753834336996078,0.8383559584617615,0.6110237836837769,0.05837472155690193,0.14454181492328644,0.22682245075702667,0.5785197615623474,0.2547060549259186,0.1469527930021286,0.11595554649829865,0.9307518005371094,0.08020374923944473,0.7830369472503662,0.08104366809129715,1.0885642766952515,0.3816702365875244,1.2104474306106567,0.09339335560798645,0.004024817142635584,-0.04353469982743263,0.0016257651150226593,-0.014231792651116848,0.7181118726730347,0.0031884382478892803,0.3134746253490448,-0.749668300151825,0.44191160798072815,1.2330454587936401,-0.49888110160827637,0.6173985600471497,0.8481590747833252,-0.17192868888378143,0.067538321018219,-0.8383558988571167,0.6110236644744873,0.05837460607290268,0.14454177021980286,-0.2268223762512207,0.5785197019577026,0.2547059953212738,0.14695274829864502,0.11595550179481506,0.9291390180587769,-0.08020369708538055,0.7769759893417358,0.08104364573955536,1.085618019104004,-0.38167017698287964,-1.2104473114013672,0.09339331090450287,0.004024749621748924,0.0740816593170166,0.7606742978096008,1.2166919708251953,1.0976287126541138,0.6574203968048096,0.3640361428260803,0.22414380311965942,0.02677023410797119,0.6019437313079834,0.08737631142139435,0.16320234537124634,0.16515833139419556,0.6278050541877747,0.4226022958755493,0.045356497168540955,0.16107177734375,0.1778116673231125,0.11648565530776978,0.1116863489151001,0.014850355684757233,0.04873037338256836,0.01360166072845459,0.31858211755752563,0.13413603603839874,0.2070349007844925,0.49817466735839844,0.02549995481967926,0.8598345518112183,1.4114325046539307,1.19295072555542,1.3391594886779785,1.1530072689056396,0.07372769713401794,-0.7606115341186523,-1.216450810432434,-1.0973304510116577,0.6572768092155457,0.3637862503528595,-0.22398562729358673,-0.02658553421497345,-0.6017487049102783,0.08702943474054337,0.16288241744041443,0.1647544652223587,-0.627454936504364,-0.4223611354827881,-0.04493508115410805,0.16098369657993317,0.17741943895816803,0.11629233509302139,-0.11157281696796417,0.014774280600249767,-0.04819336161017418,0.012978431768715382,-0.31787604093551636,0.13392628729343414,-0.20680926740169525,0.4973882734775543,0.025209221988916397,-0.8596876263618469,-1.4113731384277344,-1.1928150653839111,1.3389662504196167,1.152793288230896,0.1492130160331726,0.8599984645843506,1.150147557258606,-2.0941555500030518,-1.980439305305481,0.41907185316085815,1.245241641998291,0.6248811483383179,0.8248675465583801,-1.2472903728485107,-0.2255558967590332,-0.6314975619316101,-1.890679121017456,-1.499274730682373,-1.042085886001587,1.7046303749084473,-0.19871428608894348,-2.1779611110687256,0.6450406312942505,0.5805983543395996,0.8371566534042358,1.4334890842437744,-1.5838936567306519,-1.5699591636657715,-1.9197494983673096,-0.4166821241378784,-1.8542225360870361,-0.6337030529975891,-1.1591583490371704,0.698921263217926,0.7975547313690186,-1.0836427211761475
A05_LA_T_5632173.flac,0.05254274606704712,0.014640092849731445,0.023584352806210518,0.6855136156082153,0.00435026828199625,0.318707674741745,0.7236421704292297,0.43300938606262207,1.1964991092681885,0.49326300621032715,0.6096567511558533,0.8160373568534851,0.17429429292678833,0.041814059019088745,0.8303285837173462,0.5762817859649658,0.06757304072380066,0.15642577409744263,0.26864737272262573,0.5656828880310059,0.2553114891052246,0.1333698332309723,0.11370623856782913,0.9079046249389648,0.1055372804403305,0.7380551695823669,0.07723113894462585,1.056938648223877,0.3995122015476227,1.2049058675765991,0.0856986939907074,0.013414288870990276,-0.05134885758161545,-0.011842936277389526,-0.02358408272266388,0.6779859662055969,0.004350136965513229,0.31870749592781067,-0.7236421704292297,0.4330093562602997,1.1964988708496094,-0.49190181493759155,0.609656572341919,0.8105529546737671,-0.17176714539527893,0.041814014315605164,-0.8303284645080566,0.5762816667556763,0.06757280975580215,0.15642569959163666,-0.26864731311798096,0.5656827688217163,0.25531139969825745,0.13336977362632751,0.11370615661144257,0.9058718681335449,-0.10553723573684692,0.7325471639633179,0.07723110914230347,1.0523412227630615,-0.39951205253601074,-1.2049057483673096,0.08569863438606262,0.013414181768894196,0.06894838809967041,0.7326899170875549,1.205308437347412,1.0946831703186035,0.6422552466392517,0.3642567992210388,0.23177441954612732,0.022985756397247314,0.5757012367248535,0.07611850649118423,0.16075360774993896,0.1615576595067978,0.6172298789024353,0.43995171785354614,0.03874354064464569,0.15282857418060303,0.1649179905653,0.11935865879058838,0.09367150068283081,0.002701256424188614,0.05593264102935791,0.0027480721473693848,0.31393587589263916,0.11703477799892426,0.20819570124149323,0.49561506509780884,0.027945131063461304,0.8110724091529846,1.3730113506317139,1.1644076108932495,1.3120224475860596,1.1307308673858643,0.06857363879680634,-0.7326228022575378,-1.2050739526748657,-1.0943683385849,0.6421069502830505,0.363942950963974,-0.23161529004573822,-0.022791950032114983,-0.5754746198654175,0.07578177005052567,0.16042107343673706,0.16122686862945557,-0.6168698072433472,-0.4397197663784027,-0.03831042721867561,0.1527451127767563,0.1645135134458542,0.11915934085845947,-0.0935528576374054,0.0026340263430029154,-0.05537649989128113,0.0021274567116051912,-0.3132169544696808,0.11680378019809723,-0.207972913980484,0.4947878420352936,0.027598369866609573,-0.810910165309906,-1.3729476928710938,-1.1642787456512451,1.3118222951889038,1.1305183172225952,0.14987683296203613,0.8548107743263245,1.0927194356918335,-2.067474842071533,-1.9801905155181885,0.39200785756111145,1.1940443515777588,0.6149101257324219,0.7831622362136841,-1.251055359840393,-0.21269798278808594,-0.6268276572227478,-1.836543321609497,-1.447830319404602,-1.0387775897979736,1.6587564945220947,-0.21368104219436646,-2.134093761444092,0.6442149877548218,0.5584499835968018,0.8224902153015137,1.4175355434417725,-1.5387787818908691,-1.5043151378631592,-1.8778855800628662,-0.4213998317718506,-1.8394217491149902,-0.6265316009521484,-1.1627777814865112,0.7014479041099548,0.7472379207611084,-1.065688133239746
A05_LA_T_6588082.flac,0.036035895347595215,0.007457315921783447,0.020563075318932533,0.7302514314651489,0.002464898629114032,0.3155791163444519,0.7477676272392273,0.4467477798461914,1.230147123336792,0.5023566484451294,0.6159071922302246,0.8435341119766235,0.17303907871246338,0.0581805557012558,0.8367314338684082,0.610953152179718,0.06077703833580017,0.13997195661067963,0.21739721298217773,0.5730364322662354,0.2527099549770355,0.1554834246635437,0.11401040107011795,0.9280445575714111,0.06820257753133774,0.798511266708374,0.07943065464496613,1.0832831859588623,0.37377408146858215,1.2088449001312256,0.09356918931007385,0.0003243527316953987,-0.0340658500790596,0.005095303058624268,-0.020562786608934402,0.7214722633361816,0.002464713528752327,0.3155788779258728,-0.7477675676345825,0.44674772024154663,1.230147123336792,-0.49851346015930176,0.6159071326255798,0.8359085917472839,-0.17047546803951263,0.058180518448352814,-0.8367313742637634,0.6109530925750732,0.06077670678496361,0.13997188210487366,-0.21739718317985535,0.5730363130569458,0.25270989537239075,0.1554834097623825,0.11401035636663437,0.9234249591827393,-0.06820255517959595,0.7874630689620972,0.07943062484264374,1.079642653465271,-0.37377387285232544,-1.208844780921936,0.09356914460659027,0.00032418977934867144,0.07994157075881958,0.7616254091262817,1.2161957025527954,1.0914409160614014,0.6537415385246277,0.360118567943573,0.2152196168899536,0.03668549656867981,0.5984110832214355,0.08709988743066788,0.1641448736190796,0.16872017085552216,0.6290581822395325,0.4265162944793701,0.054076701402664185,0.15946918725967407,0.1752362698316574,0.1164945662021637,0.11324745416641235,0.03162391856312752,0.04636615514755249,0.016100943088531494,0.3062517046928406,0.13599656522274017,0.2044401317834854,0.4932257831096649,0.026251301169395447,0.8545542359352112,1.4094411134719849,1.1872591972351074,1.3398975133895874,1.1512537002563477,0.07959660142660141,-0.7615599036216736,-1.2159595489501953,-1.0911451578140259,0.6535968780517578,0.35989466309547424,-0.21505795419216156,-0.03650135546922684,-0.5982162356376648,0.08674579113721848,0.16384370625019073,0.16838781535625458,-0.6287304162979126,-0.4262809753417969,-0.053678419440984726,0.15937690436840057,0.17484033107757568,0.11629674583673477,-0.1131322905421257,0.03154594451189041,-0.04582681134343147,0.015473604202270508,-0.30556604266166687,0.1357828825712204,-0.2042091190814972,0.49248751997947693,0.02596413902938366,-0.8544062972068787,-1.409380555152893,-1.1871169805526733,1.339705467224121,1.1510435342788696,0.15158891677856445,0.8406922817230225,1.1584488153457642,-2.0743913650512695,-1.9708722829818726,0.4216960072517395,1.247887134552002,0.646106481552124,0.8092795610427856,-1.224564552307129,-0.22812670469284058,-0.6414004564285278,-1.8800565004348755,-1.5041663646697998,-1.0326783657073975,1.6969447135925293,-0.18418121337890625,-2.1518678665161133,0.6570430397987366,0.5937689542770386,0.8371987342834473,1.4341129064559937,-1.5637848377227783,-1.5760453939437866,-1.9229042530059814,-0.42834579944610596,-1.8477611541748047,-0.6341292858123779,-1.155672311782837,0.681830644607544,0.817261278629303,-1.066131830215454
A05_LA_T_2836711.flac,0.04000610113143921,0.022222816944122314,0.0038759007584303617,0.7240191698074341,0.0038620484992861748,0.3159966468811035,0.7377371788024902,0.45822468400001526,1.2234731912612915,0.5134202241897583,0.6172756552696228,0.8060119152069092,0.1740626096725464,0.06508395075798035,0.8366552591323853,0.6323983073234558,0.06649608910083771,0.1315576583147049,0.17960834503173828,0.5838801264762878,0.24697543680667877,0.16255664825439453,0.13563069701194763,0.9194902181625366,0.06505389511585236,0.8307709097862244,0.07724941521883011,1.0883448123931885,0.36945897340774536,1.210029125213623,0.09477324783802032,0.007055219728499651,-0.03989863023161888,0.021020308136940002,-0.0038756306748837233,0.7207642793655396,-0.003861973760649562,0.3159964382648468,-0.7377371788024902,0.45822465419769287,1.223473072052002,-0.5133646726608276,0.6172756552696228,0.8026129007339478,-0.17383085191249847,0.06508390605449677,-0.8366551399230957,0.6323981881141663,0.06649581342935562,0.13155759871006012,-0.1796082854270935,0.5838799476623535,0.2469753473997116,0.16255661845207214,0.13563063740730286,0.918228805065155,-0.06505385786294937,0.8295608758926392,0.07724938541650772,1.0867646932601929,-0.3694588243961334,-1.2100290060043335,0.09477317333221436,-0.007055141497403383,0.08358979225158691,0.7671515941619873,1.2385203838348389,1.091862440109253,0.6581755876541138,0.347829133272171,0.21473544836044312,0.03814053535461426,0.6220696568489075,0.08229654282331467,0.150881826877594,0.17186835408210754,0.6291950345039368,0.4111104905605316,0.061937764286994934,0.15294647216796875,0.17057353258132935,0.11285904049873352,0.11264258623123169,0.06324189156293869,0.05790448188781738,0.034991681575775146,0.3043222427368164,0.14112024009227753,0.21570365130901337,0.5186786651611328,0.027713239192962646,0.8525553941726685,1.4249273538589478,1.2081552743911743,1.3422801494598389,1.1478230953216553,0.0832744687795639,-0.7670865058898926,-1.2383002042770386,-1.0915839672088623,0.6580390930175781,0.34763774275779724,-0.214585542678833,-0.03797252103686333,-0.6218885779380798,0.08194392919540405,0.15061019361019135,0.17153429985046387,-0.6288930177688599,-0.41090041399002075,-0.06156858801841736,0.1528594046831131,0.1702050417661667,0.11267230659723282,-0.11253559589385986,0.06318424642086029,-0.0574045293033123,0.034397657960653305,-0.3036978244781494,0.1409231275320053,-0.21548281610012054,0.5180136561393738,0.027421969920396805,-0.8524195551872253,-1.4248710870742798,-1.2080134153366089,1.342112421989441,1.1476298570632935,0.1425732970237732,0.8507983088493347,1.156156301498413,-2.0607686042785645,-1.9548180103302002,0.4686264395713806,1.2527213096618652,0.6478608846664429,0.8100748658180237,-1.204695224761963,-0.20888584852218628,-0.6668453812599182,-1.9282070398330688,-1.5187697410583496,-1.0598560571670532,1.7252860069274902,-0.17987951636314392,-2.16520357131958,0.6872825026512146,0.6120046973228455,0.8702858686447144,1.4332551956176758,-1.6043556928634644,-1.6208388805389404,-1.930182933807373,-0.43559545278549194,-1.853015422821045,-0.6556403040885925,-1.1292152404785156,0.6648980379104614,0.8516431450843811,-1.055433750152588
A05_LA_T_3881273.flac,0.03920072317123413,0.0028510689735412598,0.03630300983786583,0.6809889078140259,0.00451688002794981,0.32328641414642334,0.7281620502471924,0.43040114641189575,1.1979761123657227,0.46986037492752075,0.6074786186218262,0.8250763416290283,0.17697209119796753,0.03701098635792732,0.8315045237541199,0.5653574466705322,0.06128137186169624,0.15471825003623962,0.2853376865386963,0.5495288372039795,0.2489815652370453,0.13499018549919128,0.0962488129734993,0.905692458152771,0.10910210758447647,0.712374210357666,0.07873609662055969,1.036389946937561,0.39043253660202026,1.1997476816177368,0.08435419201850891,0.00394012127071619,-0.03858976066112518,0.00020989030599594116,-0.03630255162715912,0.6693113446235657,0.0045165978372097015,0.3232860565185547,-0.7281620502471924,0.4304010570049286,1.197975993156433,-0.46721386909484863,0.6074785590171814,0.8181912302970886,-0.16915416717529297,0.03701096028089523,-0.8315044641494751,0.5653573274612427,0.06128077581524849,0.15471822023391724,-0.2853376269340515,0.5495284795761108,0.24898147583007812,0.1349901556968689,0.09624873101711273,0.9033030867576599,-0.1091020479798317,0.7049524188041687,0.0787360668182373,1.0312858819961548,-0.3904322385787964,-1.1997475624084473,0.08435416966676712,0.003939772956073284,0.07465076446533203,0.716427206993103,1.1895663738250732,1.08390212059021,0.6331315636634827,0.37218397855758667,0.22399789094924927,0.036293208599090576,0.5534403324127197,0.0977558046579361,0.16928166151046753,0.16693058609962463,0.6156166195869446,0.42875367403030396,0.030772730708122253,0.1496407389640808,0.17626450955867767,0.12984806299209595,0.08854985237121582,0.017098184674978256,0.06130856275558472,0.002010256052017212,0.30953437089920044,0.13311657309532166,0.2133188545703888,0.47462207078933716,0.031274497509002686,0.8162741661071777,1.3517284393310547,1.1550606489181519,1.3031953573226929,1.134940266609192,0.07418576627969742,-0.7163520455360413,-1.1892699003219604,-1.0835105180740356,0.6329261064529419,0.3717869222164154,-0.22378408908843994,-0.03606286272406578,-0.5531647205352783,0.0973384752869606,0.1689082235097885,0.16642187535762787,-0.6151873469352722,-0.4284213185310364,-0.030246293172240257,0.14952954649925232,0.1757737249135971,0.1296096295118332,-0.08841373771429062,0.01702019013464451,-0.06059732660651207,0.0012331604957580566,-0.3086111545562744,0.13282319903373718,-0.21308521926403046,0.4736272394657135,0.0308570247143507,-0.8160538077354431,-1.3516461849212646,-1.1549103260040283,1.3029335737228394,1.1347025632858276,0.15421169996261597,0.810231626033783,1.0814800262451172,-2.0132107734680176,-1.9443618059158325,0.38854944705963135,1.1728901863098145,0.6021592617034912,0.7394756078720093,-1.2456228733062744,-0.23143881559371948,-0.6206529140472412,-1.7611827850341797,-1.4003039598464966,-1.0056357383728027,1.6450238227844238,-0.16423076391220093,-2.1122794151306152,0.6268343329429626,0.559766948223114,0.7826915979385376,1.4231255054473877,-1.4843676090240479,-1.4453229904174805,-1.8149642944335938,-0.43323150277137756,-1.7904090881347656,-0.5972625017166138,-1.176836609840393,0.662347674369812,0.7319873571395874,-1.0485732555389404
A05_LA_T_6883605.flac,0.04876774549484253,0.01608431339263916,0.02475416660308838,0.7319405674934387,0.002275566104799509,0.3126530349254608,0.7555334568023682,0.44230917096138,1.2324843406677246,0.496505469083786,0.6152589321136475,0.8618104457855225,0.17853641510009766,0.07376980781555176,0.8411427140235901,0.6150163412094116,0.06365365535020828,0.13932320475578308,0.23087014257907867,0.5779228210449219,0.2526460587978363,0.14997869729995728,0.11337689310312271,0.9318239688873291,0.0812980905175209,0.7936925292015076,0.0785689726471901,1.091201901435852,0.3871074318885803,1.2114235162734985,0.08965490013360977,0.0033909326884895563,-0.04842688515782356,0.01412004604935646,-0.024753566831350327,0.7240405082702637,0.002275161212310195,0.31265249848365784,-0.7555334568023682,0.4423091411590576,1.232484221458435,-0.4945884048938751,0.6152588129043579,0.8550864458084106,-0.1710747331380844,0.07376973330974579,-0.8411426544189453,0.6150162220001221,0.06365291774272919,0.1393231451511383,-0.2308700978755951,0.577922523021698,0.25264599919319153,0.14997869729995728,0.11337684839963913,0.927259087562561,-0.08129807561635971,0.7890352010726929,0.0785689502954483,1.0890734195709229,-0.3871069550514221,-1.211423397064209,0.089654840528965,0.003390562953427434,0.0691215991973877,0.7589551210403442,1.2216793298721313,1.0957978963851929,0.6573889851570129,0.37320446968078613,0.22213679552078247,0.03821071982383728,0.601414680480957,0.08914227783679962,0.1629796028137207,0.16702857613563538,0.6212964057922363,0.40282025933265686,0.03673918545246124,0.1606593132019043,0.18549129366874695,0.12027624249458313,0.10758906602859497,0.02554468810558319,0.053373873233795166,0.020494937896728516,0.3176881670951843,0.14416170120239258,0.20875008404254913,0.4993664026260376,0.026720702648162842,0.8595973253250122,1.4113092422485352,1.2012990713119507,1.3377470970153809,1.1537940502166748,0.06872570514678955,-0.7588901519775391,-1.2214206457138062,-1.0954840183258057,0.6572231650352478,0.37291327118873596,-0.22196204960346222,-0.03801775723695755,-0.6012076139450073,0.08878704160451889,0.16263876855373383,0.16657035052776337,-0.6209155321121216,-0.40254804491996765,-0.03628332167863846,0.16056311130523682,0.18509604036808014,0.12007182091474533,-0.10747214406728745,0.025468308478593826,-0.05279909446835518,0.019814062863588333,-0.3169299066066742,0.14394131302833557,-0.20852747559547424,0.4985058903694153,0.026417529210448265,-0.8594333529472351,-1.4112449884414673,-1.2011597156524658,1.3375376462936401,1.1535708904266357,0.14243781566619873,0.851485013961792,1.1525251865386963,-2.0839486122131348,-1.9692738056182861,0.42760273814201355,1.2375668287277222,0.6172788143157959,0.8130713701248169,-1.250051736831665,-0.23853808641433716,-0.631100058555603,-1.8767204284667969,-1.4935626983642578,-1.0333423614501953,1.7015469074249268,-0.1703549027442932,-2.1619672775268555,0.6437053680419922,0.5725497007369995,0.8238658905029297,1.4482407569885254,-1.587852954864502,-1.5456624031066895,-1.90095055103302,-0.4341680705547333,-1.844363808631897,-0.6209548115730286,-1.1621242761611938,0.6891071796417236,0.7887017130851746,-1.0579431056976318
A05_LA_T_5035004.flac,0.031695425510406494,0.007913827896118164,0.04508277401328087,0.7029985189437866,0.004679774399846792,0.31686970591545105,0.7449575066566467,0.4436832368373871,1.211811900138855,0.4985554814338684,0.6138783097267151,0.808030366897583,0.17328792810440063,0.043084148317575455,0.8318214416503906,0.5939057469367981,0.05729447305202484,0.13312950730323792,0.23306582868099213,0.5663636922836304,0.2519367039203644,0.1577194333076477,0.10547815263271332,0.9251303672790527,0.06475097686052322,0.7961564660072327,0.08314834535121918,1.061436653137207,0.368044376373291,1.2037339210510254,0.08573279529809952,0.004712623078376055,-0.029612231999635696,0.006345987319946289,-0.045082513242959976,0.6966228485107422,0.004679602570831776,0.3168695271015167,-0.744957447052002,0.4436832070350647,1.211811900138855,-0.4967591166496277,0.6138781309127808,0.8029377460479736,-0.16890135407447815,0.04308409243822098,-0.8318213224411011,0.5939056873321533,0.05729421228170395,0.13312946259975433,-0.23306579887866974,0.5663635730743408,0.2519366443157196,0.15771938860416412,0.10547811537981033,0.9208742380142212,-0.06475094705820084,0.7913252115249634,0.08314830809831619,1.0545799732208252,-0.36804428696632385,-1.2037339210510254,0.08573275804519653,0.004712509922683239,0.09259027242660522,0.747502326965332,1.2186371088027954,1.0910451412200928,0.6502293944358826,0.36296480894088745,0.2041066288948059,0.03607583045959473,0.5918585062026978,0.08962696045637131,0.16108691692352295,0.17482544481754303,0.6262146234512329,0.42580923438072205,0.07468533515930176,0.1487363576889038,0.17838293313980103,0.11051750183105469,0.10596907138824463,0.043852340430021286,0.06291097402572632,0.028955072164535522,0.3063623905181885,0.13953444361686707,0.20620647072792053,0.49372920393943787,0.01900768280029297,0.830608606338501,1.3964860439300537,1.1802974939346313,1.3372753858566284,1.1398208141326904,0.0922531709074974,-0.7474318146705627,-1.2184011936187744,-1.0907479524612427,0.650073230266571,0.36274343729019165,-0.20393982529640198,-0.035897087305784225,-0.5916743278503418,0.08925266563892365,0.16079972684383392,0.17450028657913208,-0.6258956789970398,-0.4255836606025696,-0.07429536432027817,0.14863915741443634,0.17799194157123566,0.11032254993915558,-0.10585486888885498,0.04378264769911766,-0.06237351521849632,0.028322461992502213,-0.30571332573890686,0.13932691514492035,-0.20597656071186066,0.493026465177536,0.018704330548644066,-0.8304536938667297,-1.396423101425171,-1.1801458597183228,1.3370933532714844,1.1396286487579346,0.1620447039604187,0.8174903988838196,1.135868787765503,-2.035851001739502,-1.9557558298110962,0.4418104290962219,1.2232604026794434,0.6509352922439575,0.7868889570236206,-1.2226133346557617,-0.21012872457504272,-0.6628461480140686,-1.8614585399627686,-1.4845683574676514,-1.026608943939209,1.6852235794067383,-0.18432742357254028,-2.13813853263855,0.6756407618522644,0.600852906703949,0.8561110496520996,1.438755989074707,-1.547964096069336,-1.572937250137329,-1.8726997375488281,-0.4384414851665497,-1.846632719039917,-0.6366225481033325,-1.1379005908966064,0.6513249278068542,0.806729793548584,-1.0395214557647705
A05_LA_T_9819685.flac,0.0323023796081543,0.005186140537261963,0.022158782929182053,0.7218639850616455,0.002888444112613797,0.31552422046661377,0.7493079900741577,0.44185692071914673,1.2297897338867188,0.49423426389694214,0.6132999062538147,0.846217155456543,0.17488878965377808,0.05712796747684479,0.8345730304718018,0.6045738458633423,0.05463308095932007,0.1411549150943756,0.2213153839111328,0.5683894753456116,0.25281140208244324,0.15168507397174835,0.10861046612262726,0.9252498745918274,0.07017571479082108,0.7817984819412231,0.0804164782166481,1.0730576515197754,0.37191087007522583,1.206551194190979,0.09233704209327698,0.001614670385606587,-0.030729543417692184,0.0009369142353534698,-0.02215871773660183,0.7155923843383789,0.002888395683839917,0.315524160861969,-0.7493079304695129,0.44185686111450195,1.2297897338867188,-0.4930327236652374,0.6132998466491699,0.839981198310852,-0.17198066413402557,0.05712790787220001,-0.8345730304718018,0.6045737266540527,0.05463298037648201,0.14115485548973083,-0.22131535410881042,0.5683894157409668,0.25281137228012085,0.15168502926826477,0.10861042141914368,0.9228082895278931,-0.0701756551861763,0.7695748805999756,0.08041644096374512,1.0717179775238037,-0.37191084027290344,-1.2065510749816895,0.0923369973897934,0.0016146115958690643,0.08006572723388672,0.7541541457176208,1.2085740566253662,1.085227370262146,0.6504143476486206,0.3625524640083313,0.21091610193252563,0.036653101444244385,0.5883798599243164,0.09287363290786743,0.1697729229927063,0.16800490021705627,0.6287399530410767,0.4349139332771301,0.05446060001850128,0.1614782214164734,0.17848937213420868,0.11339455842971802,0.11144828796386719,0.022907081991434097,0.04507625102996826,0.010829538106918335,0.30702078342437744,0.13390791416168213,0.2019685059785843,0.4836401343345642,0.025207102298736572,0.8480399250984192,1.3986742496490479,1.1786764860153198,1.3333051204681396,1.1490771770477295,0.07969427108764648,-0.7540852427482605,-1.208316683769226,-1.0849043130874634,0.6502549052238464,0.362302303314209,-0.2107388824224472,-0.036455050110816956,-0.5881690382957458,0.09249170869588852,0.1694594919681549,0.16764798760414124,-0.6283945441246033,-0.4346541464328766,-0.05403585359454155,0.16137884557247162,0.17805850505828857,0.11318320035934448,-0.11132746189832687,0.02282540313899517,-0.04449477419257164,0.010156894102692604,-0.30626359581947327,0.1336762011051178,-0.2017221301794052,0.4828587472438812,0.024890830740332603,-0.8478760123252869,-1.3986085653305054,-1.178525686264038,1.3330934047698975,1.148863434791565,0.15388917922973633,0.8338117003440857,1.1496304273605347,-2.0626790523529053,-1.9614450931549072,0.4113317131996155,1.2424430847167969,0.6431955099105835,0.8073351383209229,-1.227967619895935,-0.2258824110031128,-0.6334461569786072,-1.8626599311828613,-1.4831476211547852,-1.0194545984268188,1.68723726272583,-0.186151385307312,-2.144414186477661,0.6550900936126709,0.5877575874328613,0.8248611688613892,1.4253484010696411,-1.5409764051437378,-1.5574581623077393,-1.9104487895965576,-0.4149315357208252,-1.8380513191223145,-0.6238658428192139,-1.1521981954574585,0.6781495809555054,0.8010917901992798,-1.0521706342697144
A05_LA_T_3505735.flac,0.04924023151397705,0.00592881441116333,0.017293989658355713,0.6964000463485718,0.0023050131276249886,0.3231368362903595,0.7240215539932251,0.43682870268821716,1.2047678232192993,0.4914659857749939,0.6118918061256409,0.8160421252250671,0.1762649416923523,0.042401272803545,0.8338288068771362,0.5828037261962891,0.06507229804992676,0.15581396222114563,0.2587890028953552,0.5617806911468506,0.25163930654525757,0.13969099521636963,0.1122107282280922,0.9099010229110718,0.10544651001691818,0.7481223344802856,0.07708409428596497,1.0584913492202759,0.3889188766479492,1.205038070678711,0.09073702991008759,0.002722856355831027,-0.04817056283354759,-0.0044330209493637085,-0.01729360595345497,0.6780908703804016,0.00230476469732821,0.323136568069458,-0.7240214943885803,0.4368286430835724,1.2047674655914307,-0.4894357919692993,0.6118917465209961,0.8071995973587036,-0.17035207152366638,0.042401231825351715,-0.8338285684585571,0.58280348777771,0.06507186591625214,0.15581384301185608,-0.2587888240814209,0.5617804527282715,0.25163912773132324,0.13969096541404724,0.11221057921648026,0.9064056873321533,-0.10544642806053162,0.7369499206542969,0.07708398997783661,1.052394151687622,-0.3889186382293701,-1.2050378322601318,0.090736985206604,0.0027226037345826626,0.07349216938018799,0.7367933392524719,1.1988221406936646,1.0925078392028809,0.6401647329330444,0.36287742853164673,0.23229241371154785,0.023759692907333374,0.5785692930221558,0.08319588750600815,0.16061580181121826,0.16384419798851013,0.6166740655899048,0.4292420744895935,0.03844103217124939,0.15177428722381592,0.1672324538230896,0.12314212322235107,0.09452837705612183,0.01708180643618107,0.05559653043746948,0.0016083121299743652,0.3121362030506134,0.1269272267818451,0.21306675672531128,0.4933120012283325,0.03240966796875,0.8230266571044922,1.380293369293213,1.1714293956756592,1.316692590713501,1.1360151767730713,0.0731038749217987,-0.7367262244224548,-1.198581337928772,-1.0921826362609863,0.640015721321106,0.36256733536720276,-0.23212368786334991,-0.02356283739209175,-0.578338086605072,0.08286552876234055,0.16029007732868195,0.16343985497951508,-0.6163164973258972,-0.4289935231208801,-0.03800496831536293,0.1516897976398468,0.1668318212032318,0.12294086068868637,-0.09440778195858002,0.017014648765325546,-0.05501904711127281,0.0009535253047943115,-0.31141427159309387,0.12669505178928375,-0.21284706890583038,0.492481529712677,0.03207146003842354,-0.8228582739830017,-1.3802274465560913,-1.171303153038025,1.3164846897125244,1.135794758796692,0.15139901638031006,0.8433924317359924,1.1044020652770996,-2.05513596534729,-1.9724571704864502,0.3988313376903534,1.1954057216644287,0.6149953603744507,0.7752807140350342,-1.2405328750610352,-0.2237890362739563,-0.6248890161514282,-1.8272238969802856,-1.4493781328201294,-1.0331189632415771,1.671141266822815,-0.19343715906143188,-2.1493473052978516,0.6419370174407959,0.5708870887756348,0.8204171657562256,1.4211506843566895,-1.5343890190124512,-1.5074129104614258,-1.869549036026001,-0.4278317093849182,-1.8246331214904785,-0.6242471933364868,-1.1744261980056763,0.6881816983222961,0.7593148946762085,-1.0831996202468872
A05_LA_T_6157879.flac,0.04498261213302612,0.01805734634399414,0.00834344420582056,0.7188355326652527,0.00030858966056257486,0.3187243342399597,0.7412802577018738,0.4405302405357361,1.2210509777069092,0.4953326880931854,0.6147152781486511,0.8380979895591736,0.1820206642150879,0.07405830919742584,0.8399953246116638,0.6131664514541626,0.06103261187672615,0.14461933076381683,0.22912432253360748,0.578632116317749,0.2498951256275177,0.14119093120098114,0.12352509796619415,0.930987536907196,0.10133272409439087,0.7829205989837646,0.07957630604505539,1.0774049758911133,0.3891701102256775,1.2091271877288818,0.09091047942638397,0.003314180299639702,-0.044191908091306686,0.01296936720609665,-0.008343270979821682,0.7017897963523865,-0.00030853424686938524,0.3187241852283478,-0.7412802577018738,0.4405301809310913,1.2210509777069092,-0.4934329390525818,0.6147152781486511,0.8315086364746094,-0.177218496799469,0.07405829429626465,-0.8399953246116638,0.613166332244873,0.06103239208459854,0.14461927115917206,-0.2291242629289627,0.5786319375038147,0.24989506602287292,0.14119088649749756,0.12352502346038818,0.9258372187614441,-0.1013326495885849,0.768120527267456,0.07957629859447479,1.0685408115386963,-0.38916999101638794,-1.2091271877288818,0.09091043472290039,0.003314034314826131,0.07025080919265747,0.7492566704750061,1.2195892333984375,1.094942331314087,0.6553128361701965,0.366329550743103,0.23304319381713867,0.03298449516296387,0.5954214334487915,0.09222418069839478,0.1553056836128235,0.16541467607021332,0.6216618418693542,0.41784459352493286,0.03447858989238739,0.15774571895599365,0.18135999143123627,0.12090086936950684,0.10186028480529785,0.03449701890349388,0.0544208288192749,0.022391527891159058,0.31983157992362976,0.14297764003276825,0.21704891324043274,0.5035977363586426,0.031179189682006836,0.8575533628463745,1.3995699882507324,1.1977765560150146,1.329892635345459,1.1468535661697388,0.06985083222389221,-0.7491917014122009,-1.2193262577056885,-1.0946171283721924,0.655150294303894,0.36603009700775146,-0.23286743462085724,-0.03278907388448715,-0.5952109694480896,0.09185361862182617,0.15495775640010834,0.16494260728359222,-0.6212735772132874,-0.41756606101989746,-0.0340137779712677,0.15764832496643066,0.18096302449703217,0.12069650739431381,-0.10174267739057541,0.034416597336530685,-0.05383677035570145,0.021708309650421143,-0.31905293464660645,0.14275102317333221,-0.21682719886302948,0.5027242302894592,0.030858401209115982,-0.8573858141899109,-1.3995047807693481,-1.1976336240768433,1.3296812772750854,1.1466330289840698,0.14705342054367065,0.8632972240447998,1.1275055408477783,-2.072753429412842,-1.9648654460906982,0.435512900352478,1.2213202714920044,0.6124473810195923,0.7949949502944946,-1.2458938360214233,-0.2127973437309265,-0.6385834813117981,-1.882091760635376,-1.4684182405471802,-1.0446159839630127,1.713280439376831,-0.1841023564338684,-2.1807658672332764,0.6473967432975769,0.5762513279914856,0.8361114263534546,1.4304383993148804,-1.588434100151062,-1.5526800155639648,-1.8990774154663086,-0.4209698438644409,-1.837859869003296,-0.633445143699646,-1.1589891910552979,0.685936450958252,0.7857177257537842,-1.0693960189819336
A05_LA_T_7631790.flac,0.04355263710021973,0.017048954963684082,0.01592654548585415,0.6864653825759888,0.005857571493834257,0.32278212904930115,0.7249304056167603,0.45090779662132263,1.1993221044540405,0.5026869773864746,0.6082080006599426,0.754730224609375,0.1826767921447754,0.04587481543421745,0.8307532668113708,0.6130183339118958,0.06305313855409622,0.1299174726009369,0.1918519139289856,0.5672301054000854,0.24044348299503326,0.1620512455701828,0.12756194174289703,0.8902746438980103,0.0776338055729866,0.79937744140625,0.07645519077777863,1.06575608253479,0.36135345697402954,1.2029749155044556,0.08750590682029724,0.017179293558001518,-0.04335452988743782,0.015557043254375458,-0.015925941988825798,0.6802051067352295,-0.005857362877577543,0.32278165221214294,-0.7249304056167603,0.45090776681900024,1.1993217468261719,-0.5023852586746216,0.6082078814506531,0.7485895156860352,-0.18236568570137024,0.045874737203121185,-0.830752968788147,0.6130180358886719,0.06305237114429474,0.12991732358932495,-0.19185179471969604,0.5672297477722168,0.24044327437877655,0.16205120086669922,0.1275617778301239,0.8879803419113159,-0.07763376086950302,0.7983897924423218,0.07645511627197266,1.0618774890899658,-0.3613530397415161,-1.2029746770858765,0.08750581741333008,-0.017179077491164207,0.08781957626342773,0.7424708604812622,1.2208999395370483,1.0778831243515015,0.6441364884376526,0.34692350029945374,0.20283865928649902,0.04009142518043518,0.6100389957427979,0.09439404308795929,0.15082025527954102,0.1736074835062027,0.6183462738990784,0.40501195192337036,0.07141247391700745,0.13847696781158447,0.16315379738807678,0.11445367336273193,0.09945696592330933,0.07739483565092087,0.07117652893066406,0.029134780168533325,0.3009788393974304,0.13701017200946808,0.22460013628005981,0.5122321844100952,0.031228572130203247,0.809106707572937,1.3953468799591064,1.1990028619766235,1.316948652267456,1.133410096168518,0.08745355904102325,-0.742398202419281,-1.2206603288650513,-1.0775272846221924,0.6439737677574158,0.34667378664016724,-0.20265530049800873,-0.03989891707897186,-0.6098346710205078,0.09396209567785263,0.15054567158222198,0.1732473373413086,-0.6180428862571716,-0.40476152300834656,-0.07104439288377762,0.1383766382932663,0.1627434492111206,0.11423885077238083,-0.09934388101100922,0.07732538878917694,-0.07057934999465942,0.02844872511923313,-0.30024823546409607,0.13678613305091858,-0.22437556087970734,0.5115822553634644,0.03086262382566929,-0.8089284300804138,-1.395288348197937,-1.198844313621521,1.316749930381775,1.1331932544708252,0.13885176181793213,0.8132823705673218,1.1109899282455444,-1.993295669555664,-1.9060955047607422,0.46011513471603394,1.2215733528137207,0.6405558586120605,0.7706592082977295,-1.1885149478912354,-0.20864945650100708,-0.6725587248802185,-1.8574546575546265,-1.453382968902588,-1.0455491542816162,1.6964178085327148,-0.16238024830818176,-2.1239707469940186,0.694109320640564,0.6003321409225464,0.8618466854095459,1.4103823900222778,-1.5500147342681885,-1.5541081428527832,-1.8438589572906494,-0.4317472577095032,-1.8130645751953125,-0.6467002034187317,-1.1227071285247803,0.6241089701652527,0.8390894532203674,-1.0172734260559082
A05_LA_T_2071606.flac,0.024351119995117188,0.0025994181632995605,0.04546177387237549,0.7086074352264404,0.006142585072666407,0.3206980526447296,0.7521446943283081,0.43696027994155884,1.228104829788208,0.4783138036727905,0.6134945154190063,0.8411760330200195,0.17004480957984924,0.04171030595898628,0.8348372578620911,0.5841171741485596,0.0553780123591423,0.14651578664779663,0.2596376836299896,0.5506264567375183,0.2532092034816742,0.1509891152381897,0.08424241840839386,0.9134010076522827,0.07681399583816528,0.7494462728500366,0.08117546886205673,1.0589427947998047,0.37308332324028015,1.2036269903182983,0.09022419154644012,0.0023302885238081217,-0.02402140200138092,0.0014955885708332062,-0.045461419969797134,0.7068139910697937,0.006142386235296726,0.32069775462150574,-0.7521446943283081,0.43696025013923645,1.228104829788208,-0.47748273611068726,0.6134945154190063,0.8393718004226685,-0.16659332811832428,0.041710250079631805,-0.8348371982574463,0.5841171145439148,0.055377595126628876,0.14651575684547424,-0.25963765382766724,0.5506262183189392,0.2532091438770294,0.1509891152381897,0.08424238860607147,0.9111553430557251,-0.07681398838758469,0.7476869821548462,0.08117543160915375,1.056574821472168,-0.37308311462402344,-1.2036269903182983,0.09022417664527893,-0.002330254763364792,0.08344805240631104,0.7403287887573242,1.1987767219543457,1.0865684747695923,0.6418479084968567,0.37233972549438477,0.20609062910079956,0.046375155448913574,0.5689288377761841,0.09522467851638794,0.17125540971755981,0.16852760314941406,0.6229026317596436,0.43115532398223877,0.04514917731285095,0.15539902448654175,0.1801222413778305,0.12926959991455078,0.10608178377151489,0.029796786606311798,0.050714969635009766,0.005904853343963623,0.3019566535949707,0.1379193812608719,0.20568346977233887,0.4687390625476837,0.02600477635860443,0.8351798057556152,1.3741376399993896,1.165243148803711,1.3239896297454834,1.1476773023605347,0.08305023610591888,-0.7402580380439758,-1.1985009908676147,-1.0862232446670532,0.6416658759117126,0.37203916907310486,-0.2058958113193512,-0.046167775988578796,-0.5686869025230408,0.09484045952558517,0.1709301918745041,0.16811946034431458,-0.6225290298461914,-0.4308623969554901,-0.04468798637390137,0.1552925556898117,0.17968367040157318,0.12904635071754456,-0.1059582456946373,0.02971741557121277,-0.05007892847061157,0.005191171076148748,-0.30112430453300476,0.13768737018108368,-0.20544473826885223,0.4678933322429657,0.025663575157523155,-0.8349898457527161,-1.3740649223327637,-1.1650928258895874,1.3237550258636475,1.147471308708191,0.16388368606567383,0.8059677481651306,1.1364846229553223,-2.03635835647583,-1.9563013315200806,0.40096211433410645,1.2164132595062256,0.6457932591438293,0.7646187543869019,-1.2308796644210815,-0.24528682231903076,-0.6288853287696838,-1.7891578674316406,-1.455499529838562,-0.9942029118537903,1.6611201763153076,-0.1623668074607849,-2.1070828437805176,0.6367121934890747,0.5746562480926514,0.8013266324996948,1.4397598505020142,-1.5029382705688477,-1.4961894750595093,-1.85769522190094,-0.44503143429756165,-1.8211524486541748,-0.609967827796936,-1.1688907146453857,0.6687275171279907,0.7795913815498352,-1.0393211841583252
A05_LA_T_3400735.flac,0.04006737470626831,0.011143624782562256,0.023724809288978577,0.7262028455734253,0.0008154389215633273,0.3105967342853546,0.745847761631012,0.4512792229652405,1.2241361141204834,0.5089881420135498,0.6140526533126831,0.8260294795036316,0.17516517639160156,0.059247687458992004,0.8369705080986023,0.6137295961380005,0.060264915227890015,0.13248449563980103,0.21230174601078033,0.5762591361999512,0.24986468255519867,0.15859931707382202,0.12092987447977066,0.92576664686203,0.060784295201301575,0.8090291619300842,0.07927067577838898,1.081283688545227,0.37284502387046814,1.2084211111068726,0.09088487923145294,0.0009174112929031253,-0.038969386368989944,0.009330730885267258,-0.02372441068291664,0.7193247079849243,0.0008151896763592958,0.31059640645980835,-0.745847761631012,0.4512791633605957,1.2241361141204834,-0.5066576600074768,0.6140524744987488,0.8246830105781555,-0.17127811908721924,0.05924762040376663,-0.8369704484939575,0.6137294769287109,0.0602644681930542,0.13248437643051147,-0.21230170130729675,0.5762589573860168,0.2498645931482315,0.15859930217266083,0.12092983722686768,0.9213526248931885,-0.06078426539897919,0.8006187677383423,0.07927066087722778,1.0790009498596191,-0.37284475564956665,-1.2084211111068726,0.09088483452796936,-0.0009173455182462931,0.08190995454788208,0.7614264488220215,1.2118170261383057,1.0853941440582275,0.6538723707199097,0.3603264093399048,0.2138778567314148,0.037024885416030884,0.5996958017349243,0.0884203314781189,0.1646706461906433,0.17270323634147644,0.6248315572738647,0.41963309049606323,0.060205087065696716,0.1596119999885559,0.18356788158416748,0.10613295435905457,0.10888159275054932,0.036263130605220795,0.04617279767990112,0.0220147967338562,0.3081674575805664,0.14045840501785278,0.2011086791753769,0.49998438358306885,0.024588555097579956,0.8494661450386047,1.4167635440826416,1.194718599319458,1.3419080972671509,1.149885892868042,0.08156070858240128,-0.7613595724105835,-1.211582064628601,-1.085091471672058,0.6537221670150757,0.3601084053516388,-0.2137121707201004,-0.03683948889374733,-0.5994986891746521,0.08806110918521881,0.16437387466430664,0.17237065732479095,-0.6245085000991821,-0.41939792037010193,-0.059813328087329865,0.1595187932252884,0.1831604689359665,0.10593457520008087,-0.10876639187335968,0.03618425875902176,-0.04562029987573624,0.02137134037911892,-0.3074859380722046,0.14023733139038086,-0.20087023079395294,0.49925240874290466,0.02429795078933239,-0.8493151068687439,-1.4167022705078125,-1.194571852684021,1.341717004776001,1.1496714353561401,0.1409352421760559,0.8423120975494385,1.1674262285232544,-2.070788621902466,-1.9613789319992065,0.4194714426994324,1.2417480945587158,0.6465645432472229,0.8196946382522583,-1.219966173171997,-0.23334163427352905,-0.6363096237182617,-1.893919825553894,-1.506412386894226,-1.0314311981201172,1.7036378383636475,-0.18532726168632507,-2.1501312255859375,0.6694117188453674,0.5927029252052307,0.8460540771484375,1.4384185075759888,-1.5695781707763672,-1.5877556800842285,-1.9260568618774414,-0.43183833360671997,-1.8481577634811401,-0.6339570879936218,-1.1576200723648071,0.6749452948570251,0.8094316124916077,-1.0567219257354736
A05_LA_T_6510454.flac,0.0414654016494751,0.0024370551109313965,0.018647177144885063,0.7140690684318542,0.0025173432659357786,0.31872156262397766,0.7447826862335205,0.43926241993904114,1.2255946397781372,0.49397268891334534,0.6140111088752747,0.8359621167182922,0.17703410983085632,0.05855924263596535,0.8359082341194153,0.6017711162567139,0.05602084472775459,0.14521761238574982,0.2322709709405899,0.568683922290802,0.25209757685661316,0.14622017741203308,0.11095930635929108,0.921789288520813,0.0867006778717041,0.7657567858695984,0.08105890452861786,1.073927879333496,0.3763040602207184,1.2064449787139893,0.09148460626602173,0.0005384438554756343,-0.040631216019392014,0.0007617808878421783,-0.01864674501121044,0.7004736065864563,0.0025170850567519665,0.31872129440307617,-0.7447826266288757,0.43926236033439636,1.2255945205688477,-0.49173206090927124,0.6140110492706299,0.8285104632377625,-0.17399883270263672,0.05855918675661087,-0.8359081149101257,0.6017710566520691,0.05602038651704788,0.14521752297878265,-0.23227091133594513,0.5686837434768677,0.252097487449646,0.1462201476097107,0.1109592616558075,0.9191844463348389,-0.08670063316822052,0.758322536945343,0.08105887472629547,1.0695970058441162,-0.3763037919998169,-1.2064449787139893,0.09148456156253815,-0.0005383805837482214,0.0774872899055481,0.7504653334617615,1.2057363986968994,1.0903598070144653,0.6493686437606812,0.36238348484039307,0.2200242280960083,0.02814793586730957,0.5901399254798889,0.09096484631299973,0.16345536708831787,0.16678422689437866,0.623727023601532,0.42351236939430237,0.048446983098983765,0.15523451566696167,0.17733649909496307,0.11803567409515381,0.1094697117805481,0.02160683646798134,0.05161207914352417,0.008132129907608032,0.3163250982761383,0.13663889467716217,0.2100437581539154,0.48869210481643677,0.026035472750663757,0.8459569215774536,1.3967657089233398,1.1838759183883667,1.3287322521209717,1.1465225219726562,0.07711610943078995,-0.7504008412361145,-1.205485224723816,-1.0900331735610962,0.6492207646369934,0.36211177706718445,-0.21985121071338654,-0.02795698679983616,-0.5899328589439392,0.09059623628854752,0.16313964128494263,0.16640257835388184,-0.6233717799186707,-0.42325296998023987,-0.048014260828495026,0.1551407426595688,0.17693889141082764,0.11782965809106827,-0.10935292392969131,0.02152705006301403,-0.05103778466582298,0.007475844118744135,-0.31559473276138306,0.1364266723394394,-0.20982126891613007,0.4878952205181122,0.02573099173605442,-0.8457973599433899,-1.3967022895812988,-1.1837329864501953,1.3285248279571533,1.1463162899017334,0.1517629623413086,0.8439167737960815,1.1374282836914062,-2.0651745796203613,-1.9639062881469727,0.4123762249946594,1.2277460098266602,0.6264722943305969,0.8024964928627014,-1.2414199113845825,-0.22707301378250122,-0.630033016204834,-1.8558279275894165,-1.4723591804504395,-1.0273247957229614,1.6881029605865479,-0.18870097398757935,-2.1551461219787598,0.6383275389671326,0.579767107963562,0.8289707899093628,1.4249557256698608,-1.5528461933135986,-1.5418806076049805,-1.8939638137817383,-0.41994380950927734,-1.8340973854064941,-0.6282660961151123,-1.1653857231140137,0.6859813332557678,0.7897378206253052,-1.0655053853988647
A05_LA_T_3240788.flac,0.049089014530181885,0.002909719944000244,0.02197011187672615,0.726974368095398,0.0017014058539643884,0.3074299693107605,0.7450665235519409,0.4436880946159363,1.2247494459152222,0.5060508251190186,0.6114582419395447,0.838757336139679,0.1775338053703308,0.06007769703865051,0.8368197083473206,0.6053012013435364,0.06184675917029381,0.14037209749221802,0.22996589541435242,0.5744679570198059,0.25376537442207336,0.15053871273994446,0.11913030594587326,0.9206348657608032,0.07385572046041489,0.7789968848228455,0.07747017592191696,1.0835944414138794,0.3848208487033844,1.2094883918762207,0.08896763622760773,0.0026961921248584986,-0.048210591077804565,-0.0018430985510349274,-0.021969957277178764,0.7174915671348572,0.0017013016622513533,0.30742987990379333,-0.7450665235519409,0.4436880350112915,1.2247493267059326,-0.5047768950462341,0.6114581823348999,0.8321486115455627,-0.1747628003358841,0.060077667236328125,-0.8368196487426758,0.6053011417388916,0.06184660643339157,0.14037200808525085,-0.22996585071086884,0.5744678974151611,0.2537652850151062,0.15053868293762207,0.11913023889064789,0.9178972244262695,-0.07385565340518951,0.7719196677207947,0.07747015357017517,1.0823410749435425,-0.38482075929641724,-1.2094882726669312,0.08896759897470474,0.0026961080729961395,0.06987512111663818,0.7575015425682068,1.2038040161132812,1.0861396789550781,0.6518970131874084,0.3663288950920105,0.22710418701171875,0.03465881943702698,0.5910789370536804,0.0834297314286232,0.16546297073364258,0.16606739163398743,0.6204075813293457,0.4257967472076416,0.045662567019462585,0.1612371802330017,0.17930594086647034,0.10733625292778015,0.10646754503250122,0.018254341557621956,0.04051661491394043,0.011836320161819458,0.3160860538482666,0.1332625150680542,0.19800186157226562,0.4984644651412964,0.02391260862350464,0.8419885635375977,1.4055988788604736,1.186764121055603,1.3328502178192139,1.146472454071045,0.06950640678405762,-0.7574352622032166,-1.2035762071609497,-1.0858349800109863,0.6517446041107178,0.3660639822483063,-0.2269434928894043,-0.03446982428431511,-0.5908699631690979,0.08309245854616165,0.16516350209712982,0.16572433710098267,-0.6200824975967407,-0.4255739152431488,-0.04526775702834129,0.16115055978298187,0.17890210449695587,0.10713787376880646,-0.106350377202034,0.01818138360977173,-0.03997248038649559,0.011208513751626015,-0.3153812885284424,0.13304691016674042,-0.1977698802947998,0.4977162778377533,0.023630496114492416,-0.8418378829956055,-1.4055371284484863,-1.1866267919540405,1.332656741142273,1.1462587118148804,0.14112800359725952,0.8604846596717834,1.1632434129714966,-2.0938608646392822,-1.972598671913147,0.3920447826385498,1.2407939434051514,0.6315798759460449,0.8322039842605591,-1.2319914102554321,-0.2455182671546936,-0.6096660494804382,-1.8809024095535278,-1.5026588439941406,-1.0318927764892578,1.6926393508911133,-0.19427651166915894,-2.1693801879882812,0.6527717113494873,0.5685637593269348,0.8304651975631714,1.4441497325897217,-1.5735520124435425,-1.5485526323318481,-1.9125871658325195,-0.4237009286880493,-1.8491408824920654,-0.6233459115028381,-1.1709167957305908,0.7004750370979309,0.7810742259025574,-1.0866609811782837
A05_LA_T_4870371.flac,0.05799543857574463,0.024513959884643555,0.0010258550755679607,0.6959054470062256,0.012021047994494438,0.3230542540550232,0.7210283279418945,0.45612815022468567,1.2022125720977783,0.5149490833282471,0.6065990328788757,0.7481125593185425,0.18368446826934814,0.0543922521173954,0.8342889547348022,0.62796950340271,0.06888572126626968,0.12789961695671082,0.17084158957004547,0.5759012699127197,0.23813246190547943,0.16706052422523499,0.1463310718536377,0.8916970491409302,0.0815812200307846,0.8220539093017578,0.07347172498703003,1.0822877883911133,0.36147478222846985,1.2057654857635498,0.09039907157421112,0.027498088777065277,-0.05767082795500755,0.022126033902168274,0.0010257591493427753,0.6932071447372437,-0.012020960450172424,0.3230538070201874,-0.7210283279418945,0.4561281204223633,1.2022124528884888,-0.5147397518157959,0.6065990328788757,0.7457249164581299,-0.18127760291099548,0.05439216271042824,-0.8342888355255127,0.6279693841934204,0.06888507306575775,0.12789955735206604,-0.1708415448665619,0.5759009122848511,0.23813238739967346,0.1670604944229126,0.14633101224899292,0.8911173939704895,-0.08158120512962341,0.8204296827316284,0.07347169518470764,1.0799310207366943,-0.3614744246006012,-1.2057654857635498,0.09039901942014694,-0.027498019859194756,0.0827714204788208,0.7569694519042969,1.224899411201477,1.078045129776001,0.6472349762916565,0.3395247161388397,0.21589204668998718,0.037546247243881226,0.6288740634918213,0.08598420768976212,0.14355111122131348,0.17405594885349274,0.6158264875411987,0.38063621520996094,0.06700040400028229,0.13922196626663208,0.16028138995170593,0.11106109619140625,0.10127943754196167,0.08440899848937988,0.07011789083480835,0.03386235237121582,0.30956220626831055,0.14247143268585205,0.22751644253730774,0.5298503637313843,0.03191766142845154,0.8228774070739746,1.4192914962768555,1.2182260751724243,1.3238203525543213,1.1388812065124512,0.08242787420749664,-0.7569016814231873,-1.2246817350387573,-1.0777195692062378,0.6470910906791687,0.3392968773841858,-0.21572791039943695,-0.037367597222328186,-0.6286808252334595,0.08558504283428192,0.14329726994037628,0.17370975017547607,-0.6155386567115784,-0.38040876388549805,-0.06665533781051636,0.139131098985672,0.15990480780601501,0.11086056381464005,-0.10117240250110626,0.0843496173620224,-0.0695684626698494,0.03322170674800873,-0.30890706181526184,0.14226582646369934,-0.22730551660060883,0.5292336344718933,0.0315762422978878,-0.8227173686027527,-1.4192380905151367,-1.2180780172348022,1.3236395120620728,1.138686180114746,0.1268221139907837,0.8350144028663635,1.1317198276519775,-2.013683795928955,-1.9055002927780151,0.4671097993850708,1.228454351425171,0.6282145977020264,0.7982836961746216,-1.1855976581573486,-0.21849769353866577,-0.6669578552246094,-1.8998005390167236,-1.4829518795013428,-1.065699815750122,1.714473009109497,-0.15695369243621826,-2.1427221298217773,0.6914608478546143,0.5998478531837463,0.8794840574264526,1.4200235605239868,-1.596754550933838,-1.577621579170227,-1.8841502666473389,-0.4375142455101013,-1.8181071281433105,-0.6574881672859192,-1.1312990188598633,0.6404648423194885,0.8515705466270447,-1.0351468324661255
A05_LA_T_8419320.flac,0.03859370946884155,0.010846495628356934,0.01732562854886055,0.7095251083374023,1.857840470620431e-05,0.31166374683380127,0.7380316853523254,0.4459776282310486,1.2131630182266235,0.5032587647438049,0.6110908389091492,0.8080662488937378,0.17433452606201172,0.0599546954035759,0.8335331082344055,0.6045780181884766,0.052412912249565125,0.13314437866210938,0.2179623395204544,0.5754224061965942,0.24790523946285248,0.14870770275592804,0.1275550276041031,0.9250930547714233,0.07610074430704117,0.7809885740280151,0.08345142751932144,1.058904767036438,0.37231069803237915,1.2030179500579834,0.08689931780099869,0.0005143110174685717,-0.03751735761761665,0.009309247136116028,-0.017325453460216522,0.6972247958183289,1.8462240404915065e-05,0.3116636276245117,-0.7380316257476807,0.4459775984287262,1.213162899017334,-0.501988410949707,0.6110907793045044,0.8015569448471069,-0.17266465723514557,0.05995465815067291,-0.833532989025116,0.604577898979187,0.052412763237953186,0.1331443190574646,-0.21796230971813202,0.5754224061965942,0.2479051947593689,0.14870764315128326,0.12755495309829712,0.9234135150909424,-0.0761006772518158,0.771310567855835,0.08345139026641846,1.0516867637634277,-0.3723105788230896,-1.2030179500579834,0.0868992805480957,0.0005142250447534025,0.08551239967346191,0.7472169399261475,1.2048860788345337,1.0796891450881958,0.6515624523162842,0.35492706298828125,0.223982572555542,0.0345936119556427,0.58634352684021,0.09360916912555695,0.16053742170333862,0.17428432404994965,0.6241995692253113,0.4322863817214966,0.060254380106925964,0.15561330318450928,0.1837618499994278,0.1017199158668518,0.10044634342193604,0.04018670320510864,0.05004161596298218,0.024895191192626953,0.3158596456050873,0.14140519499778748,0.20471397042274475,0.5009536743164062,0.022938072681427002,0.842687726020813,1.4031813144683838,1.185925006866455,1.3339576721191406,1.1419018507003784,0.08516020327806473,-0.7471501231193542,-1.2046616077423096,-1.079392910003662,0.6514105200767517,0.3546929657459259,-0.22382257878780365,-0.034413713961839676,-0.5861594080924988,0.09323424100875854,0.16024155914783478,0.1738838404417038,-0.623879075050354,-0.43206173181533813,-0.05987274646759033,0.15551617741584778,0.18337683379650116,0.10152339190244675,-0.10033049434423447,0.04010188579559326,-0.04951077699661255,0.024282485246658325,-0.31518253684043884,0.14119307696819305,-0.20448528230190277,0.500236451625824,0.022625431418418884,-0.842540442943573,-1.4031212329864502,-1.1857703924179077,1.3337773084640503,1.1417019367218018,0.1503193974494934,0.8512205481529236,1.1417784690856934,-2.0608866214752197,-1.9522614479064941,0.4189086854457855,1.2271759510040283,0.6367988586425781,0.8114386796951294,-1.2195491790771484,-0.2118580937385559,-0.6320025324821472,-1.890718936920166,-1.4806928634643555,-1.036414384841919,1.7128026485443115,-0.20346379280090332,-2.175968885421753,0.6691492199897766,0.5912477374076843,0.8561815023422241,1.433448314666748,-1.5697797536849976,-1.5816384553909302,-1.9079617261886597,-0.42078697681427,-1.8428804874420166,-0.6429291367530823,-1.1536827087402344,0.6788665652275085,0.7913210391998291,-1.068267822265625
A05_LA_T_1139785.flac,0.039590299129486084,0.013291001319885254,0.03572588413953781,0.7191159725189209,0.004995305556803942,0.31400659680366516,0.7463617920875549,0.4404197633266449,1.225522518157959,0.5015743374824524,0.6154858469963074,0.8415236473083496,0.17108866572380066,0.04843620955944061,0.835760772228241,0.5945843458175659,0.06249622628092766,0.1458224356174469,0.24576014280319214,0.5653718709945679,0.25630414485931396,0.15026502311229706,0.10199209302663803,0.9185136556625366,0.07461857795715332,0.7721773982048035,0.07921557873487473,1.0770350694656372,0.380105197429657,1.2085334062576294,0.08978325873613358,0.0020742169581353664,-0.03740789368748665,-0.012138891965150833,-0.03572579473257065,0.7104208469390869,0.004995265044271946,0.3140065670013428,-0.7463617324829102,0.44041967391967773,1.2255222797393799,-0.49780863523483276,0.6154858469963074,0.835365355014801,-0.16842913627624512,0.04843619093298912,-0.8357605934143066,0.5945842266082764,0.06249617785215378,0.14582234621047974,-0.24576011300086975,0.5653718113899231,0.2563040852546692,0.15026500821113586,0.10199204087257385,0.9168108701705933,-0.07461854815483093,0.7649592161178589,0.07921554893255234,1.0744062662124634,-0.3801051378250122,-1.2085332870483398,0.0897831916809082,0.0020741880871355534,0.0750880241394043,0.7568572163581848,1.1995995044708252,1.0942810773849487,0.647408127784729,0.36656785011291504,0.21685612201690674,0.028158128261566162,0.5875275135040283,0.07971883565187454,0.1694488525390625,0.16433559358119965,0.6240774989128113,0.43330055475234985,0.052720457315444946,0.15879595279693604,0.1731264591217041,0.11820876598358154,0.11079984903335571,0.008644616231322289,0.04291677474975586,0.0012556910514831543,0.31018778681755066,0.12793196737766266,0.19984859228134155,0.48542049527168274,0.023321330547332764,0.8353844881057739,1.3983402252197266,1.173045039176941,1.3334496021270752,1.1474802494049072,0.07472225278615952,-0.7567943334579468,-1.1993664503097534,-1.0939602851867676,0.6472651362419128,0.3662927746772766,-0.21669097244739532,-0.02797144465148449,-0.587312638759613,0.07938103377819061,0.16914893686771393,0.16399024426937103,-0.6237449049949646,-0.4330698549747467,-0.05231405049562454,0.15871058404445648,0.17273390293121338,0.11801011860370636,-0.11068544536828995,0.008572413586080074,-0.042355358600616455,-0.0009804219007492065,-0.30947592854499817,0.12772469222545624,-0.19962941110134125,0.48466330766677856,0.023021375760436058,-0.8352329134941101,-1.398278832435608,-1.172910451889038,1.3332504034042358,1.1472711563110352,0.15196144580841064,0.8401617407798767,1.155359148979187,-2.0864193439483643,-1.9903512001037598,0.39027073979377747,1.232098937034607,0.6446712613105774,0.8148640394210815,-1.2408783435821533,-0.24474000930786133,-0.6227689981460571,-1.8477154970169067,-1.4975159168243408,-1.0246522426605225,1.6669702529907227,-0.19933530688285828,-2.1477293968200684,0.6391680836677551,0.5738112926483154,0.8232800960540771,1.4309000968933105,-1.5436018705368042,-1.5392478704452515,-1.9062604904174805,-0.43473851680755615,-1.8465125560760498,-0.6259690523147583,-1.1799137592315674,0.695827066898346,0.7817044854164124,-1.0866835117340088
A05_LA_T_3278346.flac,0.05099743604660034,0.011299192905426025,0.0003612262080423534,0.7252594232559204,0.004545935895293951,0.315727561712265,0.736333966255188,0.45001357793807983,1.2223658561706543,0.5083412528038025,0.6087225675582886,0.8054904937744141,0.17990446090698242,0.0587632916867733,0.8336756229400635,0.6207472681999207,0.06337850540876389,0.13514070212841034,0.18241703510284424,0.5759434103965759,0.24741016328334808,0.1606837958097458,0.1345708817243576,0.9081155061721802,0.06878719478845596,0.8041218519210815,0.07489195466041565,1.0902541875839233,0.36702972650527954,1.2075906991958618,0.09263986349105835,0.013121267780661583,-0.04966280981898308,0.008823402225971222,-0.0003610205021686852,0.7188957929611206,-0.004545858129858971,0.3157274127006531,-0.7363339066505432,0.45001351833343506,1.2223657369613647,-0.5066146850585938,0.608722448348999,0.8034468293190002,-0.17731569707393646,0.05876324325799942,-0.8336755633354187,0.6207470893859863,0.06337829679250717,0.13514065742492676,-0.18241700530052185,0.5759432911872864,0.24741005897521973,0.1606837660074234,0.13457080721855164,0.9050796031951904,-0.06878716498613358,0.7987236976623535,0.07489193230867386,1.0885493755340576,-0.3670295774936676,-1.2075905799865723,0.09263981878757477,-0.01312117651104927,0.07570278644561768,0.7642315626144409,1.2149747610092163,1.0801467895507812,0.65035080909729,0.3471361994743347,0.21841037273406982,0.03493991494178772,0.6134326457977295,0.08365218341350555,0.1594582200050354,0.16990149021148682,0.6200758814811707,0.40638434886932373,0.0545826256275177,0.15520399808883667,0.16858027875423431,0.10981231927871704,0.10926145315170288,0.04564208164811134,0.046279072761535645,0.015183031558990479,0.30677151679992676,0.13606545329093933,0.20944291353225708,0.506373941898346,0.02903813123703003,0.8397517204284668,1.4167201519012451,1.2010382413864136,1.3316214084625244,1.1459650993347168,0.0753561481833458,-0.7641690373420715,-1.214759111404419,-1.079849362373352,0.6502089500427246,0.3469155728816986,-0.2182546705007553,-0.03476349636912346,-0.6132515072822571,0.08328843116760254,0.15920506417751312,0.16955170035362244,-0.6197912096977234,-0.4061643183231354,-0.05423051118850708,0.15511399507522583,0.16819781064987183,0.10961289703845978,-0.10915062576532364,0.04555908218026161,-0.04575037956237793,0.014580008573830128,-0.3060764968395233,0.13585607707500458,-0.20921960473060608,0.5057312846183777,0.028734726831316948,-0.8396031260490417,-1.4166635274887085,-1.2008936405181885,1.331438660621643,1.1457735300064087,0.13448035717010498,0.8457246422767639,1.1571298837661743,-2.0600574016571045,-1.9414644241333008,0.42128291726112366,1.2519959211349487,0.6304990649223328,0.8231214284896851,-1.2049864530563354,-0.23398178815841675,-0.6334457397460938,-1.8964706659317017,-1.4973255395889282,-1.046420931816101,1.7008395195007324,-0.1739000678062439,-2.155411958694458,0.6662842631340027,0.5963904857635498,0.84429931640625,1.4270433187484741,-1.5737073421478271,-1.5694818496704102,-1.9281134605407715,-0.4160233438014984,-1.8280773162841797,-0.6341874599456787,-1.1520825624465942,0.6775321364402771,0.8365228176116943,-1.0633429288864136
A05_LA_T_7190980.flac,0.03738886117935181,0.006535172462463379,0.03547389432787895,0.7201721668243408,0.004412739537656307,0.3171406090259552,0.7507585287094116,0.4429911673069,1.231337070465088,0.5011886954307556,0.6193076372146606,0.8479181528091431,0.16718345880508423,0.05586318299174309,0.8401992917060852,0.6018871068954468,0.060259297490119934,0.1433665156364441,0.24389304220676422,0.5684341788291931,0.254757821559906,0.1515318900346756,0.1021956130862236,0.9271869659423828,0.07668361812829971,0.7861942648887634,0.08183706551790237,1.0799059867858887,0.37637433409690857,1.2094056606292725,0.09194201231002808,0.0020403044763952494,-0.0363847054541111,-0.004359502345323563,-0.035473719239234924,0.7162739038467407,0.004412658978253603,0.31714051961898804,-0.7507584691047668,0.44299113750457764,1.231337070465088,-0.49972641468048096,0.6193076372146606,0.8423367738723755,-0.16330279409885406,0.05586317181587219,-0.8401992321014404,0.6018871068954468,0.06025911867618561,0.1433664858341217,-0.24389301240444183,0.5684341192245483,0.25475776195526123,0.1515318751335144,0.10219558328390121,0.9228965640068054,-0.07668359577655792,0.7793248891830444,0.08183702826499939,1.0778617858886719,-0.3763742446899414,-1.2094056606292725,0.09194198995828629,-0.0020402674563229084,0.07898324728012085,0.7611186504364014,1.2009564638137817,1.0973564386367798,0.6511009931564331,0.3682185709476471,0.21655142307281494,0.027418404817581177,0.5921890735626221,0.08209329843521118,0.1679498553276062,0.1669573187828064,0.624409556388855,0.4242992699146271,0.05242384970188141,0.15978962182998657,0.17949259281158447,0.11987563967704773,0.10950368642807007,0.015035061165690422,0.04378765821456909,0.004479557275772095,0.31147289276123047,0.13449011743068695,0.2022969126701355,0.48758232593536377,0.02455657720565796,0.8475496768951416,1.409033179283142,1.1837035417556763,1.3424501419067383,1.1546270847320557,0.07863232493400574,-0.7610571980476379,-1.2007229328155518,-1.0970417261123657,0.6509667634963989,0.3679596483707428,-0.21638619899749756,-0.027236396446824074,-0.5919786095619202,0.08175776153802872,0.16764944791793823,0.16661885380744934,-0.6240754723548889,-0.42406412959098816,-0.052017223089933395,0.1597043126821518,0.1791144460439682,0.11968151479959488,-0.1093917116522789,0.014962705783545971,-0.0432271771132946,0.003846752690151334,-0.31079530715942383,0.13429045677185059,-0.20208390057086945,0.4868248999118805,0.024259770289063454,-0.8474003076553345,-1.4089728593826294,-1.1835695505142212,1.3422541618347168,1.1544147729873657,0.1499084234237671,0.8419370055198669,1.1629302501678467,-2.0885469913482666,-1.9929757118225098,0.4031718373298645,1.2281897068023682,0.6464816331863403,0.8121913075447083,-1.2449495792388916,-0.24303144216537476,-0.6282467246055603,-1.8621695041656494,-1.5025503635406494,-1.0246081352233887,1.6835386753082275,-0.20136260986328125,-2.1499862670898438,0.6378936171531677,0.5789573192596436,0.8387786149978638,1.4334161281585693,-1.5593698024749756,-1.5616952180862427,-1.9133657217025757,-0.4432929754257202,-1.8510209321975708,-0.6338533759117126,-1.1866416931152344,0.694614589214325,0.7880983352661133,-1.0827052593231201
A05_LA_T_2292108.flac,0.04321330785751343,0.011323392391204834,0.0166594460606575,0.7149772047996521,0.003168501891195774,0.31099602580070496,0.7264489531517029,0.45347920060157776,1.2042322158813477,0.5096867680549622,0.6101318597793579,0.7837817072868347,0.17636454105377197,0.044739168137311935,0.8301336169242859,0.6020705103874207,0.05379253253340721,0.1294042021036148,0.20281656086444855,0.5715172290802002,0.24504758417606354,0.1563538908958435,0.13398943841457367,0.9076050519943237,0.06309216469526291,0.798747181892395,0.08149869740009308,1.061252474784851,0.3629649877548218,1.20134699344635,0.08684699982404709,0.009943943470716476,-0.04186789691448212,0.008212774991989136,-0.016659265384078026,0.6952424049377441,-0.0031684325076639652,0.310995876789093,-0.7264488935470581,0.45347917079925537,1.204232096672058,-0.5079500675201416,0.6101318001747131,0.774796724319458,-0.17507842183113098,0.044739119708538055,-0.8301334381103516,0.6020704507827759,0.0537923201918602,0.12940412759780884,-0.20281650125980377,0.5715170502662659,0.24504749476909637,0.15635386109352112,0.1339893788099289,0.9044333696365356,-0.06309212744235992,0.780243456363678,0.08149866759777069,1.0571589469909668,-0.3629648685455322,-1.2013468742370605,0.08684694766998291,-0.009943874552845955,0.09124451875686646,0.747215747833252,1.1984868049621582,1.0708763599395752,0.6453210115432739,0.34542182087898254,0.21718519926071167,0.0301455557346344,0.5912988185882568,0.09061127156019211,0.16243880987167358,0.17844009399414062,0.6188860535621643,0.42142730951309204,0.06799988448619843,0.15016019344329834,0.18023253977298737,0.09819585084915161,0.09927475452423096,0.05343281105160713,0.050838351249694824,0.021005690097808838,0.3086913824081421,0.13940919935703278,0.20617948472499847,0.5031402111053467,0.024961024522781372,0.8256936073303223,1.4064135551452637,1.1904569864273071,1.328967809677124,1.1386276483535767,0.09091822803020477,-0.7471461296081543,-1.198279619216919,-1.070584774017334,0.6451796293258667,0.345220148563385,-0.21702829003334045,-0.029970554634928703,-0.5911135077476501,0.09024609625339508,0.16218765079975128,0.17811089754104614,-0.6186173558235168,-0.4212258756160736,-0.06766761839389801,0.15007047355175018,0.17985007166862488,0.09799972921609879,-0.09916035085916519,0.053363244980573654,-0.05032636597752571,0.020404774695634842,-0.3080286681652069,0.13920395076274872,-0.2059505432844162,0.5025339126586914,0.024658428505063057,-0.825551450252533,-1.4063533544540405,-1.1903072595596313,1.328795313835144,1.1384459733963013,0.14402532577514648,0.8319211602210999,1.1471529006958008,-2.033205986022949,-1.9323205947875977,0.41004815697669983,1.2310823202133179,0.6437283754348755,0.8046483397483826,-1.1938371658325195,-0.22525662183761597,-0.6314337253570557,-1.8828853368759155,-1.4727253913879395,-1.0335590839385986,1.7024239301681519,-0.18866956233978271,-2.149569034576416,0.6845455765724182,0.6042842864990234,0.8556548357009888,1.4251970052719116,-1.5401649475097656,-1.5790537595748901,-1.8831462860107422,-0.41952863335609436,-1.8213952779769897,-0.6359339952468872,-1.1568427085876465,0.6497764587402344,0.8139429092407227,-1.05254065990448
A05_LA_T_6538658.flac,0.03591609001159668,0.009183108806610107,0.023348480463027954,0.7090502977371216,0.005338381510227919,0.32357287406921387,0.7423202395439148,0.4323910176753998,1.226533055305481,0.4861833155155182,0.6160874962806702,0.8490579724311829,0.17099010944366455,0.049742791801691055,0.8372170329093933,0.5856950283050537,0.05726568400859833,0.15744349360466003,0.26375043392181396,0.558506965637207,0.2547511160373688,0.14125221967697144,0.09481904655694962,0.9245133996009827,0.1000671237707138,0.7472009062767029,0.0809069275856018,1.0648510456085205,0.38219013810157776,1.2062222957611084,0.09448883682489395,0.0016562846722081304,-0.0347885899245739,-0.006470136344432831,-0.02334843948483467,0.7024862766265869,0.005338333081454039,0.3235728144645691,-0.74232017993927,0.432390958070755,1.2265329360961914,-0.48383623361587524,0.6160874366760254,0.8461480140686035,-0.16321957111358643,0.04974278807640076,-0.8372170329093933,0.5856950283050537,0.057265542447566986,0.15744344890117645,-0.26375043392181396,0.5585068464279175,0.2547510862350464,0.14125218987464905,0.09481902420520782,0.9194763898849487,-0.10006707906723022,0.7422374486923218,0.08090689778327942,1.0619927644729614,-0.3821900188922882,-1.2062221765518188,0.09448882192373276,0.0016561868833377957,0.07657891511917114,0.7464480996131897,1.2027519941329956,1.0998607873916626,0.6452149152755737,0.3705049753189087,0.22339379787445068,0.0270138680934906,0.5808497667312622,0.08849218487739563,0.16700303554534912,0.1610558032989502,0.6244295835494995,0.43392837047576904,0.03651818633079529,0.1607629656791687,0.17120583355426788,0.13012206554412842,0.09902971982955933,0.009004907682538033,0.048995137214660645,0.0009014904499053955,0.3096674382686615,0.12738560140132904,0.20939475297927856,0.4783940017223358,0.02892802655696869,0.8450852632522583,1.3844399452209473,1.170215129852295,1.3285868167877197,1.1503047943115234,0.07618901878595352,-0.7463815212249756,-1.2024983167648315,-1.099542498588562,0.6450603604316711,0.3702056109905243,-0.22322367131710052,-0.026814648881554604,-0.5806213021278381,0.08815937489271164,0.16666674613952637,0.16068227589130402,-0.6240596771240234,-0.4336680471897125,-0.036067135632038116,0.16067400574684143,0.17079821228981018,0.12991951406002045,-0.09890799224376678,0.008934838697314262,-0.048419903963804245,-0.0006176233291625977,-0.30893751978874207,0.12716156244277954,-0.2091689556837082,0.4775455892086029,0.028597509488463402,-0.8449188470840454,-1.3843739032745361,-1.1700859069824219,1.3283723592758179,1.1500815153121948,0.16597217321395874,0.8365245461463928,1.1167861223220825,-2.069119453430176,-1.9840070009231567,0.4018004536628723,1.2157071828842163,0.6284499764442444,0.7844831943511963,-1.2458972930908203,-0.22804415225982666,-0.6279258131980896,-1.8212318420410156,-1.4676587581634521,-1.0242758989334106,1.6800471544265747,-0.19515088200569153,-2.1553616523742676,0.6311308741569519,0.5697824954986572,0.8126959800720215,1.4280133247375488,-1.5366566181182861,-1.5145305395126343,-1.865240216255188,-0.42952680587768555,-1.835642695426941,-0.6246193647384644,-1.1754716634750366,0.6926018595695496,0.7655004858970642,-1.0893734693527222
A05_LA_T_9438171.flac,0.062191903591156006,0.015157818794250488,0.008958821184933186,0.7413097620010376,0.00041284479084424675,0.31288161873817444,0.750328004360199,0.4458868205547333,1.2329031229019165,0.506375789642334,0.615273118019104,0.8544014692306519,0.18483227491378784,0.07861018180847168,0.8413979411125183,0.6303063631057739,0.07455676048994064,0.14199082553386688,0.2073376625776291,0.5880262851715088,0.2546725273132324,0.15259146690368652,0.12705537676811218,0.9210365414619446,0.08125769346952438,0.8157625198364258,0.0722380131483078,1.1231298446655273,0.39484208822250366,1.2171778678894043,0.0927739292383194,0.0063452934846282005,-0.061776384711265564,0.011732764542102814,-0.008958572521805763,0.731278657913208,0.0004126914427615702,0.31288138031959534,-0.7503279447555542,0.4458867609500885,1.232903003692627,-0.5052552223205566,0.6152729988098145,0.8488341569900513,-0.18019327521324158,0.07861015200614929,-0.8413978815078735,0.6303062438964844,0.07455645501613617,0.1419907659292221,-0.2073376476764679,0.5880261659622192,0.25467246770858765,0.15259142220020294,0.1270553320646286,0.9157819747924805,-0.08125767111778259,0.8070430159568787,0.0722379982471466,1.1162065267562866,-0.39484190940856934,-1.2171778678894043,0.09277388453483582,0.006345176603645086,0.056853532791137695,0.7678492069244385,1.2388783693313599,1.0985487699508667,0.6622852683067322,0.37049728631973267,0.22426718473434448,0.03596067428588867,0.6220548152923584,0.08022752404212952,0.1564146876335144,0.1612318456172943,0.6209526062011719,0.39883366227149963,0.034669145941734314,0.15890967845916748,0.1704488843679428,0.11886522173881531,0.11428612470626831,0.02591727301478386,0.05486607551574707,0.02070450782775879,0.31411343812942505,0.13235227763652802,0.2111435979604721,0.515770435333252,0.03248196840286255,0.8535010814666748,1.4186346530914307,1.2120693922042847,1.3336005210876465,1.1496524810791016,0.056480586528778076,-0.7677859663963318,-1.2386292219161987,-1.0982352495193481,0.6621343493461609,0.3702393174171448,-0.22410058975219727,-0.03577078506350517,-0.6218550205230713,0.07987973839044571,0.1561068743467331,0.16082420945167542,-0.620604932308197,-0.3985794186592102,-0.03424299880862236,0.15882126986980438,0.1700451821088791,0.11866637319326401,-0.11417342722415924,0.02584185265004635,-0.054307080805301666,0.020045576617121696,-0.3134211301803589,0.1321379393339157,-0.21091638505458832,0.5149807333946228,0.0321824736893177,-0.853334367275238,-1.4185739755630493,-1.2119364738464355,1.333396077156067,1.1494355201721191,0.12532758712768555,0.8723288178443909,1.1566073894500732,-2.0983874797821045,-1.971021056175232,0.4372802972793579,1.2560317516326904,0.6093591451644897,0.8283601999282837,-1.2459239959716797,-0.23606473207473755,-0.6338095664978027,-1.9136927127838135,-1.5083401203155518,-1.0523853302001953,1.7023251056671143,-0.17375144362449646,-2.1725785732269287,0.6591618061065674,0.5722407102584839,0.8335698843002319,1.4389890432357788,-1.6127996444702148,-1.559430480003357,-1.9398444890975952,-0.4175054728984833,-1.8529890775680542,-0.622983455657959,-1.146775245666504,0.6971505880355835,0.8164530396461487,-1.0676920413970947
A05_LA_T_2018143.flac,0.042323172092437744,0.00460970401763916,0.04815833270549774,0.722515344619751,0.0064022052101790905,0.3147794008255005,0.7579256892204285,0.44334137439727783,1.2259960174560547,0.5021635293960571,0.6163799166679382,0.8455020785331726,0.16662293672561646,0.057120729237794876,0.8390260338783264,0.6066041588783264,0.06878170371055603,0.13580633699893951,0.24057385325431824,0.57488614320755,0.25556614995002747,0.15980932116508484,0.1018238440155983,0.9307564496994019,0.06491576135158539,0.8143704533576965,0.0792536586523056,1.0877025127410889,0.3804922103881836,1.2117247581481934,0.08816216140985489,0.007430355995893478,-0.040559276938438416,0.003298237919807434,-0.04815793037414551,0.7206609845161438,0.006402000319212675,0.3147790729999542,-0.7579256892204285,0.44334137439727783,1.2259958982467651,-0.5001368522644043,0.6163799166679382,0.8439411520957947,-0.1655164510011673,0.05712063983082771,-0.8390259742736816,0.6066040992736816,0.0687813013792038,0.13580632209777832,-0.24057380855083466,0.574885904788971,0.2555661201477051,0.15980932116508484,0.1018238216638565,0.9264289736747742,-0.06491575390100479,0.8122432231903076,0.0792536586523056,1.085694670677185,-0.3804919719696045,-1.2117247581481934,0.0881621465086937,0.007430144585669041,0.0783766508102417,0.7650761604309082,1.2264200448989868,1.1060038805007935,0.6580776572227478,0.3733254671096802,0.20580631494522095,0.032891690731048584,0.6096773743629456,0.08242111653089523,0.164542555809021,0.16857069730758667,0.6248853206634521,0.40558913350105286,0.06112731993198395,0.15613782405853271,0.17987240850925446,0.1203761100769043,0.11298388242721558,0.020777050405740738,0.05737215280532837,0.023174971342086792,0.31057649850845337,0.13643963634967804,0.20314937829971313,0.49826568365097046,0.020291820168495178,0.8469628095626831,1.4142990112304688,1.1942288875579834,1.3478350639343262,1.1533311605453491,0.07801645994186401,-0.7650129199028015,-1.226155161857605,-1.1056832075119019,0.6579227447509766,0.37307798862457275,-0.20563216507434845,-0.03270290791988373,-0.60948246717453,0.0820322334766388,0.16420841217041016,0.16822750866413116,-0.6245056390762329,-0.40531688928604126,-0.06067246198654175,0.15603922307491302,0.1794530153274536,0.12017301470041275,-0.11287208646535873,0.020691730082035065,-0.056796249002218246,0.022513825446367264,-0.3098040223121643,0.13621394336223602,-0.20291249454021454,0.49743255972862244,0.019970284774899483,-0.8468049168586731,-1.4142383337020874,-1.1940767765045166,1.3476327657699585,1.1531240940093994,0.14386576414108276,0.8305830955505371,1.1574034690856934,-2.0797231197357178,-1.9812198877334595,0.4363439083099365,1.240365982055664,0.6398482322692871,0.8198193311691284,-1.2515554428100586,-0.23295104503631592,-0.658470094203949,-1.8737561702728271,-1.515153169631958,-1.0364198684692383,1.6828734874725342,-0.18360525369644165,-2.1404595375061035,0.652716875076294,0.5810987949371338,0.8464916944503784,1.4476161003112793,-1.5798355340957642,-1.574471116065979,-1.923776626586914,-0.45023253560066223,-1.862979769706726,-0.6368040442466736,-1.1558611392974854,0.6796061992645264,0.8054800033569336,-1.056175947189331
A05_LA_T_2854196.flac,0.058764100074768066,0.010648369789123535,0.00246147601865232,0.7431806921958923,0.0031664669513702393,0.3131762146949768,0.74399334192276,0.449290931224823,1.2363256216049194,0.513495922088623,0.6153045892715454,0.8368824124336243,0.18240845203399658,0.07301691919565201,0.8391291499137878,0.631819486618042,0.06696391850709915,0.1411142200231552,0.1852336823940277,0.5857766270637512,0.25319555401802063,0.15558935701847076,0.1339111626148224,0.9141615629196167,0.07430634647607803,0.8165984749794006,0.07396451383829117,1.1188488006591797,0.3814462423324585,1.214600920677185,0.09575028717517853,0.0033325646072626114,-0.05814361944794655,0.007651887834072113,0.0024613277055323124,0.7350813746452332,-0.003166371025145054,0.3131759762763977,-0.7439932823181152,0.4492909014225006,1.2363252639770508,-0.5127005577087402,0.6153044104576111,0.8321413993835449,-0.17906884849071503,0.07301685959100723,-0.8391289114952087,0.6318193078041077,0.06696358323097229,0.14111417531967163,-0.18523360788822174,0.5857764482498169,0.2531954348087311,0.15558934211730957,0.13391107320785522,0.9123244285583496,-0.07430633902549744,0.8062459230422974,0.07396448403596878,1.116006851196289,-0.3814460337162018,-1.2146008014678955,0.09575022757053375,-0.0033324765972793102,0.06448256969451904,0.7724959254264832,1.2286432981491089,1.0906176567077637,0.6589196920394897,0.35607004165649414,0.22666728496551514,0.03199660778045654,0.621662437915802,0.07715940475463867,0.15629762411117554,0.163030207157135,0.6236851215362549,0.4079877734184265,0.042519524693489075,0.15875476598739624,0.16296301782131195,0.11317616701126099,0.11601221561431885,0.03419174626469612,0.04737091064453125,0.015013277530670166,0.3122883439064026,0.12962116301059723,0.2104858011007309,0.5151296854019165,0.03221431374549866,0.8534286022186279,1.42638099193573,1.2098721265792847,1.33573579788208,1.1507322788238525,0.06414687633514404,-0.7724343538284302,-1.2284319400787354,-1.0903394222259521,0.6587867736816406,0.35584840178489685,-0.22652201354503632,-0.03182278200984001,-0.6214784383773804,0.07683675736188889,0.1560342162847519,0.16269603371620178,-0.6233952641487122,-0.4077795445919037,-0.042162295430898666,0.15867388248443604,0.16258887946605682,0.11298711597919464,-0.11590363085269928,0.03411925956606865,-0.04687125235795975,0.014428812079131603,-0.31163978576660156,0.12941929697990417,-0.21026702225208282,0.5144647359848022,0.03195253014564514,-0.8532795310020447,-1.4263265132904053,-1.2097383737564087,1.3355578184127808,1.1505310535430908,0.13044977188110352,0.8716563582420349,1.1672204732894897,-2.099578857421875,-1.9704656600952148,0.42549562454223633,1.2654337882995605,0.6255766153335571,0.8353683948516846,-1.2222108840942383,-0.23653775453567505,-0.6270749568939209,-1.9251108169555664,-1.5206619501113892,-1.0548326969146729,1.7095534801483154,-0.19035500288009644,-2.179689645767212,0.6653090715408325,0.5835612416267395,0.8470473289489746,1.4290002584457397,-1.6057511568069458,-1.5803096294403076,-1.9480854272842407,-0.4131108522415161,-1.851207971572876,-0.6321481466293335,-1.1513177156448364,0.6990178823471069,0.8348090648651123,-1.0819541215896606
A05_LA_T_9168834.flac,0.08166581392288208,0.015194714069366455,0.03614377975463867,0.628552258014679,0.010886629112064838,0.31939634680747986,0.6812760233879089,0.44848811626434326,1.1243237257003784,0.5321612358093262,0.587942898273468,0.6422551870346069,0.17438024282455444,0.0105690723285079,0.8166977763175964,0.5766310691833496,0.06886040419340134,0.10914846509695053,0.1995709389448166,0.5723960995674133,0.23478944599628448,0.17153705656528473,0.16638705134391785,0.8831946849822998,0.08778983354568481,0.8332271575927734,0.07553017884492874,1.0249930620193481,0.35904186964035034,1.190659999847412,0.065848708152771,0.001425115391612053,-0.08039487898349762,0.012864090502262115,-0.03614345192909241,0.6216698884963989,-0.010886522009968758,0.31939613819122314,-0.6812759637832642,0.4484880566596985,1.1243236064910889,-0.5295674204826355,0.5879428386688232,0.6354205012321472,-0.17261886596679688,0.010568995028734207,-0.8166975975036621,0.5766309499740601,0.06886004656553268,0.10914839059114456,-0.199570894241333,0.5723958611488342,0.23478934168815613,0.17153704166412354,0.16638696193695068,0.8807938098907471,-0.08778981864452362,0.8262845277786255,0.07553011178970337,1.0171809196472168,-0.359041690826416,-1.190659999847412,0.06584864109754562,0.001424948568455875,0.10603111982345581,0.728397786617279,1.2215107679367065,1.0725494623184204,0.6352152228355408,0.3352234959602356,0.21986320614814758,0.011370331048965454,0.6275970935821533,0.06953141838312149,0.13896286487579346,0.18911418318748474,0.599184513092041,0.3598836660385132,0.11785263568162918,0.11570149660110474,0.15092483162879944,0.07717332243919373,0.07139766216278076,0.08592576533555984,0.10050499439239502,0.058839619159698486,0.3216143250465393,0.12795251607894897,0.21978625655174255,0.5527257919311523,0.006446242332458496,0.7296061515808105,1.4067845344543457,1.200638771057129,1.3158488273620605,1.098278284072876,0.10575085133314133,-0.7283397912979126,-1.221343755722046,-1.0722541809082031,0.6350995898246765,0.33502647280693054,-0.21972453594207764,-0.011250391602516174,-0.627458930015564,0.0692300945520401,0.13870297372341156,0.18881426751613617,-0.5989335179328918,-0.35971376299858093,-0.11758344620466232,0.11562514305114746,0.150645911693573,0.07701706886291504,-0.07131079584360123,0.08586206287145615,-0.10000387579202652,0.0582854263484478,-0.32099395990371704,0.12780892848968506,-0.21963027119636536,0.5521990656852722,0.0061747669242322445,-0.7294811606407166,-1.4067442417144775,-1.2005144357681274,1.3157137632369995,1.0981016159057617,0.13916271924972534,0.7960453033447266,1.053510308265686,-1.9532514810562134,-1.8737812042236328,0.4965708255767822,1.2002356052398682,0.5987952351570129,0.816141664981842,-1.1589772701263428,-0.16569900512695312,-0.6977165937423706,-1.9038832187652588,-1.4751845598220825,-1.0984668731689453,1.698699712753296,-0.18829357624053955,-2.105879783630371,0.7537068724632263,0.6172106266021729,0.9529392719268799,1.4267207384109497,-1.596250057220459,-1.5873041152954102,-1.801555871963501,-0.4280664324760437,-1.8160812854766846,-0.6828892230987549,-1.0847525596618652,0.59047931432724,0.8105101585388184,-0.962672770023346
A05_LA_T_1241073.flac,0.03150242567062378,0.010922253131866455,0.01934274472296238,0.7204089760780334,0.0012229694984853268,0.31488266587257385,0.741059422492981,0.44980719685554504,1.218867301940918,0.5033135414123535,0.612748920917511,0.812541663646698,0.1759737730026245,0.0516573004424572,0.830910325050354,0.6117522120475769,0.059118591248989105,0.1315990388393402,0.1943701058626175,0.5741405487060547,0.249764084815979,0.16153569519519806,0.12255162000656128,0.9236488342285156,0.05613169074058533,0.8118593692779541,0.07992509752511978,1.0696847438812256,0.36274391412734985,1.2052760124206543,0.0906328558921814,0.0002848127332981676,-0.02954941615462303,0.008878875523805618,-0.01934225857257843,0.7117167711257935,0.0012226724065840244,0.3148822784423828,-0.741059422492981,0.44980716705322266,1.2188671827316284,-0.5021156072616577,0.6127488613128662,0.806565523147583,-0.1712629199028015,0.05165720731019974,-0.8309102058410645,0.6117520332336426,0.059118084609508514,0.13159897923469543,-0.19437003135681152,0.5741403698921204,0.24976399540901184,0.16153565049171448,0.12255153805017471,0.9208787679672241,-0.05613163486123085,0.8043149709701538,0.0799250528216362,1.0674960613250732,-0.362743616104126,-1.2052758932113647,0.09063281863927841,0.00028454704442992806,0.08843713998794556,0.7590523958206177,1.223199486732483,1.0858886241912842,0.6528345942497253,0.34972885251045227,0.20635634660720825,0.038385242223739624,0.6039485931396484,0.08834066987037659,0.16105341911315918,0.17364725470542908,0.6309650540351868,0.43025994300842285,0.07298234105110168,0.15396034717559814,0.17212030291557312,0.10683503746986389,0.11226147413253784,0.04645727947354317,0.053302109241485596,0.027408301830291748,0.30128470063209534,0.1370970457792282,0.20455947518348694,0.49923139810562134,0.02269349992275238,0.8419531583786011,1.4084365367889404,1.1851476430892944,1.3400789499282837,1.1430552005767822,0.0880955159664154,-0.758985698223114,-1.2229706048965454,-1.0855927467346191,0.6526777148246765,0.3495261073112488,-0.20619504153728485,-0.03820658475160599,-0.6037667393684387,0.08795680850744247,0.16077473759651184,0.17324590682983398,-0.6306595206260681,-0.4300309717655182,-0.07261098176240921,0.15386007726192474,0.17171479761600494,0.10663806647062302,-0.11214923858642578,0.04637013003230095,-0.05277032405138016,0.026793120428919792,-0.3006156384944916,0.1368701308965683,-0.204318568110466,0.4985537528991699,0.022369330748915672,-0.8418053984642029,-1.408378005027771,-1.1849898099899292,1.3398971557617188,1.1428617238998413,0.15311259031295776,0.8285490870475769,1.1507937908172607,-2.0486605167388916,-1.9524604082107544,0.4412514567375183,1.2461073398590088,0.6506601572036743,0.8077497482299805,-1.2085838317871094,-0.20845335721969604,-0.6609420776367188,-1.8960257768630981,-1.5025306940078735,-1.0425183773040771,1.6971609592437744,-0.18573719263076782,-2.151764392852783,0.6826176047325134,0.6130560636520386,0.8549906015396118,1.4297916889190674,-1.560741662979126,-1.5988624095916748,-1.9010636806488037,-0.422145813703537,-1.8452776670455933,-0.6423434615135193,-1.1305238008499146,0.6603739261627197,0.835724413394928,-1.051667332649231
A05_LA_T_5012713.flac,0.025888025760650635,0.00399470329284668,0.021432027220726013,0.7170532941818237,0.00288197910413146,0.31976860761642456,0.7456167340278625,0.44411858916282654,1.2303435802459717,0.4997093677520752,0.6218795776367188,0.8449144959449768,0.16756528615951538,0.06101231649518013,0.8403336405754089,0.6032507419586182,0.05113163962960243,0.14503593742847443,0.24045848846435547,0.5690644979476929,0.25155404210090637,0.1442948281764984,0.10814004391431808,0.9348752498626709,0.08487073332071304,0.7799037098884583,0.086855448782444,1.0663666725158691,0.3716773986816406,1.2061119079589844,0.09505995362997055,0.004737803712487221,-0.0256437249481678,0.0010411739349365234,-0.021431852132081985,0.7106821537017822,0.002881870372220874,0.319768488407135,-0.7456166744232178,0.4441184997558594,1.2303435802459717,-0.4984530508518219,0.621879518032074,0.8408524394035339,-0.16111209988594055,0.06101229786872864,-0.8403335809707642,0.6032506823539734,0.05113140493631363,0.14503584802150726,-0.2404584288597107,0.5690643787384033,0.251554012298584,0.14429479837417603,0.1081399917602539,0.9278082251548767,-0.08487068116664886,0.7751621603965759,0.08685542643070221,1.06385338306427,-0.37167730927467346,-1.2061117887496948,0.09505990147590637,-0.004737749230116606,0.08678305149078369,0.7567152380943298,1.1992731094360352,1.0972338914871216,0.6517313122749329,0.36152535676956177,0.21705687046051025,0.023709595203399658,0.5896216034889221,0.08839593827724457,0.16728347539901733,0.16898031532764435,0.6291599869728088,0.4349384903907776,0.05092489719390869,0.16377192735671997,0.18626461923122406,0.12007144093513489,0.10468119382858276,0.02026398852467537,0.04104721546173096,0.007992804050445557,0.30973950028419495,0.1375400424003601,0.2062550187110901,0.48576557636260986,0.025912493467330933,0.8581843972206116,1.40877366065979,1.1843761205673218,1.3428488969802856,1.157320499420166,0.08643142879009247,-0.75665283203125,-1.1990400552749634,-1.0969338417053223,0.651597261428833,0.3612637221813202,-0.21689549088478088,-0.02353028953075409,-0.589417576789856,0.08806412667036057,0.16697147488594055,0.16856926679611206,-0.628820538520813,-0.4347012937068939,-0.05051397904753685,0.16368594765663147,0.1858966201543808,0.11988433450460434,-0.10456885397434235,0.02019207738339901,-0.04049362614750862,0.0073607685044407845,-0.3090582489967346,0.13734595477581024,-0.20604370534420013,0.4849933683872223,0.025624318048357964,-0.8580387234687805,-1.4087133407592773,-1.1842405796051025,1.3426580429077148,1.1570966243743896,0.16001200675964355,0.8485530018806458,1.1488535404205322,-2.0790560245513916,-1.989903211593628,0.4153138995170593,1.2202270030975342,0.6517965793609619,0.8016843795776367,-1.2428090572357178,-0.2214641571044922,-0.6349238753318787,-1.8720362186431885,-1.4860637187957764,-1.0274734497070312,1.7040021419525146,-0.2103385031223297,-2.165645122528076,0.6384565234184265,0.5889718532562256,0.8441474437713623,1.4210790395736694,-1.5591528415679932,-1.586469054222107,-1.9162535667419434,-0.43628358840942383,-1.846569538116455,-0.6429681777954102,-1.1820275783538818,0.6882011890411377,0.7888414263725281,-1.089066982269287
